{
  "semi_circleShape": {
    "degree": 3,
    "form": 2,
    "cv_positions": [
      [
        -0.8299839142667758,
        4.798237340988468e-17,
        0.0009826207286324374
      ],
      [
        1.2590196627376276e-16,
        6.785732323110913e-17,
        0.00098586655417654
      ],
      [
        0.8299839142667746,
        4.798237340988471e-17,
        0.0009826207286326282
      ],
      [
        1.108194187554388,
        1.966335461618786e-32,
        0.000974784612581726
      ],
      [
        0.7836116248912246,
        -4.7982373409884694e-17,
        -0.7810134617870051
      ],
      [
        4.689079936358112e-16,
        -6.785732323110915e-17,
        -1.1055960244501692
      ],
      [
        -0.7836116248912237,
        -4.798237340988472e-17,
        -0.7810134617870057
      ],
      [
        -1.108194187554388,
        -3.644630067904792e-32,
        0.0009747846125815387
      ],
      [
        -0.8299839142667758,
        4.798237340988468e-17,
        0.0009826207286324374
      ],
      [
        1.2590196627376276e-16,
        6.785732323110913e-17,
        0.00098586655417654
      ],
      [
        0.8299839142667746,
        4.798237340988471e-17,
        0.0009826207286326282
      ]
    ],
    "cv_weights": [
      1.0,
      1.0,
      1.0,
      1.0,
      1.0,
      1.0,
      1.0,
      1.0,
      1.0,
      1.0,
      1.0
    ],
    "knots": [
      -2.0,
      -1.0,
      0.0,
      1.0,
      2.0,
      3.0,
      4.0,
      5.0,
      6.0,
      7.0,
      8.0,
      9.0,
      10.0
    ]
  }
}