{
  "Character_baseshape01": {
    "degree": 3,
    "form": 2,
    "cv_positions": [
      [
        -0.9870927008424709,
        0.14982434845458759,
        -0.6402242181635288
      ],
      [
        -1.0175447441556755,
        0.22792364269601822,
        -0.5874797319507704
      ],
      [
        -1.0479967874688803,
        0.14982434845458759,
        -0.5347352457380119
      ],
      [
        -1.106291808541796,
        0.038923555295914944,
        -0.4337653074114236
      ],
      [
        -1.0802983951935006,
        0.05868767815074365,
        -0.47878721999281043
      ],
      [
        -1.0175447441556749,
        0.07159249715061844,
        -0.58747973195077
      ],
      [
        -0.9547910931178508,
        0.058687678150743584,
        -0.6961722439087304
      ],
      [
        -0.9287976797695549,
        0.038923555295914944,
        -0.7411941564901172
      ],
      [
        -0.9870927008424709,
        0.14982434845458759,
        -0.6402242181635288
      ],
      [
        -1.0175447441556755,
        0.22792364269601822,
        -0.5874797319507704
      ],
      [
        -1.0479967874688803,
        0.14982434845458759,
        -0.5347352457380119
      ]
    ],
    "cv_weights": [
      1.0,
      1.0,
      1.0,
      1.0,
      1.0,
      1.0,
      1.0,
      1.0,
      1.0,
      1.0,
      1.0
    ],
    "knots": [
      -2.0,
      -1.0,
      0.0,
      1.0,
      2.0,
      3.0,
      4.0,
      5.0,
      6.0,
      7.0,
      8.0,
      9.0,
      10.0
    ]
  },
  "Character_baseshape02": {
    "degree": 3,
    "form": 2,
    "cv_positions": [
      [
        1.0479967874688807,
        0.14982434845458759,
        -0.5347352457380098
      ],
      [
        1.0175447441556762,
        0.22792364269601822,
        -0.5874797319507682
      ],
      [
        0.9870927008424716,
        0.14982434845458759,
        -0.6402242181635266
      ],
      [
        0.9287976797695559,
        0.038923555295914944,
        -0.7411941564901151
      ],
      [
        0.9547910931178514,
        0.05868767815074365,
        -0.6961722439087282
      ],
      [
        1.0175447441556753,
        0.07159249715061844,
        -0.5874797319507679
      ],
      [
        1.080298395193501,
        0.058687678150743584,
        -0.4787872199928084
      ],
      [
        1.1062918085417965,
        0.038923555295914944,
        -0.43376530741142133
      ],
      [
        1.0479967874688807,
        0.14982434845458759,
        -0.5347352457380098
      ],
      [
        1.0175447441556762,
        0.22792364269601822,
        -0.5874797319507682
      ],
      [
        0.9870927008424716,
        0.14982434845458759,
        -0.6402242181635266
      ]
    ],
    "cv_weights": [
      1.0,
      1.0,
      1.0,
      1.0,
      1.0,
      1.0,
      1.0,
      1.0,
      1.0,
      1.0,
      1.0
    ],
    "knots": [
      -2.0,
      -1.0,
      0.0,
      1.0,
      2.0,
      3.0,
      4.0,
      5.0,
      6.0,
      7.0,
      8.0,
      9.0,
      10.0
    ]
  },
  "Character_baseshape03": {
    "degree": 3,
    "form": 2,
    "cv_positions": [
      [
        0.060904086626409164,
        0.14982434845458759,
        -1.1749594639015366
      ],
      [
        1.0868380833418625e-17,
        0.22792364269601822,
        -1.1749594639015366
      ],
      [
        -0.060904086626409164,
        0.14982434845458759,
        -1.1749594639015366
      ],
      [
        -0.17749412877224063,
        0.03892358745797464,
        -1.1749594639015366
      ],
      [
        -0.1255073020756496,
        0.058687699592116796,
        -1.1749594639015366
      ],
      [
        -1.7779708272908464e-17,
        0.07159249715061844,
        -1.174959463901536
      ],
      [
        0.1255073020756496,
        0.058687699592116734,
        -1.1749594639015368
      ],
      [
        0.17749412877224063,
        0.03892358745797464,
        -1.1749594639015366
      ],
      [
        0.060904086626409164,
        0.14982434845458759,
        -1.1749594639015366
      ],
      [
        1.0868380833418625e-17,
        0.22792364269601822,
        -1.1749594639015366
      ],
      [
        -0.060904086626409164,
        0.14982434845458759,
        -1.1749594639015366
      ]
    ],
    "cv_weights": [
      1.0,
      1.0,
      1.0,
      1.0,
      1.0,
      1.0,
      1.0,
      1.0,
      1.0,
      1.0,
      1.0
    ],
    "knots": [
      -2.0,
      -1.0,
      0.0,
      1.0,
      2.0,
      3.0,
      4.0,
      5.0,
      6.0,
      7.0,
      8.0,
      9.0,
      10.0
    ]
  },
  "Character_baseshape04": {
    "degree": 3,
    "form": 2,
    "cv_positions": [
      [
        0.9870927008424715,
        0.14982434845458759,
        0.6402242181635277
      ],
      [
        1.0175447441556762,
        0.22792364269601822,
        0.5874797319507693
      ],
      [
        1.0479967874688807,
        0.14982434845458759,
        0.5347352457380109
      ],
      [
        1.1062918085417968,
        0.038923555295914944,
        0.4337653074114224
      ],
      [
        1.080298395193501,
        0.05868767815074365,
        0.4787872199928093
      ],
      [
        1.0175447441556753,
        0.07159249715061844,
        0.587479731950769
      ],
      [
        0.9547910931178514,
        0.058687678150743584,
        0.6961722439087294
      ],
      [
        0.9287976797695556,
        0.038923555295914944,
        0.7411941564901162
      ],
      [
        0.9870927008424715,
        0.14982434845458759,
        0.6402242181635277
      ],
      [
        1.0175447441556762,
        0.22792364269601822,
        0.5874797319507693
      ],
      [
        1.0479967874688807,
        0.14982434845458759,
        0.5347352457380109
      ]
    ],
    "cv_weights": [
      1.0,
      1.0,
      1.0,
      1.0,
      1.0,
      1.0,
      1.0,
      1.0,
      1.0,
      1.0,
      1.0
    ],
    "knots": [
      -2.0,
      -1.0,
      0.0,
      1.0,
      2.0,
      3.0,
      4.0,
      5.0,
      6.0,
      7.0,
      8.0,
      9.0,
      10.0
    ]
  },
  "Character_baseshape05": {
    "degree": 3,
    "form": 2,
    "cv_positions": [
      [
        -0.06090408662641039,
        0.14982434845458759,
        1.1749594639015375
      ],
      [
        -1.1983330553526833e-15,
        0.22792364269601822,
        1.1749594639015375
      ],
      [
        0.06090408662640801,
        0.14982434845458759,
        1.1749594639015375
      ],
      [
        0.17749412877223955,
        0.03892358745797464,
        1.1749594639015377
      ],
      [
        0.12550730207564853,
        0.058687699592116796,
        1.1749594639015377
      ],
      [
        -1.1696849662463553e-15,
        0.07159249715061844,
        1.1749594639015366
      ],
      [
        -0.1255073020756509,
        0.058687699592116734,
        1.1749594639015375
      ],
      [
        -0.17749412877224194,
        0.03892358745797464,
        1.1749594639015373
      ],
      [
        -0.06090408662641039,
        0.14982434845458759,
        1.1749594639015375
      ],
      [
        -1.1983330553526833e-15,
        0.22792364269601822,
        1.1749594639015375
      ],
      [
        0.06090408662640801,
        0.14982434845458759,
        1.1749594639015375
      ]
    ],
    "cv_weights": [
      1.0,
      1.0,
      1.0,
      1.0,
      1.0,
      1.0,
      1.0,
      1.0,
      1.0,
      1.0,
      1.0
    ],
    "knots": [
      -2.0,
      -1.0,
      0.0,
      1.0,
      2.0,
      3.0,
      4.0,
      5.0,
      6.0,
      7.0,
      8.0,
      9.0,
      10.0
    ]
  },
  "Character_baseshape06": {
    "degree": 3,
    "form": 2,
    "cv_positions": [
      [
        -1.0479967874688818,
        0.14982434845458759,
        0.5347352457380087
      ],
      [
        -1.0175447441556773,
        0.22792364269601822,
        0.5874797319507672
      ],
      [
        -0.9870927008424728,
        0.14982434845458759,
        0.6402242181635257
      ],
      [
        -0.9287976797695573,
        0.038923555295914944,
        0.7411941564901142
      ],
      [
        -0.9547910931178527,
        0.05868767815074365,
        0.6961722439087273
      ],
      [
        -1.0175447441556766,
        0.07159249715061844,
        0.5874797319507667
      ],
      [
        -1.0802983951935021,
        0.058687678150743584,
        0.4787872199928071
      ],
      [
        -1.1062918085417974,
        0.038923555295914944,
        0.4337653074114201
      ],
      [
        -1.0479967874688818,
        0.14982434845458759,
        0.5347352457380087
      ],
      [
        -1.0175447441556773,
        0.22792364269601822,
        0.5874797319507672
      ],
      [
        -0.9870927008424728,
        0.14982434845458759,
        0.6402242181635257
      ]
    ],
    "cv_weights": [
      1.0,
      1.0,
      1.0,
      1.0,
      1.0,
      1.0,
      1.0,
      1.0,
      1.0,
      1.0,
      1.0
    ],
    "knots": [
      -2.0,
      -1.0,
      0.0,
      1.0,
      2.0,
      3.0,
      4.0,
      5.0,
      6.0,
      7.0,
      8.0,
      9.0,
      10.0
    ]
  },
  "Character_baseshape07": {
    "degree": 3,
    "form": 2,
    "cv_positions": [
      [
        -0.39586138825396966,
        -3.4264602609241205e-09,
        0.899437751353608
      ],
      [
        -0.3588329731658238,
        -1.6048370333343938e-09,
        0.9202313985145748
      ],
      [
        -0.3470558493274869,
        -1.5080942885077281e-09,
        0.929363668420376
      ],
      [
        -0.347413468907011,
        -3.3348306196254435e-09,
        0.9367311930897795
      ],
      [
        -0.34521183974223013,
        -2.123800889649608e-09,
        0.9806854325759449
      ],
      [
        -0.34557595243582845,
        -3.552362391371298e-09,
        1.033141789843547
      ],
      [
        -0.34646775984661116,
        -2.2949676303229685e-09,
        1.0866999634579149
      ],
      [
        -0.3422663217587089,
        -2.509033532503317e-09,
        1.1327793083882205
      ],
      [
        -0.3252836563973484,
        -1.291487890821112e-09,
        1.174629553225883
      ],
      [
        -0.27250923374921826,
        -2.67903596048719e-09,
        1.1885169077211062
      ],
      [
        -0.14969296396124818,
        -1.6767724390843625e-09,
        1.1914470524516965
      ],
      [
        -5.930778436541655e-08,
        -1.9806237693203915e-09,
        1.1904973734059536
      ],
      [
        0.1496927277079893,
        -1.8902055280030416e-09,
        1.1914469466915796
      ],
      [
        0.272509183469504,
        -2.0810171314510975e-09,
        1.1885173323415852
      ],
      [
        0.3252837027781045,
        -2.760823992950513e-09,
        1.1746293007051003
      ],
      [
        0.3422661688795594,
        -5.8477705459301235e-09,
        1.1327792877794343
      ],
      [
        0.34646760085082584,
        -4.675285832334035e-09,
        1.0867002884694101
      ],
      [
        0.34557579899467133,
        -6.129138485694533e-09,
        1.0331420534752824
      ],
      [
        0.3452116747910085,
        -4.895556277251212e-09,
        0.9806855580233556
      ],
      [
        0.347413340151929,
        -5.118044903702672e-09,
        0.936731245873225
      ],
      [
        0.3470557725922428,
        -3.6852436567806343e-09,
        0.9293638590151042
      ],
      [
        0.35883289824971226,
        -3.847621079543696e-09,
        0.9202313020373188
      ],
      [
        0.4156650765721326,
        -2.6167419639099457e-09,
        0.8850534247175598
      ],
      [
        0.48751384088422783,
        -2.891634412027613e-09,
        0.8443986773571545
      ],
      [
        0.558645887542456,
        -2.772255243025882e-09,
        0.8025033270932974
      ],
      [
        0.617527393765533,
        -2.7311929669643313e-09,
        0.7708740009625459
      ],
      [
        0.6313244970211882,
        -1.725126913965973e-09,
        0.7652411380971318
      ],
      [
        0.6375263028683067,
        -2.4678222086059153e-09,
        0.7692344500124292
      ],
      [
        0.6766925896762783,
        -1.0858269921607126e-09,
        0.7893047977641753
      ],
      [
        0.7219391953644045,
        -2.44695019219996e-09,
        0.8158486400737794
      ],
      [
        0.7678762365687187,
        -1.2833760497248342e-09,
        0.8433998010417164
      ],
      [
        0.8098824476962676,
        -1.695858618611671e-09,
        0.8628010431756754
      ],
      [
        0.8546172623302576,
        -2.410197862007622e-09,
        0.86901866092324
      ],
      [
        0.8930313835209939,
        -4.708359466731191e-09,
        0.8302585240035587
      ],
      [
        0.9569769554941049,
        -3.780581667829403e-09,
        0.7253612554863924
      ],
      [
        1.031000463531106,
        -4.092078645485791e-09,
        0.5952486925269567
      ],
      [
        1.1066697918402353,
        -4.009206474581038e-09,
        0.4660857139899701
      ],
      [
        1.165540456245786,
        -4.263923306449669e-09,
        0.3582586055915023
      ],
      [
        1.1799007251331046,
        -5.111312081896515e-09,
        0.30561087546846394
      ],
      [
        1.152148760954151,
        -7.178675747083624e-09,
        0.26997847273008
      ],
      [
        1.1143438124888116,
        -5.8229469736717335e-09,
        0.24330039805279335
      ],
      [
        1.0675149074854613,
        -7.183945686341048e-09,
        0.21729350558161925
      ],
      [
        1.0219045292254856,
        -6.0175301661043426e-09,
        0.1913806041686536
      ],
      [
        0.9849394723628982,
        -6.400911983025669e-09,
        0.16749669274752954
      ],
      [
        0.9783803855923652,
        -5.7274632054819635e-09,
        0.16412297179493343
      ],
      [
        0.9763604435981782,
        -6.199272279329149e-09,
        0.1493571977207145
      ],
      [
        0.9743107689574695,
        -4.984169102999836e-09,
        0.08255010112097233
      ],
      [
        0.975028118972319,
        -5.260300567677457e-09,
        1.1785912004945968e-08
      ],
      [
        0.9743108231490366,
        -5.141956616323282e-09,
        -0.08255014609258149
      ],
      [
        0.9763602284165875,
        -5.101928515758028e-09,
        -0.14935719655354043
      ],
      [
        0.978380386060563,
        -3.879005933483731e-09,
        -0.1641228644759311
      ],
      [
        0.9849394748427315,
        -3.946118657794015e-09,
        -0.16749670328877536
      ],
      [
        1.0219045114250647,
        -2.4136612713985728e-09,
        -0.19138059791069872
      ],
      [
        1.067514979207689,
        -3.7114809051523736e-09,
        -0.21729352266770682
      ],
      [
        1.1143435948457672,
        -2.6353450050815335e-09,
        -0.24330036352698972
      ],
      [
        1.152148687613812,
        -3.218732350357742e-09,
        -0.26997831934856736
      ],
      [
        1.1799009265894989,
        -4.780678823970731e-09,
        -0.30561094588316257
      ],
      [
        1.16554039285888,
        -6.786117377022222e-09,
        -0.3582585797024948
      ],
      [
        1.1066697862083108,
        -5.780790596183727e-09,
        -0.4660857168969075
      ],
      [
        1.0310005671452196,
        -6.083276355819977e-09,
        -0.5952486807457965
      ],
      [
        0.9569769215378983,
        -5.991291475896155e-09,
        -0.7253612994311855
      ],
      [
        0.8930313879924252,
        -6.158480577514827e-09,
        -0.8302584083624993
      ],
      [
        0.8546173146003344,
        -6.012467564774237e-09,
        -0.8690186782628464
      ],
      [
        0.8098823289243493,
        -6.144032736060436e-09,
        -0.8628010302648296
      ],
      [
        0.7678762531178907,
        -4.599294962843482e-09,
        -0.8433997980665602
      ],
      [
        0.7219391920731373,
        -5.8716985298579886e-09,
        -0.8158486366202286
      ],
      [
        0.6766925838214259,
        -4.768908004323504e-09,
        -0.7893048146210364
      ],
      [
        0.6375262299239853,
        -5.3147839881334015e-09,
        -0.7692343347542785
      ],
      [
        0.6313247776374696,
        -5.70419501797729e-09,
        -0.7652411304394874
      ],
      [
        0.6175272154074001,
        -7.108442537331983e-09,
        -0.7708741167838337
      ],
      [
        0.5586460348331372,
        -6.044415291267072e-09,
        -0.8025032617524744
      ],
      [
        0.4875138485372989,
        -6.340488473810921e-09,
        -0.8443987970175044
      ],
      [
        0.4156650555706396,
        -6.241986122376868e-09,
        -0.8850534044988604
      ],
      [
        0.3588329047570971,
        -6.346315968500908e-09,
        -0.9202313034509721
      ],
      [
        0.3470557685284423,
        -5.815830908772766e-09,
        -0.9293638873677543
      ],
      [
        0.3474132864041579,
        -6.291437811759472e-09,
        -0.9367312387870074
      ],
      [
        0.3452116888260987,
        -4.779467042502165e-09,
        -0.9806855671012953
      ],
      [
        0.3455757980411651,
        -6.08141579468366e-09,
        -1.0331419663878516
      ],
      [
        0.3464675917875231,
        -4.998909251251911e-09,
        -1.0867002474386613
      ],
      [
        0.34226621136060437,
        -5.5547960233117275e-09,
        -1.1327794558600113
      ],
      [
        0.32528356266105973,
        -6.0324366104101524e-09,
        -1.1746294272365974
      ],
      [
        0.2725091821166941,
        -6.834554600160278e-09,
        -1.188517131237849
      ],
      [
        0.1496927522240603,
        -5.6771980309752856e-09,
        -1.191446996633818
      ],
      [
        -6.521221187998829e-08,
        -5.963018072092684e-09,
        -1.1904973734565587
      ],
      [
        -0.14969296040111993,
        -5.8543742371687355e-09,
        -1.1914470023076102
      ],
      [
        -0.27250924500401386,
        -5.870136210631795e-09,
        -1.1885171095126035
      ],
      [
        -0.3252838178666259,
        -4.563106246810194e-09,
        -1.1746294330260767
      ],
      [
        -0.3422663229720097,
        -3.778493107995227e-09,
        -1.1327791268455838
      ],
      [
        -0.3464677592542802,
        -2.2279827901567117e-09,
        -1.0866999556959944
      ],
      [
        -0.34557595284473114,
        -3.504639417771389e-09,
        -1.03314202066654
      ],
      [
        -0.34521183858559207,
        -2.3983210324030596e-09,
        -0.9806852722796595
      ],
      [
        -0.3474134729928973,
        -2.945781319105462e-09,
        -0.9367312300980128
      ],
      [
        -0.3470558444429122,
        -3.638680762544902e-09,
        -0.9293636690715353
      ],
      [
        -0.3588330306621335,
        -5.66597099563225e-09,
        -0.9202312925900641
      ],
      [
        -0.4156651398495183,
        -4.737230006100676e-09,
        -0.8850533340908124
      ],
      [
        -0.48751395624712074,
        -5.052008433151496e-09,
        -0.8443987124304382
      ],
      [
        -0.5586460455127813,
        -4.972324504193206e-09,
        -0.8025033165126743
      ],
      [
        -0.61752742745894,
        -5.219960584750533e-09,
        -0.7708739903689006
      ],
      [
        -0.6313247027480036,
        -5.598791765428266e-09,
        -0.7652411900758479
      ],
      [
        -0.6375263601787649,
        -7.1584438619188714e-09,
        -0.7692342347372986
      ],
      [
        -0.6766926173665405,
        -5.8174418370294725e-09,
        -0.7893048238721802
      ],
      [
        -0.721939173371091,
        -7.186827623869198e-09,
        -0.8158486245551718
      ],
      [
        -0.7678762438486909,
        -6.0105017296887745e-09,
        -0.8433998079471398
      ],
      [
        -0.8098824351956957,
        -6.367970377909197e-09,
        -0.8628010294649137
      ],
      [
        -0.854617314500608,
        -4.913723092675187e-09,
        -0.8690186666928875
      ],
      [
        -0.8930313827810594,
        -4.805230955540317e-09,
        -0.8302584134271179
      ],
      [
        -0.956976953763037,
        -3.5733901257556955e-09,
        -0.7253612993337544
      ],
      [
        -1.0310004602506155,
        -3.851563212343018e-09,
        -0.5952486463170328
      ],
      [
        -1.1066697865905706,
        -3.735375178170012e-09,
        -0.4660858899017704
      ],
      [
        -1.1655404538670695,
        -3.687230182528311e-09,
        -0.358258745668688
      ],
      [
        -1.1799007254147038,
        -2.2126127805309634e-09,
        -0.3056111089044502
      ],
      [
        -1.1521488155166264,
        -2.4475907304935997e-09,
        -0.26997858344765896
      ],
      [
        -1.1143438080582662,
        -1.080321506002847e-09,
        -0.24330044956543406
      ],
      [
        -1.0675148850068383,
        -2.449832256314465e-09,
        -0.21729358134779284
      ],
      [
        -1.0219045182047604,
        -1.276347651597907e-09,
        -0.1913807521727871
      ],
      [
        -0.9849394761051184,
        -1.662916875090804e-09,
        -0.16749683210920818
      ],
      [
        -0.9783803854446196,
        -1.596461441382595e-09,
        -0.16412311387030767
      ],
      [
        -0.9763604436206442,
        -3.3143180426178746e-09,
        -0.1493573351561922
      ],
      [
        -0.9743107687972016,
        -2.3698024309768326e-09,
        -0.08255025180958435
      ],
      [
        -0.9750281195735978,
        -2.6833407668539086e-09,
        -1.6189266253475728e-07
      ],
      [
        -0.9743108208897749,
        -2.6026243313900323e-09,
        0.08255000061462628
      ],
      [
        -0.976360237553195,
        -2.8492239176212973e-09,
        0.14935704146196696
      ],
      [
        -0.9783803285452853,
        -3.4449230196070056e-09,
        0.1641226793955629
      ],
      [
        -0.9849395926482107,
        -5.680147342573785e-09,
        0.1674965649357501
      ],
      [
        -1.0219044383193503,
        -4.489608223352866e-09,
        0.19138043819140552
      ],
      [
        -1.0675150437628842,
        -5.922301568083664e-09,
        0.21729329863781222
      ],
      [
        -1.114343929897085,
        -4.658530866698857e-09,
        0.24330016624338324
      ],
      [
        -1.1521489152454933,
        -4.845087678443186e-09,
        0.26997830653781424
      ],
      [
        -1.1799008444653414,
        -2.5432482480352737e-09,
        0.30561071980987065
      ],
      [
        -1.1655405918902833,
        -2.7274740326502286e-09,
        0.3582584658873719
      ],
      [
        -1.1066698654897849,
        -1.5731808459640098e-09,
        0.4660855168737197
      ],
      [
        -1.031000812895344,
        -1.8603653437284678e-09,
        0.595248445297718
      ],
      [
        -0.9569770038630946,
        -1.7532894539793096e-09,
        0.7253612823229549
      ],
      [
        -0.8930315595834832,
        -1.7926717903128805e-09,
        0.8302583397807415
      ],
      [
        -0.8546171360528528,
        -1.311458305184604e-09,
        0.8690187221866166
      ],
      [
        -0.8098823747564479,
        -3.482236955246735e-09,
        0.8628007488748126
      ],
      [
        -0.7678763342243116,
        -2.3039713772614426e-09,
        0.8433997318715428
      ],
      [
        -0.7219392723724574,
        -3.762078079379952e-09,
        0.8158484799936343
      ],
      [
        -0.6766926412831678,
        -2.5249701178055377e-09,
        0.7893048062068372
      ],
      [
        -0.6375262936087094,
        -2.7490447785872996e-09,
        0.7692341499571808
      ],
      [
        -0.6313248449641874,
        -1.6197294588111082e-09,
        0.7652411273945382
      ],
      [
        -0.6175272692647917,
        -2.4051478865921863e-09,
        0.7708739422330533
      ],
      [
        -0.5586461176102726,
        -1.3095561457591248e-09,
        0.8025032180146651
      ],
      [
        -0.4875149189878257,
        -1.2549868017332004e-08,
        0.8443981477894482
      ],
      [
        -0.39586138825396966,
        -3.4264602609241205e-09,
        0.899437751353608
      ],
      [
        -0.3588329731658238,
        -1.6048370333343938e-09,
        0.9202313985145748
      ],
      [
        -0.3470558493274869,
        -1.5080942885077281e-09,
        0.929363668420376
      ]
    ],
    "cv_weights": [
      1.0,
      1.0,
      1.0,
      1.0,
      1.0,
      1.0,
      1.0,
      1.0,
      1.0,
      1.0,
      1.0,
      1.0,
      1.0,
      1.0,
      1.0,
      1.0,
      1.0,
      1.0,
      1.0,
      1.0,
      1.0,
      1.0,
      1.0,
      1.0,
      1.0,
      1.0,
      1.0,
      1.0,
      1.0,
      1.0,
      1.0,
      1.0,
      1.0,
      1.0,
      1.0,
      1.0,
      1.0,
      1.0,
      1.0,
      1.0,
      1.0,
      1.0,
      1.0,
      1.0,
      1.0,
      1.0,
      1.0,
      1.0,
      1.0,
      1.0,
      1.0,
      1.0,
      1.0,
      1.0,
      1.0,
      1.0,
      1.0,
      1.0,
      1.0,
      1.0,
      1.0,
      1.0,
      1.0,
      1.0,
      1.0,
      1.0,
      1.0,
      1.0,
      1.0,
      1.0,
      1.0,
      1.0,
      1.0,
      1.0,
      1.0,
      1.0,
      1.0,
      1.0,
      1.0,
      1.0,
      1.0,
      1.0,
      1.0,
      1.0,
      1.0,
      1.0,
      1.0,
      1.0,
      1.0,
      1.0,
      1.0,
      1.0,
      1.0,
      1.0,
      1.0,
      1.0,
      1.0,
      1.0,
      1.0,
      1.0,
      1.0,
      1.0,
      1.0,
      1.0,
      1.0,
      1.0,
      1.0,
      1.0,
      1.0,
      1.0,
      1.0,
      1.0,
      1.0,
      1.0,
      1.0,
      1.0,
      1.0,
      1.0,
      1.0,
      1.0,
      1.0,
      1.0,
      1.0,
      1.0,
      1.0,
      1.0,
      1.0,
      1.0,
      1.0,
      1.0,
      1.0,
      1.0,
      1.0,
      1.0,
      1.0,
      1.0,
      1.0,
      1.0,
      1.0,
      1.0,
      1.0,
      1.0,
      1.0,
      1.0,
      1.0,
      1.0,
      1.0
    ],
    "knots": [
      -2.0,
      -1.0,
      0.0,
      1.0,
      2.0,
      3.0,
      4.0,
      5.0,
      6.0,
      7.0,
      8.0,
      9.0,
      10.0,
      11.0,
      12.0,
      13.0,
      14.0,
      15.0,
      16.0,
      17.0,
      18.0,
      19.0,
      20.0,
      21.0,
      22.0,
      23.0,
      24.0,
      25.0,
      26.0,
      27.0,
      28.0,
      29.0,
      30.0,
      31.0,
      32.0,
      33.0,
      34.0,
      35.0,
      36.0,
      37.0,
      38.0,
      39.0,
      40.0,
      41.0,
      42.0,
      43.0,
      44.0,
      45.0,
      46.0,
      47.0,
      48.0,
      49.0,
      50.0,
      51.0,
      52.0,
      53.0,
      54.0,
      55.0,
      56.0,
      57.0,
      58.0,
      59.0,
      60.0,
      61.0,
      62.0,
      63.0,
      64.0,
      65.0,
      66.0,
      67.0,
      68.0,
      69.0,
      70.0,
      71.0,
      72.0,
      73.0,
      74.0,
      75.0,
      76.0,
      77.0,
      78.0,
      79.0,
      80.0,
      81.0,
      82.0,
      83.0,
      84.0,
      85.0,
      86.0,
      87.0,
      88.0,
      89.0,
      90.0,
      91.0,
      92.0,
      93.0,
      94.0,
      95.0,
      96.0,
      97.0,
      98.0,
      99.0,
      100.0,
      101.0,
      102.0,
      103.0,
      104.0,
      105.0,
      106.0,
      107.0,
      108.0,
      109.0,
      110.0,
      111.0,
      112.0,
      113.0,
      114.0,
      115.0,
      116.0,
      117.0,
      118.0,
      119.0,
      120.0,
      121.0,
      122.0,
      123.0,
      124.0,
      125.0,
      126.0,
      127.0,
      128.0,
      129.0,
      130.0,
      131.0,
      132.0,
      133.0,
      134.0,
      135.0,
      136.0,
      137.0,
      138.0,
      139.0,
      140.0,
      141.0,
      142.0,
      143.0,
      144.0,
      145.0,
      146.0
    ]
  },
  "Character_baseshape08": {
    "degree": 3,
    "form": 2,
    "cv_positions": [
      [
        -0.39985757916519077,
        -3.872290421698566e-09,
        0.8582599890021521
      ],
      [
        -0.34118909375293127,
        -3.975576538663754e-09,
        0.8946100207620559
      ],
      [
        -0.32077349456669907,
        -3.661962328928958e-09,
        0.9127203722654054
      ],
      [
        -0.3164558100641272,
        -4.813133050860066e-09,
        0.9336677248523735
      ],
      [
        -0.31410912979834166,
        -3.4516342361593548e-09,
        0.9800666330766631
      ],
      [
        -0.3144693212426945,
        -4.816888909742173e-09,
        1.0335145826657801
      ],
      [
        -0.31537504829630003,
        -3.646938893720525e-09,
        1.0856975827302864
      ],
      [
        -0.31139213618782235,
        -4.031914420658257e-09,
        1.1289653676429505
      ],
      [
        -0.30754619041172493,
        -3.661962328928963e-09,
        1.1490728754472121
      ],
      [
        -0.27029765902774777,
        -4.7567951688655554e-09,
        1.1574867543872065
      ],
      [
        -0.14947409428344394,
        -3.6769857641373985e-09,
        1.160338957448336
      ],
      [
        -7.034911273772779e-08,
        -3.971820679781646e-09,
        1.1593885084527955
      ],
      [
        0.14947390694871673,
        -3.872290421698568e-09,
        1.1603388513440775
      ],
      [
        0.2702976116025262,
        -3.975576538663753e-09,
        1.157487178804241
      ],
      [
        0.30754600496992485,
        -3.661962328928962e-09,
        1.1490727838231056
      ],
      [
        0.31139198791788836,
        -4.813133050860064e-09,
        1.1289653097223449
      ],
      [
        0.31537488935548014,
        -3.4516342361593556e-09,
        1.0856979060368155
      ],
      [
        0.3144691678135519,
        -4.816888909742171e-09,
        1.0335148473000386
      ],
      [
        0.31410896499337565,
        -3.6469388937205244e-09,
        0.9800667511728682
      ],
      [
        0.31645568525077816,
        -4.03191442065826e-09,
        0.9336677378031805
      ],
      [
        0.3207734086551761,
        -3.661962328928961e-09,
        0.9127205773509145
      ],
      [
        0.34118899973495814,
        -4.756795168865556e-09,
        0.8946099374390966
      ],
      [
        0.3998574786711928,
        -3.676985764137398e-09,
        0.8582601172084786
      ],
      [
        0.4719593960360341,
        -3.971820679781647e-09,
        0.8174576171675764
      ],
      [
        0.5433460068491671,
        -3.872290421698566e-09,
        0.7754168889840681
      ],
      [
        0.6041605929339481,
        -3.975576538663752e-09,
        0.7427832531226838
      ],
      [
        0.630052213601123,
        -3.6619623289289606e-09,
        0.7341583008139461
      ],
      [
        0.6503519790187524,
        -4.813133050860066e-09,
        0.7408925462309637
      ],
      [
        0.691708085801758,
        -3.4516342361593548e-09,
        0.7620596816003621
      ],
      [
        0.7378153340477466,
        -4.816888909742171e-09,
        0.7890958888286972
      ],
      [
        0.7825544963601087,
        -3.6469388937205244e-09,
        0.8159715278884456
      ],
      [
        0.8220166018058852,
        -4.03191442065826e-09,
        0.8341562568661564
      ],
      [
        0.8413533563309002,
        -3.661962328928961e-09,
        0.8408791819601502
      ],
      [
        0.8672642518661676,
        -4.756795168865556e-09,
        0.8128281939734984
      ],
      [
        0.9301459519282858,
        -3.676985764137398e-09,
        0.7096177258210036
      ],
      [
        1.0040593976781473,
        -3.971820679781647e-09,
        0.5796942574880195
      ],
      [
        1.0796199835367426,
        -3.872290421698566e-09,
        0.4507211655287153
      ],
      [
        1.1375617632118002,
        -3.975576538663752e-09,
        0.344658818284932
      ],
      [
        1.1488992626837167,
        -3.6619623289289606e-09,
        0.3081936655631407
      ],
      [
        1.1334087094641558,
        -4.813133050860066e-09,
        0.2948093395861989
      ],
      [
        1.09792938035611,
        -3.4516342361593548e-09,
        0.2697262924829712
      ],
      [
        1.052284403558831,
        -4.816888909742171e-09,
        0.24441901440292726
      ],
      [
        1.0058172618720107,
        -3.6469388937205244e-09,
        0.21800693151156333
      ],
      [
        0.9668076682343755,
        -4.03191442065826e-09,
        0.19277512540698957
      ],
      [
        0.9508255828125132,
        -3.661962328928961e-09,
        0.1785623042738758
      ],
      [
        0.9453497464792047,
        -4.756795168865556e-09,
        0.15182663953401024
      ],
      [
        0.9432032847078945,
        -3.676985764137398e-09,
        0.08284319212464321
      ],
      [
        0.9439192540191603,
        -3.971820679781647e-09,
        1.6890012701506057e-09
      ],
      [
        0.9432033384842262,
        -3.872290421698566e-09,
        -0.08284319302150855
      ],
      [
        0.9453495313738788,
        -3.975576538663752e-09,
        -0.15182663932455126
      ],
      [
        0.9508256394876001,
        -3.6619623289289606e-09,
        -0.17856230421484598
      ],
      [
        0.9668076566393539,
        -4.813133050860066e-09,
        -0.19277512585256745
      ],
      [
        1.0058172515770112,
        -3.4516342361593548e-09,
        -0.2180069297882816
      ],
      [
        1.05228445633385,
        -4.816888909742171e-09,
        -0.24441902085047648
      ],
      [
        1.0979291795510329,
        -3.6469388937205244e-09,
        -0.269726268416056
      ],
      [
        1.13340870993956,
        -4.03191442065826e-09,
        -0.294809241913839
      ],
      [
        1.1488994615871766,
        -3.661962328928961e-09,
        -0.3081937053345522
      ],
      [
        1.1375617170924417,
        -4.756795168865556e-09,
        -0.34465875687164527
      ],
      [
        1.0796199691107151,
        -3.676985764137398e-09,
        -0.45072118391797955
      ],
      [
        1.0040595015016145,
        -3.971820679781647e-09,
        -0.5796942453442487
      ],
      [
        0.9301459260453867,
        -3.872290421698566e-09,
        -0.7096177560068223
      ],
      [
        0.8672642515742974,
        -3.975576538663752e-09,
        -0.8128280853739954
      ],
      [
        0.8413533833812779,
        -3.6619623289289606e-09,
        -0.8408792111874006
      ],
      [
        0.822016493896243,
        -4.813133050860066e-09,
        -0.8341562485566574
      ],
      [
        0.7825545259633565,
        -3.4516342361593548e-09,
        -0.8159715318991914
      ],
      [
        0.7378153235443973,
        -4.816888909742171e-09,
        -0.7890958810952132
      ],
      [
        0.6917080982119055,
        -3.6469388937205244e-09,
        -0.7620597085235505
      ],
      [
        0.650351939881513,
        -4.03191442065826e-09,
        -0.7408924462716925
      ],
      [
        0.6300523577399341,
        -3.661962328928961e-09,
        -0.7341582987429008
      ],
      [
        0.6041604305008862,
        -4.756795168865556e-09,
        -0.7427833613661354
      ],
      [
        0.5433461374576618,
        -3.676985764137398e-09,
        -0.7754168330662508
      ],
      [
        0.4719594110200594,
        -3.971820679781647e-09,
        -0.8174577325953948
      ],
      [
        0.3998574756190674,
        -3.872290421698566e-09,
        -0.8582600863999645
      ],
      [
        0.3411889969594343,
        -3.975576538663752e-09,
        -0.8946099452453357
      ],
      [
        0.32077342280939686,
        -3.6619623289289606e-09,
        -0.9127205769344736
      ],
      [
        0.31645563140941846,
        -4.813133050860066e-09,
        -0.9336677316627049
      ],
      [
        0.3141089787121221,
        -3.4516342361593548e-09,
        -0.9800667761512089
      ],
      [
        0.3144691667799253,
        -4.816888909742171e-09,
        -1.0335147535271512
      ],
      [
        0.3153748797712392,
        -3.6469388937205244e-09,
        -1.0856978811650835
      ],
      [
        0.31139202728847865,
        -4.03191442065826e-09,
        -1.128965502982162
      ],
      [
        0.30754604456427626,
        -3.661962328928961e-09,
        -1.1490727856254572
      ],
      [
        0.27029760134700115,
        -4.756795168865556e-09,
        -1.1574869783350175
      ],
      [
        0.14947390837646563,
        -3.676985764137398e-09,
        -1.1603389014487326
      ],
      [
        -6.580458340675697e-08,
        -3.971820679781647e-09,
        -1.1593885085033984
      ],
      [
        -0.14947411388931012,
        -3.872290421698566e-09,
        -1.1603389071412673
      ],
      [
        -0.27029767889504813,
        -3.975576538663752e-09,
        -1.1574869555648764
      ],
      [
        -0.30754618508289333,
        -3.6619623289289606e-09,
        -1.1490728710134852
      ],
      [
        -0.31139213763584894,
        -4.813133050860066e-09,
        -1.1289651842001893
      ],
      [
        -0.315375047833026,
        -3.4516342361593548e-09,
        -1.0856975709651764
      ],
      [
        -0.3144693216477644,
        -4.816888909742171e-09,
        -1.0335148131689815
      ],
      [
        -0.314109128641336,
        -3.6469388937205244e-09,
        -0.9800664727988505
      ],
      [
        -0.31645581428708097,
        -4.03191442065826e-09,
        -0.9336677604754812
      ],
      [
        -0.32077347883188967,
        -3.661962328928961e-09,
        -0.9127203900507862
      ],
      [
        -0.34118915246921416,
        -4.756795168865556e-09,
        -0.8946099139974238
      ],
      [
        -0.39985754752733965,
        -3.676985764137398e-09,
        -0.8582600232903576
      ],
      [
        -0.47195953035460464,
        -3.971820679781647e-09,
        -0.8174576412967918
      ],
      [
        -0.5433461506886224,
        -3.872290421698566e-09,
        -0.7754168863853276
      ],
      [
        -0.6041606332274415,
        -3.975576538663752e-09,
        -0.7427832393884307
      ],
      [
        -0.6300522835726364,
        -3.6619623289289606e-09,
        -0.7341583583496986
      ],
      [
        -0.6503520338241471,
        -4.813133050860066e-09,
        -0.7408923298222068
      ],
      [
        -0.6917081715936092,
        -3.4516342361593548e-09,
        -0.7620597397297533
      ],
      [
        -0.7378153110598893,
        -4.816888909742171e-09,
        -0.789095872719888
      ],
      [
        -0.7825545025196864,
        -3.6469388937205244e-09,
        -0.8159715341942895
      ],
      [
        -0.8220166001554313,
        -4.03191442065826e-09,
        -0.8341562477515913
      ],
      [
        -0.8413533567731379,
        -3.661962328928961e-09,
        -0.8408792121125683
      ],
      [
        -0.8672642517476702,
        -4.756795168865556e-09,
        -0.8128280824783916
      ],
      [
        -0.9301459519600371,
        -3.676985764137398e-09,
        -0.7096177666640711
      ],
      [
        -1.0040593976696397,
        -3.971820679781647e-09,
        -0.5796942056108584
      ],
      [
        -1.0796199835390219,
        -3.872290421698566e-09,
        -0.4507213321942931
      ],
      [
        -1.1375617632111903,
        -3.975576538663752e-09,
        -0.34465895346966674
      ],
      [
        -1.1488992626838763,
        -3.6619623289289606e-09,
        -0.30819389562098065
      ],
      [
        -1.133408709464128,
        -4.813133050860066e-09,
        -0.2948094091249318
      ],
      [
        -1.0979293803560626,
        -3.4516342361593548e-09,
        -0.269726346747613
      ],
      [
        -1.0522844035590502,
        -4.816888909742171e-09,
        -0.24441910279056964
      ],
      [
        -1.0058172618711811,
        -3.6469388937205244e-09,
        -0.21800708617376585
      ],
      [
        -0.9668076682374748,
        -4.03191442065826e-09,
        -0.19277526208665782
      ],
      [
        -0.9508255828009461,
        -3.661962328928961e-09,
        -0.17856244660912066
      ],
      [
        -0.9453497465223745,
        -4.756795168865556e-09,
        -0.15182677722948315
      ],
      [
        -0.9432032845467825,
        -3.676985764137398e-09,
        -0.08284334272362731
      ],
      [
        -0.943919254620439,
        -3.971820679781647e-09,
        -1.5218683036552138e-07
      ],
      [
        -0.9432033362402247,
        -3.872290421698566e-09,
        0.08284304916343088
      ],
      [
        -0.9453495397486066,
        -3.975576538663752e-09,
        0.15182647466545288
      ],
      [
        -0.9508256082326904,
        -3.6619623289289606e-09,
        0.1785621692469611
      ],
      [
        -0.9668077732842651,
        -4.813133050860066e-09,
        0.19277498666708487
      ],
      [
        -1.0058171912372182,
        -3.4516342361593548e-09,
        0.21800677778197622
      ],
      [
        -1.0522845810481112,
        -4.816888909742171e-09,
        0.24441883059882424
      ],
      [
        -1.0979294910036657,
        -3.6469388937205244e-09,
        0.26972605647414294
      ],
      [
        -1.1334088393545374,
        -4.03191442065826e-09,
        0.2948091549783163
      ],
      [
        -1.1488993824445208,
        -3.661962328928961e-09,
        0.30819351504867165
      ],
      [
        -1.1375619042480887,
        -4.756795168865556e-09,
        0.34465866748833446
      ],
      [
        -1.0796200496006692,
        -3.6769857641373976e-09,
        0.4507209817672184
      ],
      [
        -1.0040597423560362,
        -3.971820679781646e-09,
        0.5796940183757765
      ],
      [
        -0.9301460070925738,
        -3.872290421698566e-09,
        0.7096177410766449
      ],
      [
        -0.8672644365010128,
        -3.975576538663753e-09,
        0.8128279970782358
      ],
      [
        -0.8413533125971167,
        -3.6619623289289602e-09,
        0.8408792043156752
      ],
      [
        -0.8220165921061733,
        -4.813133050860067e-09,
        0.8341559893543767
      ],
      [
        -0.7825545788927398,
        -3.451634236159354e-09,
        0.8159714506252137
      ],
      [
        -0.7378153886018763,
        -4.816888909742175e-09,
        0.7890957154235199
      ],
      [
        -0.69170816003755,
        -3.646938893720523e-09,
        0.7620597025144165
      ],
      [
        -0.6503520025063972,
        -4.031914420658261e-09,
        0.7408922609949795
      ],
      [
        -0.6300524203996951,
        -3.66196232892896e-09,
        0.7341582958890004
      ],
      [
        -0.6041604922218997,
        -4.756795168865558e-09,
        0.742783183073508
      ],
      [
        -0.5433462028987884,
        -3.676985764137397e-09,
        0.7754167991207752
      ],
      [
        -0.47195946251948256,
        -3.971820679781645e-09,
        0.817457671684981
      ],
      [
        -0.39985757916519077,
        -3.872290421698566e-09,
        0.8582599890021521
      ],
      [
        -0.34118909375293127,
        -3.975576538663754e-09,
        0.8946100207620559
      ],
      [
        -0.32077349456669907,
        -3.661962328928958e-09,
        0.9127203722654054
      ]
    ],
    "cv_weights": [
      1.0,
      1.0,
      1.0,
      1.0,
      1.0,
      1.0,
      1.0,
      1.0,
      1.0,
      1.0,
      1.0,
      1.0,
      1.0,
      1.0,
      1.0,
      1.0,
      1.0,
      1.0,
      1.0,
      1.0,
      1.0,
      1.0,
      1.0,
      1.0,
      1.0,
      1.0,
      1.0,
      1.0,
      1.0,
      1.0,
      1.0,
      1.0,
      1.0,
      1.0,
      1.0,
      1.0,
      1.0,
      1.0,
      1.0,
      1.0,
      1.0,
      1.0,
      1.0,
      1.0,
      1.0,
      1.0,
      1.0,
      1.0,
      1.0,
      1.0,
      1.0,
      1.0,
      1.0,
      1.0,
      1.0,
      1.0,
      1.0,
      1.0,
      1.0,
      1.0,
      1.0,
      1.0,
      1.0,
      1.0,
      1.0,
      1.0,
      1.0,
      1.0,
      1.0,
      1.0,
      1.0,
      1.0,
      1.0,
      1.0,
      1.0,
      1.0,
      1.0,
      1.0,
      1.0,
      1.0,
      1.0,
      1.0,
      1.0,
      1.0,
      1.0,
      1.0,
      1.0,
      1.0,
      1.0,
      1.0,
      1.0,
      1.0,
      1.0,
      1.0,
      1.0,
      1.0,
      1.0,
      1.0,
      1.0,
      1.0,
      1.0,
      1.0,
      1.0,
      1.0,
      1.0,
      1.0,
      1.0,
      1.0,
      1.0,
      1.0,
      1.0,
      1.0,
      1.0,
      1.0,
      1.0,
      1.0,
      1.0,
      1.0,
      1.0,
      1.0,
      1.0,
      1.0,
      1.0,
      1.0,
      1.0,
      1.0,
      1.0,
      1.0,
      1.0,
      1.0,
      1.0,
      1.0,
      1.0,
      1.0,
      1.0,
      1.0,
      1.0,
      1.0,
      1.0,
      1.0,
      1.0,
      1.0,
      1.0,
      1.0,
      1.0,
      1.0,
      1.0
    ],
    "knots": [
      -2.0,
      -1.0,
      0.0,
      1.0,
      2.0,
      3.0,
      4.0,
      5.0,
      6.0,
      7.0,
      8.0,
      9.0,
      10.0,
      11.0,
      12.0,
      13.0,
      14.0,
      15.0,
      16.0,
      17.0,
      18.0,
      19.0,
      20.0,
      21.0,
      22.0,
      23.0,
      24.0,
      25.0,
      26.0,
      27.0,
      28.0,
      29.0,
      30.0,
      31.0,
      32.0,
      33.0,
      34.0,
      35.0,
      36.0,
      37.0,
      38.0,
      39.0,
      40.0,
      41.0,
      42.0,
      43.0,
      44.0,
      45.0,
      46.0,
      47.0,
      48.0,
      49.0,
      50.0,
      51.0,
      52.0,
      53.0,
      54.0,
      55.0,
      56.0,
      57.0,
      58.0,
      59.0,
      60.0,
      61.0,
      62.0,
      63.0,
      64.0,
      65.0,
      66.0,
      67.0,
      68.0,
      69.0,
      70.0,
      71.0,
      72.0,
      73.0,
      74.0,
      75.0,
      76.0,
      77.0,
      78.0,
      79.0,
      80.0,
      81.0,
      82.0,
      83.0,
      84.0,
      85.0,
      86.0,
      87.0,
      88.0,
      89.0,
      90.0,
      91.0,
      92.0,
      93.0,
      94.0,
      95.0,
      96.0,
      97.0,
      98.0,
      99.0,
      100.0,
      101.0,
      102.0,
      103.0,
      104.0,
      105.0,
      106.0,
      107.0,
      108.0,
      109.0,
      110.0,
      111.0,
      112.0,
      113.0,
      114.0,
      115.0,
      116.0,
      117.0,
      118.0,
      119.0,
      120.0,
      121.0,
      122.0,
      123.0,
      124.0,
      125.0,
      126.0,
      127.0,
      128.0,
      129.0,
      130.0,
      131.0,
      132.0,
      133.0,
      134.0,
      135.0,
      136.0,
      137.0,
      138.0,
      139.0,
      140.0,
      141.0,
      142.0,
      143.0,
      144.0,
      145.0,
      146.0
    ]
  },
  "Character_baseshape09": {
    "degree": 1,
    "form": 2,
    "cv_positions": [
      [
        -0.25429365423283173,
        0.0005705853610330362,
        1.0489167462753428
      ],
      [
        -0.2884297910598587,
        0.0005705853610330362,
        1.0489167462753428
      ],
      [
        -0.2884302017237408,
        0.0005705853610330251,
        1.0646821665873254
      ],
      [
        -0.28388551395446276,
        0.0005705853610330251,
        1.0646821665873254
      ],
      [
        -0.2653256946565977,
        0.0005705853610330174,
        1.115340845243309
      ],
      [
        -0.24458904135654358,
        0.0005705853610330174,
        1.115340845243309
      ],
      [
        -0.2356402642090785,
        0.0005705853610330179,
        1.0899654478025766
      ],
      [
        -0.22673899374105366,
        0.0005705853610330174,
        1.115340845243309
      ],
      [
        -0.20628644484201383,
        0.0005705853610330174,
        1.115340845243309
      ],
      [
        -0.18753754575467413,
        0.0005705853610330251,
        1.0646821665873254
      ],
      [
        -0.1829918862501119,
        0.0005705853610330251,
        1.0646821665873254
      ],
      [
        -0.18299124661860583,
        0.0005705853610330362,
        1.0489167462753428
      ],
      [
        -0.20955257111299216,
        0.0005705853610330362,
        1.0489167462753428
      ],
      [
        -0.20955315306461103,
        0.0005705853610330251,
        1.0646821665873254
      ],
      [
        -0.20481841615750085,
        0.0005705853610330251,
        1.0646821665873254
      ],
      [
        -0.21267732215346608,
        0.0005705853610330179,
        1.0930421074840742
      ],
      [
        -0.22266749536235714,
        0.0005705853610330251,
        1.0646821665873254
      ],
      [
        -0.21779119046005763,
        0.0005705853610330251,
        1.0646821665873254
      ],
      [
        -0.21779062639798724,
        0.0005705853610330362,
        1.0489167462753428
      ],
      [
        -0.2464822379532369,
        0.0005705853610330362,
        1.0489167462753428
      ],
      [
        -0.24648273970934353,
        0.0005705853610330251,
        1.0646821665873254
      ],
      [
        -0.24160546639640926,
        0.0005705853610330251,
        1.0646821665873254
      ],
      [
        -0.2514540716101103,
        0.0005705853610330179,
        1.0930421074840742
      ],
      [
        -0.2592179533355254,
        0.0005705853610330251,
        1.0646821665873254
      ],
      [
        -0.2542941390258682,
        0.0005705853610330251,
        1.0646821665873254
      ],
      [
        -0.25429365423283173,
        0.0005705853610330362,
        1.0489167462753428
      ]
    ],
    "cv_weights": [
      1.0,
      1.0,
      1.0,
      1.0,
      1.0,
      1.0,
      1.0,
      1.0,
      1.0,
      1.0,
      1.0,
      1.0,
      1.0,
      1.0,
      1.0,
      1.0,
      1.0,
      1.0,
      1.0,
      1.0,
      1.0,
      1.0,
      1.0,
      1.0,
      1.0,
      1.0
    ],
    "knots": [
      0.0,
      1.0,
      2.0,
      3.0,
      4.0,
      5.0,
      6.0,
      7.0,
      8.0,
      9.0,
      10.0,
      11.0,
      12.0,
      13.0,
      14.0,
      15.0,
      16.0,
      17.0,
      18.0,
      19.0,
      20.0,
      21.0,
      22.0,
      23.0,
      24.0,
      25.0
    ]
  },
  "Character_baseshape10": {
    "degree": 1,
    "form": 2,
    "cv_positions": [
      [
        -0.1526946221474132,
        0.0005705853610330188,
        1.0675232051416355
      ],
      [
        -0.15956547104853905,
        0.0005705853610330202,
        1.0679585698279377
      ],
      [
        -0.16569066012853825,
        0.0005705853610330124,
        1.0692627325214092
      ],
      [
        -0.17107118234929994,
        0.0005705853610330208,
        1.071438598453954
      ],
      [
        -0.17570507361038307,
        0.0005705853610330202,
        1.0744832569378342
      ],
      [
        -0.1794333290693406,
        0.0005705853610330161,
        1.0781610895737788
      ],
      [
        -0.18209595092183584,
        0.0005705853610330166,
        1.0822355013681308
      ],
      [
        -0.18369391030641977,
        0.0005705853610330163,
        1.086707468915277
      ],
      [
        -0.18422720722309255,
        0.000570585361033018,
        1.0915750472101962
      ],
      [
        -0.1836880943867772,
        0.0005705853610330174,
        1.0966675791117777
      ],
      [
        -0.18207267633159843,
        0.0005705853610330188,
        1.1012927464933981
      ],
      [
        -0.17937999283067202,
        0.000570585361033018,
        1.105449580262443
      ],
      [
        -0.1756100547956681,
        0.000570585361033018,
        1.1091400172401826
      ],
      [
        -0.17087531788855834,
        0.0005705853610330138,
        1.112184677258516
      ],
      [
        -0.16528827050632264,
        0.0005705853610330202,
        1.1143595727344882
      ],
      [
        -0.15884987287584362,
        0.0005705853610330188,
        1.1156637343197435
      ],
      [
        -0.15155820454335522,
        0.0005705853610330166,
        1.1160991013077257
      ],
      [
        -0.14475813963982448,
        0.0005705853610330188,
        1.1156637343197435
      ],
      [
        -0.13865718537694643,
        0.0005705853610330202,
        1.1143595727344882
      ],
      [
        -0.13325339947761594,
        0.0005705853610330138,
        1.112184677258516
      ],
      [
        -0.12854872421893762,
        0.000570585361033018,
        1.1091400172401826
      ],
      [
        -0.12473708178454893,
        0.0005705853610330166,
        1.105443761614884
      ],
      [
        -0.12201434754686043,
        0.0005705853610330198,
        1.1013160183557182
      ],
      [
        -0.12038147082108608,
        0.0005705853610330187,
        1.0967558163241335
      ],
      [
        -0.1198365420651293,
        0.000570585361033018,
        1.0917641246127439
      ],
      [
        -0.12040764791530958,
        0.0005705853610330183,
        1.0866211712521077
      ],
      [
        -0.12212100911252866,
        0.0005705853610330194,
        1.081987277263107
      ],
      [
        -0.1249765820101098,
        0.0005705853610330174,
        1.0778624426457417
      ],
      [
        -0.12897439934305877,
        0.000570585361033018,
        1.0742466674000117
      ],
      [
        -0.13388366839777655,
        0.0005705853610330188,
        1.07130478865551
      ],
      [
        -0.13947361828399854,
        0.0005705853610330174,
        1.069203585818933
      ],
      [
        -0.14574427082506386,
        0.0005705853610330208,
        1.0679430588902805
      ],
      [
        -0.1526946221474132,
        0.0005705853610330188,
        1.0675232051416355
      ]
    ],
    "cv_weights": [
      1.0,
      1.0,
      1.0,
      1.0,
      1.0,
      1.0,
      1.0,
      1.0,
      1.0,
      1.0,
      1.0,
      1.0,
      1.0,
      1.0,
      1.0,
      1.0,
      1.0,
      1.0,
      1.0,
      1.0,
      1.0,
      1.0,
      1.0,
      1.0,
      1.0,
      1.0,
      1.0,
      1.0,
      1.0,
      1.0,
      1.0,
      1.0,
      1.0
    ],
    "knots": [
      0.0,
      1.0,
      2.0,
      3.0,
      4.0,
      5.0,
      6.0,
      7.0,
      8.0,
      9.0,
      10.0,
      11.0,
      12.0,
      13.0,
      14.0,
      15.0,
      16.0,
      17.0,
      18.0,
      19.0,
      20.0,
      21.0,
      22.0,
      23.0,
      24.0,
      25.0,
      26.0,
      27.0,
      28.0,
      29.0,
      30.0,
      31.0,
      32.0
    ]
  },
  "Character_baseshape11": {
    "degree": 1,
    "form": 2,
    "cv_positions": [
      [
        -0.06321168999801553,
        0.000570585361033018,
        1.0679963896731148
      ],
      [
        -0.06610315137533845,
        0.0005705853610330208,
        1.06805262841577
      ],
      [
        -0.06862128090531852,
        0.0005705853610330188,
        1.0682213446437354
      ],
      [
        -0.07076612223463258,
        0.000570585361033018,
        1.0685025383570117
      ],
      [
        -0.07253861376682402,
        0.0005705853610330237,
        1.0688962095555985
      ],
      [
        -0.07418992030174573,
        0.0005705853610330145,
        1.0695032011576044
      ],
      [
        -0.07582957317404532,
        0.0005705853610330083,
        1.0703758755352295
      ],
      [
        -0.0774566121568389,
        0.0005705853610330208,
        1.0715151983711912
      ],
      [
        -0.07907204112368703,
        0.000570585361033018,
        1.0729202039827719
      ],
      [
        -0.08064382341404748,
        0.000570585361033018,
        1.0745569488952502
      ],
      [
        -0.08199549551487642,
        0.000570585361033018,
        1.0763410804504776
      ],
      [
        -0.08312899970327868,
        0.0005705853610330208,
        1.0782735670590893
      ],
      [
        -0.08404337575237168,
        0.0005705853610330128,
        1.08035344031045
      ],
      [
        -0.08404337575237168,
        0.0005705853610330152,
        1.0688486946924063
      ],
      [
        -0.11254584487119285,
        0.0005705853610330152,
        1.0688486946924063
      ],
      [
        -0.11254584487119285,
        0.0005705853610330191,
        1.0832895004073924
      ],
      [
        -0.10629653555493011,
        0.0005705853610330191,
        1.0832895004073924
      ],
      [
        -0.10629653555493011,
        0.0005705853610330174,
        1.1003337758165623
      ],
      [
        -0.11254584487119285,
        0.0005705853610330174,
        1.1003337758165623
      ],
      [
        -0.11254584487119285,
        0.0005705853610330161,
        1.1147736076650792
      ],
      [
        -0.07552123122799308,
        0.0005705853610330161,
        1.1147736076650792
      ],
      [
        -0.07552123122799308,
        0.0005705853610330174,
        1.1003337758165623
      ],
      [
        -0.08248128302419175,
        0.0005705853610330174,
        1.1003337758165623
      ],
      [
        -0.08237461054685417,
        0.000570585361033018,
        1.098350869112855
      ],
      [
        -0.08210214616887586,
        0.0005705853610330174,
        1.0965696455174485
      ],
      [
        -0.08166485011713934,
        0.0005705853610330179,
        1.0949891366197082
      ],
      [
        -0.08106075829120256,
        0.0005705853610330182,
        1.0936103149221443
      ],
      [
        -0.08025015221546074,
        0.0005705853610330178,
        1.0924389936164824
      ],
      [
        -0.07914379625983374,
        0.0005705853610330182,
        1.0913849986690969
      ],
      [
        -0.07774073019743985,
        0.0005705853610330179,
        1.090450266901257
      ],
      [
        -0.07604191425516078,
        0.0005705853610330184,
        1.0896338312662872
      ],
      [
        -0.07403283591306373,
        0.000570585361033018,
        1.0889919332347593
      ],
      [
        -0.07155638895913025,
        0.0005705853610330179,
        1.0885332939582202
      ],
      [
        -0.06861159134313856,
        0.000570585361033018,
        1.0882579188925032
      ],
      [
        -0.0652004071655301,
        0.0005705853610330182,
        1.0881658025817746
      ],
      [
        -0.06463221473100528,
        0.000570585361033018,
        1.0881687105415958
      ],
      [
        -0.06411150988049895,
        0.0005705853610330183,
        1.0881774398768935
      ],
      [
        -0.06363735421046758,
        0.0005705853610330179,
        1.0881929508145505
      ],
      [
        -0.06321168999801553,
        0.000570585361033018,
        1.0882133147170494
      ],
      [
        -0.06321168999801553,
        0.000570585361033018,
        1.0679963896731148
      ]
    ],
    "cv_weights": [
      1.0,
      1.0,
      1.0,
      1.0,
      1.0,
      1.0,
      1.0,
      1.0,
      1.0,
      1.0,
      1.0,
      1.0,
      1.0,
      1.0,
      1.0,
      1.0,
      1.0,
      1.0,
      1.0,
      1.0,
      1.0,
      1.0,
      1.0,
      1.0,
      1.0,
      1.0,
      1.0,
      1.0,
      1.0,
      1.0,
      1.0,
      1.0,
      1.0,
      1.0,
      1.0,
      1.0,
      1.0,
      1.0,
      1.0,
      1.0
    ],
    "knots": [
      0.0,
      1.0,
      2.0,
      3.0,
      4.0,
      5.0,
      6.0,
      7.0,
      8.0,
      9.0,
      10.0,
      11.0,
      12.0,
      13.0,
      14.0,
      15.0,
      16.0,
      17.0,
      18.0,
      19.0,
      20.0,
      21.0,
      22.0,
      23.0,
      24.0,
      25.0,
      26.0,
      27.0,
      28.0,
      29.0,
      30.0,
      31.0,
      32.0,
      33.0,
      34.0,
      35.0,
      36.0,
      37.0,
      38.0,
      39.0
    ]
  },
  "Character_baseshape12": {
    "degree": 1,
    "form": 2,
    "cv_positions": [
      [
        0.004678402005746196,
        0.0005705853610330152,
        1.0688486946924063
      ],
      [
        -0.0246763884998706,
        0.0005705853610330152,
        1.0688486946924063
      ],
      [
        -0.0246763884998706,
        0.0005705853610330177,
        1.0801643601799853
      ],
      [
        -0.01629581197068238,
        0.0005705853610330177,
        1.0801643601799853
      ],
      [
        -0.0312573034407533,
        0.0005705853610330183,
        1.0947942392056427
      ],
      [
        -0.012271828455177864,
        0.0005705853610330161,
        1.1147736076650792
      ],
      [
        0.004819970000936067,
        0.0005705853610330161,
        1.1147736076650792
      ],
      [
        0.004819970000936067,
        0.0005705853610330174,
        1.1003337758165623
      ],
      [
        0.0010800827026940618,
        0.0005705853610330174,
        1.1003337758165623
      ],
      [
        -0.00928921099400859,
        0.000570585361033018,
        1.0897278871262024
      ],
      [
        -0.0006720476549155364,
        0.0005705853610330177,
        1.0813007750561257
      ],
      [
        0.004678402005746196,
        0.0005705853610330177,
        1.0813007750561257
      ],
      [
        0.004678402005746196,
        0.0005705853610330152,
        1.0688486946924063
      ]
    ],
    "cv_weights": [
      1.0,
      1.0,
      1.0,
      1.0,
      1.0,
      1.0,
      1.0,
      1.0,
      1.0,
      1.0,
      1.0,
      1.0,
      1.0
    ],
    "knots": [
      0.0,
      1.0,
      2.0,
      3.0,
      4.0,
      5.0,
      6.0,
      7.0,
      8.0,
      9.0,
      10.0,
      11.0,
      12.0
    ]
  },
  "Character_baseshape13": {
    "degree": 1,
    "form": 2,
    "cv_positions": [
      [
        -0.0312573034407533,
        0.0005705853610330361,
        1.0489168397322033
      ],
      [
        -0.061036999865035045,
        0.0005705853610330362,
        1.0489167613788972
      ],
      [
        -0.06103775815882246,
        0.0005705853610330166,
        1.0633566715807201
      ],
      [
        -0.05507158483293993,
        0.0005705853610330166,
        1.0633566715807201
      ],
      [
        -0.05507158483293993,
        0.0005705853610330174,
        1.1003337758165623
      ],
      [
        -0.060942739344107245,
        0.0005705853610330174,
        1.1003337758165623
      ],
      [
        -0.060942739344107245,
        0.0005705853610330161,
        1.1147736076650792
      ],
      [
        -0.0312573034407533,
        0.0005705853610330161,
        1.1147736076650792
      ],
      [
        -0.0312573034407533,
        0.0005705853610330361,
        1.0489168397322033
      ]
    ],
    "cv_weights": [
      1.0,
      1.0,
      1.0,
      1.0,
      1.0,
      1.0,
      1.0,
      1.0,
      1.0
    ],
    "knots": [
      0.0,
      1.0,
      2.0,
      3.0,
      4.0,
      5.0,
      6.0,
      7.0,
      8.0
    ]
  },
  "Character_baseshape14": {
    "degree": 1,
    "form": 2,
    "cv_positions": [
      [
        0.03316251894584654,
        0.0005705853610330202,
        1.0671415416035885
      ],
      [
        0.029207480168060823,
        0.0005705853610330232,
        1.0673729135304924
      ],
      [
        0.025578712278360234,
        0.0005705853610330253,
        1.0680684174251285
      ],
      [
        0.022277169527816366,
        0.0005705853610330261,
        1.0692273631517606
      ],
      [
        0.019300964158875913,
        0.00057058536103301,
        1.070850440846125
      ],
      [
        0.016819745416371164,
        0.0005705853610330232,
        1.0728853844898556
      ],
      [
        0.015047286284899306,
        0.000570585361033022,
        1.0752827160561127
      ],
      [
        0.013984561760120773,
        0.0005705853610330182,
        1.0780410435097456
      ],
      [
        0.013629704829068771,
        0.0005705853610330212,
        1.0811610569864913
      ],
      [
        0.013779024377163615,
        0.0005705853610330232,
        1.0829583606239153
      ],
      [
        0.014226049514965493,
        0.0005705853610330193,
        1.0846741243319433
      ],
      [
        0.014971713748957352,
        0.0005705853610330226,
        1.0863097460275646
      ],
      [
        0.016015083572656668,
        0.0005705853610330216,
        1.0878645296932041
      ],
      [
        0.017269529584444963,
        0.000570585361033022,
        1.0893126854269337
      ],
      [
        0.01864840163811604,
        0.0005705853610330232,
        1.0905949791921838
      ],
      [
        0.020149874209881617,
        0.0005705853610330239,
        1.0917121070065292
      ],
      [
        0.02177575207894145,
        0.0005705853610330212,
        1.0926626768348198
      ],
      [
        0.023829321129312256,
        0.0005705853610330212,
        1.0936599386590364
      ],
      [
        0.02638889218261884,
        0.000570585361033022,
        1.0947464044484279
      ],
      [
        0.02945541948993245,
        0.0005705853610330217,
        1.095922770220569
      ],
      [
        0.0330270360382878,
        0.000570585361033022,
        1.097188339957885
      ],
      [
        0.03580320134022724,
        0.000570585361033022,
        1.098153543800771
      ],
      [
        0.038056789713011165,
        0.000570585361033022,
        1.099008638643565
      ],
      [
        0.039786826160979706,
        0.0005705853610330224,
        1.0997529265080785
      ],
      [
        0.04099333142872143,
        0.0005705853610330221,
        1.1003871043921933
      ],
      [
        0.04176113013865363,
        0.0005705853610330217,
        1.100948108282105
      ],
      [
        0.04230953408050404,
        0.0005705853610330221,
        1.1015781051592366
      ],
      [
        0.042638584743449275,
        0.0005705853610330224,
        1.1022757000475176
      ],
      [
        0.042748261382901616,
        0.0005705853610330232,
        1.1030408949075616
      ],
      [
        0.042433047360492485,
        0.0005705853610330216,
        1.1043810316545375
      ],
      [
        0.04148829731057031,
        0.0005705853610330224,
        1.1053378744637634
      ],
      [
        0.03991309847123986,
        0.0005705853610330208,
        1.1059121183725071
      ],
      [
        0.03770745084250248,
        0.0005705853610330226,
        1.1061037663216886
      ],
      [
        0.03449807629870907,
        0.0005705853610330217,
        1.1057162903966484
      ],
      [
        0.03184631629406407,
        0.0005705853610330232,
        1.104555256617291
      ],
      [
        0.02975036604936762,
        0.0005705853610330217,
        1.1026199689660405
      ],
      [
        0.028212030343820155,
        0.0005705853610330214,
        1.0999104264625912
      ],
      [
        0.014125583472811962,
        0.0005705853610330214,
        1.0999104264625912
      ],
      [
        0.014125583472811962,
        0.0005705853610330206,
        1.1150867926572552
      ],
      [
        0.028212030343820155,
        0.0005705853610330206,
        1.1150867926572552
      ],
      [
        0.028212030343820155,
        0.0005705853610330216,
        1.111990470736494
      ],
      [
        0.0316628926424587,
        0.000570585361033028,
        1.1136135484308587
      ],
      [
        0.03531101523323929,
        0.000570585361033022,
        1.114772491247206
      ],
      [
        0.03915637737157207,
        0.0005705853610330193,
        1.1154672994306125
      ],
      [
        0.0431980662955642,
        0.0005705853610330206,
        1.1156986698564222
      ],
      [
        0.04746280103521566,
        0.0005705853610330212,
        1.115437332810542
      ],
      [
        0.05134411354543714,
        0.0005705853610330216,
        1.1146533215503633
      ],
      [
        0.05484382935001687,
        0.0005705853610330277,
        1.1133452423558337
      ],
      [
        0.05796012292516591,
        0.0005705853610330242,
        1.1115144888244672
      ],
      [
        0.06051969397847258,
        0.000570585361033022,
        1.1093408612281093
      ],
      [
        0.06234837094480625,
        0.0005705853610330216,
        1.1069372571710707
      ],
      [
        0.06344519957309522,
        0.0005705853610330235,
        1.1043043726709263
      ],
      [
        0.06381111336982377,
        0.0005705853610330214,
        1.1014415122002543
      ],
      [
        0.06365625501659693,
        0.000570585361033022,
        1.0995361905563832
      ],
      [
        0.06319172144609222,
        0.0005705853610330219,
        1.0976984679039683
      ],
      [
        0.06241840467561578,
        0.0005705853610330217,
        1.0959290422211974
      ],
      [
        0.06133541268786264,
        0.0005705853610330217,
        1.0942279125277647
      ],
      [
        0.06076026897142331,
        0.0005705853610330229,
        1.0934843206808267
      ],
      [
        0.06011507077958499,
        0.000570585361033022,
        1.0927518807999947
      ],
      [
        0.059398905350453814,
        0.0005705853610330213,
        1.0920298929464685
      ],
      [
        0.05861268544592506,
        0.0005705853610330246,
        1.0913183590808604
      ],
      [
        0.057796053974640466,
        0.0005705853610330235,
        1.090651425237227
      ],
      [
        0.05698678683227666,
        0.0005705853610330217,
        1.0900639413096511
      ],
      [
        0.05618675103180055,
        0.0005705853610330226,
        1.0895545093811432
      ],
      [
        0.055395013066727575,
        0.0005705853610330202,
        1.0891238254692788
      ],
      [
        0.0534594184912133,
        0.0005705853610330237,
        1.0882067056574691
      ],
      [
        0.050759738487110066,
        0.0005705853610330212,
        1.0870561278266424
      ],
      [
        0.04729412678604106,
        0.0005705853610330202,
        1.085672086094961
      ],
      [
        0.043063496149899676,
        0.0005705853610330216,
        1.0840531884272735
      ],
      [
        0.03997209608096244,
        0.0005705853610330198,
        1.0828900646345774
      ],
      [
        0.0375839375625139,
        0.0005705853610330206,
        1.0819520388075436
      ],
      [
        0.035899062083731746,
        0.000570585361033022,
        1.0812398069637474
      ],
      [
        0.034917448900026585,
        0.0005705853610330202,
        1.0807526770068399
      ],
      [
        0.034346910482236565,
        0.000570585361033028,
        1.0803505631459782
      ],
      [
        0.03393859474659437,
        0.000570585361033022,
        1.0798592492411678
      ],
      [
        0.03369434796147732,
        0.0005705853610330253,
        1.0792787313711825
      ],
      [
        0.03361230311392046,
        0.0005705853610330193,
        1.0786090134572481
      ],
      [
        0.03389897258254028,
        0.0005705853610330123,
        1.077313479673166
      ],
      [
        0.0347598315165277,
        0.0005705853610330202,
        1.0763886938649645
      ],
      [
        0.036194942149649835,
        0.0005705853610330182,
        1.075833263997493
      ],
      [
        0.03820332948624605,
        0.0005705853610330202,
        1.0756485860271279
      ],
      [
        0.041218244257347235,
        0.0005705853610330269,
        1.075997037913247
      ],
      [
        0.043738193146599144,
        0.0005705853610330253,
        1.0770437816855292
      ],
      [
        0.04576408891589725,
        0.0005705853610330193,
        1.0787874213875976
      ],
      [
        0.04729412678604106,
        0.0005705853610330242,
        1.0812293529758292
      ],
      [
        0.061290251718676594,
        0.0005705853610330242,
        1.0812293529758292
      ],
      [
        0.061290251718676594,
        0.0005705853610330353,
        1.0677541154942913
      ],
      [
        0.04711439567119022,
        0.0005705853610330353,
        1.0677541154942913
      ],
      [
        0.04711439567119022,
        0.0005705853610330193,
        1.0706803968903555
      ],
      [
        0.04409856813819461,
        0.0005705853610330202,
        1.0691318891465702
      ],
      [
        0.040768439344684465,
        0.0005705853610330269,
        1.0680259034952668
      ],
      [
        0.037123096528764374,
        0.0005705853610330232,
        1.067362459542574
      ],
      [
        0.03316251894584654,
        0.0005705853610330202,
        1.0671415416035885
      ]
    ],
    "cv_weights": [
      1.0,
      1.0,
      1.0,
      1.0,
      1.0,
      1.0,
      1.0,
      1.0,
      1.0,
      1.0,
      1.0,
      1.0,
      1.0,
      1.0,
      1.0,
      1.0,
      1.0,
      1.0,
      1.0,
      1.0,
      1.0,
      1.0,
      1.0,
      1.0,
      1.0,
      1.0,
      1.0,
      1.0,
      1.0,
      1.0,
      1.0,
      1.0,
      1.0,
      1.0,
      1.0,
      1.0,
      1.0,
      1.0,
      1.0,
      1.0,
      1.0,
      1.0,
      1.0,
      1.0,
      1.0,
      1.0,
      1.0,
      1.0,
      1.0,
      1.0,
      1.0,
      1.0,
      1.0,
      1.0,
      1.0,
      1.0,
      1.0,
      1.0,
      1.0,
      1.0,
      1.0,
      1.0,
      1.0,
      1.0,
      1.0,
      1.0,
      1.0,
      1.0,
      1.0,
      1.0,
      1.0,
      1.0,
      1.0,
      1.0,
      1.0,
      1.0,
      1.0,
      1.0,
      1.0,
      1.0,
      1.0,
      1.0,
      1.0,
      1.0,
      1.0,
      1.0,
      1.0,
      1.0,
      1.0,
      1.0,
      1.0,
      1.0,
      1.0
    ],
    "knots": [
      0.0,
      1.0,
      2.0,
      3.0,
      4.0,
      5.0,
      6.0,
      7.0,
      8.0,
      9.0,
      10.0,
      11.0,
      12.0,
      13.0,
      14.0,
      15.0,
      16.0,
      17.0,
      18.0,
      19.0,
      20.0,
      21.0,
      22.0,
      23.0,
      24.0,
      25.0,
      26.0,
      27.0,
      28.0,
      29.0,
      30.0,
      31.0,
      32.0,
      33.0,
      34.0,
      35.0,
      36.0,
      37.0,
      38.0,
      39.0,
      40.0,
      41.0,
      42.0,
      43.0,
      44.0,
      45.0,
      46.0,
      47.0,
      48.0,
      49.0,
      50.0,
      51.0,
      52.0,
      53.0,
      54.0,
      55.0,
      56.0,
      57.0,
      58.0,
      59.0,
      60.0,
      61.0,
      62.0,
      63.0,
      64.0,
      65.0,
      66.0,
      67.0,
      68.0,
      69.0,
      70.0,
      71.0,
      72.0,
      73.0,
      74.0,
      75.0,
      76.0,
      77.0,
      78.0,
      79.0,
      80.0,
      81.0,
      82.0,
      83.0,
      84.0,
      85.0,
      86.0,
      87.0,
      88.0,
      89.0,
      90.0,
      91.0,
      92.0
    ]
  },
  "Character_baseshape15": {
    "degree": 1,
    "form": 2,
    "cv_positions": [
      [
        0.10153544014784972,
        0.0005705853610330361,
        1.0489168397322033
      ],
      [
        0.07170841442596687,
        0.0005705853610330361,
        1.0489168397322033
      ],
      [
        0.07170841442596687,
        0.0005705853610330166,
        1.0633566715807201
      ],
      [
        0.07772115875566311,
        0.0005705853610330166,
        1.0633566715807201
      ],
      [
        0.07772115875566311,
        0.0005705853610330174,
        1.1003337758165623
      ],
      [
        0.07170841442596687,
        0.0005705853610330174,
        1.1003337758165623
      ],
      [
        0.07170841442596687,
        0.0005705853610330161,
        1.1147736076650792
      ],
      [
        0.10797476527020405,
        0.0005705853610330161,
        1.1147736076650792
      ],
      [
        0.10797476527020405,
        0.0005705853610330174,
        1.1003337758165623
      ],
      [
        0.10153544014784972,
        0.0005705853610330174,
        1.1003337758165623
      ],
      [
        0.10153544014784972,
        0.0005705853610330183,
        1.0854673031612063
      ],
      [
        0.10334668992876217,
        0.0005705853610330177,
        1.084410398890041
      ],
      [
        0.10513375945090181,
        0.0005705853610330169,
        1.0836560206452857
      ],
      [
        0.10689752164779553,
        0.0005705853610330163,
        1.0832032000163059
      ],
      [
        0.1086380201661212,
        0.0005705853610330202,
        1.0830529081416527
      ],
      [
        0.11015260348694247,
        0.0005705853610330174,
        1.0831886574892833
      ],
      [
        0.11138400717070791,
        0.0005705853610330138,
        1.083596876670727
      ],
      [
        0.11233039805700527,
        0.0005705853610330177,
        1.0842775575022316
      ],
      [
        0.11299360930624568,
        0.000570585361033018,
        1.0852307108954669
      ],
      [
        0.11342802467733389,
        0.0005705853610330182,
        1.0867191062103958
      ],
      [
        0.11373926912737188,
        0.000570585361033018,
        1.0890064784896993
      ],
      [
        0.11392546584927102,
        0.000570585361033018,
        1.0920928318252534
      ],
      [
        0.11398748777656172,
        0.0005705853610330182,
        1.0959781675810167
      ],
      [
        0.11398748777656172,
        0.0005705853610330161,
        1.1147736076650792
      ],
      [
        0.1431997718834437,
        0.0005705853610330161,
        1.1147736076650792
      ],
      [
        0.1431997718834437,
        0.0005705853610330174,
        1.1003337758165623
      ],
      [
        0.13780272939563104,
        0.0005705853610330174,
        1.1003337758165623
      ],
      [
        0.13780272939563104,
        0.0005705853610330176,
        1.089397241728465
      ],
      [
        0.13750606293553955,
        0.0005705853610330166,
        1.083860614441325
      ],
      [
        0.1366188132958846,
        0.0005705853610330194,
        1.0792296284121454
      ],
      [
        0.1351391473162535,
        0.000570585361033018,
        1.075504286368843
      ],
      [
        0.13306802522352806,
        0.0005705853610330202,
        1.0726836117170322
      ],
      [
        0.13049073262356858,
        0.0005705853610330152,
        1.0706328289755511
      ],
      [
        0.12749259876890748,
        0.0005705853610330145,
        1.0691686793894113
      ],
      [
        0.12407558775998888,
        0.0005705853610330222,
        1.0682892152256749
      ],
      [
        0.12023681891616249,
        0.000570585361033018,
        1.0679963896731148
      ],
      [
        0.11562423814487405,
        0.0005705853610330208,
        1.0683958767913433
      ],
      [
        0.11096901457065686,
        0.0005705853610330208,
        1.0695943490576985
      ],
      [
        0.10627306864727643,
        0.0005705853610330145,
        1.0715918010163457
      ],
      [
        0.10153544014784972,
        0.0005705853610330174,
        1.0743882326672844
      ],
      [
        0.10153544014784972,
        0.0005705853610330361,
        1.0489168397322033
      ]
    ],
    "cv_weights": [
      1.0,
      1.0,
      1.0,
      1.0,
      1.0,
      1.0,
      1.0,
      1.0,
      1.0,
      1.0,
      1.0,
      1.0,
      1.0,
      1.0,
      1.0,
      1.0,
      1.0,
      1.0,
      1.0,
      1.0,
      1.0,
      1.0,
      1.0,
      1.0,
      1.0,
      1.0,
      1.0,
      1.0,
      1.0,
      1.0,
      1.0,
      1.0,
      1.0,
      1.0,
      1.0,
      1.0,
      1.0,
      1.0,
      1.0,
      1.0,
      1.0
    ],
    "knots": [
      0.0,
      1.0,
      2.0,
      3.0,
      4.0,
      5.0,
      6.0,
      7.0,
      8.0,
      9.0,
      10.0,
      11.0,
      12.0,
      13.0,
      14.0,
      15.0,
      16.0,
      17.0,
      18.0,
      19.0,
      20.0,
      21.0,
      22.0,
      23.0,
      24.0,
      25.0,
      26.0,
      27.0,
      28.0,
      29.0,
      30.0,
      31.0,
      32.0,
      33.0,
      34.0,
      35.0,
      36.0,
      37.0,
      38.0,
      39.0,
      40.0
    ]
  },
  "Character_baseshape16": {
    "degree": 1,
    "form": 2,
    "cv_positions": [
      [
        0.18183009219630403,
        0.0005705853610330188,
        1.0675232051416355
      ],
      [
        0.17495923238350933,
        0.0005705853610330202,
        1.0679585698279377
      ],
      [
        0.16883403239184122,
        0.0005705853610330124,
        1.0692627325214092
      ],
      [
        0.16345353199441773,
        0.0005705853610330208,
        1.071438598453954
      ],
      [
        0.158819607998327,
        0.0005705853610330202,
        1.0744832569378342
      ],
      [
        0.1550913525393698,
        0.0005705853610330161,
        1.0781610895737788
      ],
      [
        0.15242873068687465,
        0.0005705853610330166,
        1.0822355013681308
      ],
      [
        0.1508307822139596,
        0.0005705853610330163,
        1.086707468915277
      ],
      [
        0.15029750712062453,
        0.000570585361033018,
        1.0915750472101962
      ],
      [
        0.15083658722193224,
        0.0005705853610330174,
        1.0966675791117777
      ],
      [
        0.15245203801211937,
        0.0005705853610330188,
        1.1012927464933981
      ],
      [
        0.15514468877803858,
        0.000570585361033018,
        1.105449580262443
      ],
      [
        0.15891467045971797,
        0.000570585361033018,
        1.1091400172401826
      ],
      [
        0.1636493746318207,
        0.0005705853610330138,
        1.112184677258516
      ],
      [
        0.16923645474906396,
        0.0005705853610330202,
        1.1143595727344882
      ],
      [
        0.17567481964453568,
        0.0005705853610330188,
        1.1156637343197435
      ],
      [
        0.18296647706535457,
        0.0005705853610330166,
        1.1160991013077257
      ],
      [
        0.18976654196888554,
        0.0005705853610330188,
        1.1156637343197435
      ],
      [
        0.19586751805510172,
        0.0005705853610330202,
        1.1143595727344882
      ],
      [
        0.2012712821310943,
        0.0005705853610330138,
        1.112184677258516
      ],
      [
        0.20597595738977195,
        0.000570585361033018,
        1.1091400172401826
      ],
      [
        0.2097876216474985,
        0.0005705853610330166,
        1.105443761614884
      ],
      [
        0.2125103449735189,
        0.0005705853610330198,
        1.1013160183557182
      ],
      [
        0.21414321078762408,
        0.0005705853610330187,
        1.0967558163241335
      ],
      [
        0.21468818319025743,
        0.000570585361033018,
        1.0917641246127439
      ],
      [
        0.21411706642840822,
        0.0005705853610330183,
        1.0866211712521077
      ],
      [
        0.21240371614285775,
        0.0005705853610330194,
        1.081987277263107
      ],
      [
        0.20954813233360794,
        0.0005705853610330174,
        1.0778624426457417
      ],
      [
        0.20555031500065804,
        0.000570585361033018,
        1.0742466674000117
      ],
      [
        0.20064102412260215,
        0.0005705853610330188,
        1.07130478865551
      ],
      [
        0.19505106332471098,
        0.0005705853610330174,
        1.069203585818933
      ],
      [
        0.18878043260698327,
        0.0005705853610330208,
        1.0679430588902805
      ],
      [
        0.18183009219630403,
        0.0005705853610330188,
        1.0675232051416355
      ]
    ],
    "cv_weights": [
      1.0,
      1.0,
      1.0,
      1.0,
      1.0,
      1.0,
      1.0,
      1.0,
      1.0,
      1.0,
      1.0,
      1.0,
      1.0,
      1.0,
      1.0,
      1.0,
      1.0,
      1.0,
      1.0,
      1.0,
      1.0,
      1.0,
      1.0,
      1.0,
      1.0,
      1.0,
      1.0,
      1.0,
      1.0,
      1.0,
      1.0,
      1.0,
      1.0
    ],
    "knots": [
      0.0,
      1.0,
      2.0,
      3.0,
      4.0,
      5.0,
      6.0,
      7.0,
      8.0,
      9.0,
      10.0,
      11.0,
      12.0,
      13.0,
      14.0,
      15.0,
      16.0,
      17.0,
      18.0,
      19.0,
      20.0,
      21.0,
      22.0,
      23.0,
      24.0,
      25.0,
      26.0,
      27.0,
      28.0,
      29.0,
      30.0,
      31.0,
      32.0
    ]
  },
  "Character_baseshape17": {
    "degree": 1,
    "form": 2,
    "cv_positions": [
      [
        0.2673365502375556,
        0.000570585361033018,
        1.0679963896731148
      ],
      [
        0.2633619965831739,
        0.0005705853610330174,
        1.0682426715010347
      ],
      [
        0.2594407791674608,
        0.0005705853610330188,
        1.0689786253924776
      ],
      [
        0.25557385821730155,
        0.0005705853610330188,
        1.070207159307264
      ],
      [
        0.2517593132789251,
        0.0005705853610330166,
        1.0719263227845386
      ],
      [
        0.2517593132789251,
        0.0005705853610330152,
        1.0688486946924063
      ],
      [
        0.22240548300019072,
        0.0005705853610330152,
        1.0688486946924063
      ],
      [
        0.22240548300019072,
        0.0005705853610330191,
        1.0832895004073924
      ],
      [
        0.22794503188673837,
        0.0005705853610330191,
        1.0832895004073924
      ],
      [
        0.22794503188673837,
        0.0005705853610330166,
        1.1214010758783126
      ],
      [
        0.22231046418547543,
        0.0005705853610330166,
        1.1214010758783126
      ],
      [
        0.22231046418547543,
        0.0005705853610330208,
        1.1358418775014227
      ],
      [
        0.2578195233693018,
        0.0005705853610330208,
        1.1358418775014227
      ],
      [
        0.2578195233693018,
        0.0005705853610330166,
        1.1214010758783126
      ],
      [
        0.2517593132789251,
        0.0005705853610330166,
        1.1214010758783126
      ],
      [
        0.2517593132789251,
        0.0005705853610330229,
        1.1118385170017402
      ],
      [
        0.2549436002088086,
        0.0005705853610330216,
        1.1134956262429545
      ],
      [
        0.2584352470345235,
        0.0005705853610330202,
        1.1146795528920688
      ],
      [
        0.2622342974027449,
        0.0005705853610330202,
        1.1153883574212073
      ],
      [
        0.2663416678936785,
        0.0005705853610330161,
        1.115624948791849
      ],
      [
        0.27182499986090886,
        0.0005705853610330188,
        1.1152283673317613
      ],
      [
        0.27677012466036366,
        0.0005705853610330145,
        1.1140405621596945
      ],
      [
        0.28117616935850903,
        0.0005705853610330208,
        1.1120576548592553
      ],
      [
        0.2850430466619934,
        0.0005705853610330188,
        1.1092815848943827
      ],
      [
        0.2881711166725585,
        0.000570585361033018,
        1.1058461607848096
      ],
      [
        0.29040517180861447,
        0.000570585361033018,
        1.101836712294555
      ],
      [
        0.29174521207016063,
        0.000570585361033018,
        1.097253239764609
      ],
      [
        0.29219219768407656,
        0.000570585361033018,
        1.092095741149033
      ],
      [
        0.2917364827348616,
        0.000570585361033019,
        1.086955695748218
      ],
      [
        0.2903692942405404,
        0.0005705853610330198,
        1.0823305256386806
      ],
      [
        0.2880915924279978,
        0.0005705853610330202,
        1.078220236276255
      ],
      [
        0.284901500490141,
        0.0005705853610330194,
        1.0746248249330241
      ],
      [
        0.28105107798369217,
        0.0005705853610330194,
        1.0717256080868724
      ],
      [
        0.2768409195696269,
        0.0005705853610330257,
        1.0696534957601749
      ],
      [
        0.27226906114750205,
        0.000570585361033018,
        1.0684113877290005
      ],
      [
        0.2673365502375556,
        0.000570585361033018,
        1.0679963896731148
      ]
    ],
    "cv_weights": [
      1.0,
      1.0,
      1.0,
      1.0,
      1.0,
      1.0,
      1.0,
      1.0,
      1.0,
      1.0,
      1.0,
      1.0,
      1.0,
      1.0,
      1.0,
      1.0,
      1.0,
      1.0,
      1.0,
      1.0,
      1.0,
      1.0,
      1.0,
      1.0,
      1.0,
      1.0,
      1.0,
      1.0,
      1.0,
      1.0,
      1.0,
      1.0,
      1.0,
      1.0,
      1.0,
      1.0
    ],
    "knots": [
      0.0,
      1.0,
      2.0,
      3.0,
      4.0,
      5.0,
      6.0,
      7.0,
      8.0,
      9.0,
      10.0,
      11.0,
      12.0,
      13.0,
      14.0,
      15.0,
      16.0,
      17.0,
      18.0,
      19.0,
      20.0,
      21.0,
      22.0,
      23.0,
      24.0,
      25.0,
      26.0,
      27.0,
      28.0,
      29.0,
      30.0,
      31.0,
      32.0,
      33.0,
      34.0,
      35.0
    ]
  },
  "Character_baseshape18": {
    "degree": 1,
    "form": 2,
    "cv_positions": [
      [
        -0.15184326098750106,
        0.0005705853610330188,
        1.080975972857203
      ],
      [
        -0.1500651499457114,
        0.0005705853610330174,
        1.0811496347991982
      ],
      [
        -0.14849833246480232,
        0.000570585361033018,
        1.0816715863079014
      ],
      [
        -0.14714473991020746,
        0.0005705853610330188,
        1.082539898745795
      ],
      [
        -0.1460014588662716,
        0.0005705853610330177,
        1.0837555296118446
      ],
      [
        -0.14511579141863942,
        0.0005705853610330177,
        1.0852866495672213
      ],
      [
        -0.14448288187455088,
        0.0005705853610330175,
        1.087100452678709
      ],
      [
        -0.1441027629690138,
        0.0005705853610330183,
        1.089196938946308
      ],
      [
        -0.14397637310557265,
        0.0005705853610330181,
        1.0915761083700186
      ],
      [
        -0.14449447006715913,
        0.000570585361033019,
        1.0963981222626011
      ],
      [
        -0.1460487391285779,
        0.000570585361033018,
        1.0998433822189189
      ],
      [
        -0.14864016234005092,
        0.0005705853610330177,
        1.1019099596014543
      ],
      [
        -0.15226776856302654,
        0.000570585361033018,
        1.1025988173650074
      ],
      [
        -0.15568890418287357,
        0.000570585361033018,
        1.1019157482419235
      ],
      [
        -0.15813271433446355,
        0.0005705853610330188,
        1.099866536780796
      ],
      [
        -0.15959919901779535,
        0.0005705853610330187,
        1.096451184345583
      ],
      [
        -0.16008737618264848,
        0.0005705853610330179,
        1.091669692300244
      ],
      [
        -0.15994651744595106,
        0.0005705853610330175,
        1.0892114105474813
      ],
      [
        -0.15952200987042608,
        0.0005705853610330171,
        1.087064755153176
      ],
      [
        -0.15881578482150624,
        0.0005705853610330183,
        1.0852306918000458
      ],
      [
        -0.15782591093375772,
        0.0005705853610330177,
        1.0837082548053734
      ],
      [
        -0.15660449142723912,
        0.0005705853610330183,
        1.0825128841809661
      ],
      [
        -0.15519975587946877,
        0.0005705853610330177,
        1.0816590433442457
      ],
      [
        -0.15361268634066946,
        0.0005705853610330177,
        1.0811467432068809
      ],
      [
        -0.15184326098750106,
        0.0005705853610330188,
        1.080975972857203
      ]
    ],
    "cv_weights": [
      1.0,
      1.0,
      1.0,
      1.0,
      1.0,
      1.0,
      1.0,
      1.0,
      1.0,
      1.0,
      1.0,
      1.0,
      1.0,
      1.0,
      1.0,
      1.0,
      1.0,
      1.0,
      1.0,
      1.0,
      1.0,
      1.0,
      1.0,
      1.0,
      1.0
    ],
    "knots": [
      0.0,
      1.0,
      2.0,
      3.0,
      4.0,
      5.0,
      6.0,
      7.0,
      8.0,
      9.0,
      10.0,
      11.0,
      12.0,
      13.0,
      14.0,
      15.0,
      16.0,
      17.0,
      18.0,
      19.0,
      20.0,
      21.0,
      22.0,
      23.0,
      24.0
    ]
  },
  "Character_baseshape19": {
    "degree": 1,
    "form": 2,
    "cv_positions": [
      [
        0.18268146426788529,
        0.0005705853610330188,
        1.080975972857203
      ],
      [
        0.18445954257466732,
        0.0005705853610330174,
        1.0811496347991982
      ],
      [
        0.18602637096724683,
        0.000570585361033018,
        1.0816715863079014
      ],
      [
        0.18737994169850222,
        0.0005705853610330188,
        1.082539898745795
      ],
      [
        0.18852322274243732,
        0.0005705853610330177,
        1.0837555296118446
      ],
      [
        0.18940890110174008,
        0.0005705853610330177,
        1.0852866495672213
      ],
      [
        0.190041821557497,
        0.0005705853610330175,
        1.087100452678709
      ],
      [
        0.19042194046303418,
        0.0005705853610330183,
        1.089196938946308
      ],
      [
        0.19054834123814357,
        0.0005705853610330181,
        1.0915761083700186
      ],
      [
        0.19003025518822753,
        0.000570585361033019,
        1.0963981222626011
      ],
      [
        0.1884759533918017,
        0.000570585361033018,
        1.0998433822189189
      ],
      [
        0.18588451926865857,
        0.0005705853610330177,
        1.1019099596014543
      ],
      [
        0.18225691304568334,
        0.000570585361033018,
        1.1025988173650074
      ],
      [
        0.17883579924917417,
        0.000570585361033018,
        1.1019157482419235
      ],
      [
        0.17639197818591543,
        0.0005705853610330188,
        1.099866536780796
      ],
      [
        0.17492549350258335,
        0.0005705853610330187,
        1.096451184345583
      ],
      [
        0.174437305426062,
        0.0005705853610330179,
        1.091669692300244
      ],
      [
        0.17457819689776619,
        0.0005705853610330175,
        1.0892114105474813
      ],
      [
        0.17500270447329203,
        0.0005705853610330171,
        1.087064755153176
      ],
      [
        0.17570890769887257,
        0.0005705853610330183,
        1.0852306918000458
      ],
      [
        0.17669877067495204,
        0.0005705853610330177,
        1.0837082548053734
      ],
      [
        0.17792022291647808,
        0.0005705853610330183,
        1.0825128841809661
      ],
      [
        0.1793249475525792,
        0.0005705853610330177,
        1.0816590433442457
      ],
      [
        0.18091202800304867,
        0.0005705853610330177,
        1.0811467432068809
      ],
      [
        0.18268146426788529,
        0.0005705853610330188,
        1.080975972857203
      ]
    ],
    "cv_weights": [
      1.0,
      1.0,
      1.0,
      1.0,
      1.0,
      1.0,
      1.0,
      1.0,
      1.0,
      1.0,
      1.0,
      1.0,
      1.0,
      1.0,
      1.0,
      1.0,
      1.0,
      1.0,
      1.0,
      1.0,
      1.0,
      1.0,
      1.0,
      1.0,
      1.0
    ],
    "knots": [
      0.0,
      1.0,
      2.0,
      3.0,
      4.0,
      5.0,
      6.0,
      7.0,
      8.0,
      9.0,
      10.0,
      11.0,
      12.0,
      13.0,
      14.0,
      15.0,
      16.0,
      17.0,
      18.0,
      19.0,
      20.0,
      21.0,
      22.0,
      23.0,
      24.0
    ]
  },
  "Character_baseshape20": {
    "degree": 1,
    "form": 2,
    "cv_positions": [
      [
        0.2598545933072466,
        0.0005705853610330174,
        1.081683406373478
      ],
      [
        0.2632342427610922,
        0.000570585361033018,
        1.0823105163654279
      ],
      [
        0.26564912607783864,
        0.0005705853610330161,
        1.0841918545250295
      ],
      [
        0.2670972791570448,
        0.0005705853610330199,
        1.0873274181243657
      ],
      [
        0.26757966222559443,
        0.0005705853610330179,
        1.0917172071634362
      ],
      [
        0.2670770270991545,
        0.0005705853610330175,
        1.0962102274121948
      ],
      [
        0.2655661537458349,
        0.000570585361033018,
        1.0994200790188726
      ],
      [
        0.2630490062660754,
        0.0005705853610330191,
        1.1013448333459523
      ],
      [
        0.25952462443299507,
        0.0005705853610330145,
        1.1019873819857515
      ],
      [
        0.2579018846478351,
        0.0005705853610330177,
        1.1018281916449293
      ],
      [
        0.2564267142758828,
        0.0005705853610330145,
        1.1013515863051804
      ],
      [
        0.255099156963812,
        0.0005705853610330152,
        1.1005566002837872
      ],
      [
        0.25391825248474464,
        0.000570585361033018,
        1.0994432349447083
      ],
      [
        0.25292934973554754,
        0.0005705853610330187,
        1.0980413964450904
      ],
      [
        0.2522231028632895,
        0.0005705853610330188,
        1.0963337202274839
      ],
      [
        0.25179859528776416,
        0.0005705853610330183,
        1.0943202062918893
      ],
      [
        0.251657747462736,
        0.000570585361033018,
        1.0919998889555889
      ],
      [
        0.2518044002957374,
        0.0005705853610330182,
        1.0894943337603131
      ],
      [
        0.25224627924850535,
        0.0005705853610330175,
        1.0873476783660079
      ],
      [
        0.2529824240941571,
        0.0005705853610330149,
        1.0855608898193494
      ],
      [
        0.25401279118601744,
        0.0005705853610330177,
        1.0841330024376197
      ],
      [
        0.2552438893430481,
        0.0005705853610330183,
        1.0830611219005843
      ],
      [
        0.256627358047699,
        0.0005705853610330152,
        1.0822960447642547
      ],
      [
        0.25816428846688244,
        0.0005705853610330188,
        1.0818368080738308
      ],
      [
        0.2598545933072466,
        0.0005705853610330174,
        1.081683406373478
      ]
    ],
    "cv_weights": [
      1.0,
      1.0,
      1.0,
      1.0,
      1.0,
      1.0,
      1.0,
      1.0,
      1.0,
      1.0,
      1.0,
      1.0,
      1.0,
      1.0,
      1.0,
      1.0,
      1.0,
      1.0,
      1.0,
      1.0,
      1.0,
      1.0,
      1.0,
      1.0,
      1.0
    ],
    "knots": [
      0.0,
      1.0,
      2.0,
      3.0,
      4.0,
      5.0,
      6.0,
      7.0,
      8.0,
      9.0,
      10.0,
      11.0,
      12.0,
      13.0,
      14.0,
      15.0,
      16.0,
      17.0,
      18.0,
      19.0,
      20.0,
      21.0,
      22.0,
      23.0,
      24.0
    ]
  },
  "Character_baseshape21": {
    "degree": 3,
    "form": 0,
    "cv_positions": [
      [
        0.1368793632800311,
        6.49729569332665e-16,
        0.7180546770889245
      ],
      [
        0.13457132717788547,
        6.598706893794222e-16,
        0.7186957982284093
      ],
      [
        0.13059637611307887,
        6.548001293560435e-16,
        0.7206191616468643
      ],
      [
