{
  "Character_baseshape01": {
    "degree": 3,
    "form": 2,
    "cv_positions": [
      [
        -1.0572995564591388,
        0.15237506693956593,
        -0.685760092452712
      ],
      [
        -1.0899174977851256,
        0.23602916433352744,
        -0.6292641608378021
      ],
      [
        -1.1225354391111122,
        0.15237506693956593,
        -0.5727682292228927
      ],
      [
        -1.1849766867277878,
        0.033586467861013616,
        -0.4646168158628225
      ],
      [
        -1.1571344949005755,
        0.054756311638257144,
        -0.5128409067016332
      ],
      [
        -1.089917497785125,
        0.06857898437752358,
        -0.6292641608378017
      ],
      [
        -1.0227005006696768,
        0.05475631163825708,
        -0.7456874149739712
      ],
      [
        -0.9948583088424633,
        0.033586467861013616,
        -0.7939115058127819
      ],
      [
        -1.0572995564591388,
        0.15237506693956593,
        -0.685760092452712
      ],
      [
        -1.0899174977851256,
        0.23602916433352744,
        -0.6292641608378021
      ],
      [
        -1.1225354391111122,
        0.15237506693956593,
        -0.5727682292228927
      ]
    ],
    "cv_weights": [
      1.0,
      1.0,
      1.0,
      1.0,
      1.0,
      1.0,
      1.0,
      1.0,
      1.0,
      1.0,
      1.0
    ],
    "knots": [
      -2.0,
      -1.0,
      0.0,
      1.0,
      2.0,
      3.0,
      4.0,
      5.0,
      6.0,
      7.0,
      8.0,
      9.0,
      10.0
    ]
  },
  "Character_baseshape02": {
    "degree": 3,
    "form": 2,
    "cv_positions": [
      [
        1.122535433270042,
        0.15237506693956593,
        -0.5727682292228905
      ],
      [
        1.0899174919440553,
        0.23602916433352744,
        -0.6292641608377997
      ],
      [
        1.0572995506180682,
        0.15237506693956593,
        -0.6857600924527093
      ],
      [
        0.9948583030013933,
        0.033586467861013616,
        -0.7939115058127797
      ],
      [
        1.0227004948286056,
        0.054756311638257144,
        -0.745687414973969
      ],
      [
        1.0899174919440544,
        0.06857898437752358,
        -0.6292641608377993
      ],
      [
        1.1571344890595048,
        0.05475631163825708,
        -0.512840906701631
      ],
      [
        1.1849766808867166,
        0.033586467861013616,
        -0.46461681586282005
      ],
      [
        1.122535433270042,
        0.15237506693956593,
        -0.5727682292228905
      ],
      [
        1.0899174919440553,
        0.23602916433352744,
        -0.6292641608377997
      ],
      [
        1.0572995506180682,
        0.15237506693956593,
        -0.6857600924527093
      ]
    ],
    "cv_weights": [
      1.0,
      1.0,
      1.0,
      1.0,
      1.0,
      1.0,
      1.0,
      1.0,
      1.0,
      1.0,
      1.0
    ],
    "knots": [
      -2.0,
      -1.0,
      0.0,
      1.0,
      2.0,
      3.0,
      4.0,
      5.0,
      6.0,
      7.0,
      8.0,
      9.0,
      10.0
    ]
  },
  "Character_baseshape03": {
    "degree": 3,
    "form": 2,
    "cv_positions": [
      [
        0.0652358797314378,
        0.15237506693956593,
        -1.2585283198923531
      ],
      [
        -2.9205355275643134e-09,
        0.23602916433352744,
        -1.2585283198923531
      ],
      [
        -0.06523588557250887,
        0.15237506693956593,
        -1.2585283198923531
      ],
      [
        -0.19011838080585897,
        0.033586502310596004,
        -1.2585283198923531
      ],
      [
        -0.13443399715143425,
        0.05475633460464542,
        -1.2585283198923531
      ],
      [
        -2.920535558249994e-09,
        0.06857898437752358,
        -1.2585283198923523
      ],
      [
        0.13443399131036318,
        0.05475633460464536,
        -1.2585283198923534
      ],
      [
        0.19011837496478792,
        0.033586502310596004,
        -1.2585283198923531
      ],
      [
        0.0652358797314378,
        0.15237506693956593,
        -1.2585283198923531
      ],
      [
        -2.9205355275643134e-09,
        0.23602916433352744,
        -1.2585283198923531
      ],
      [
        -0.06523588557250887,
        0.15237506693956593,
        -1.2585283198923531
      ]
    ],
    "cv_weights": [
      1.0,
      1.0,
      1.0,
      1.0,
      1.0,
      1.0,
      1.0,
      1.0,
      1.0,
      1.0,
      1.0
    ],
    "knots": [
      -2.0,
      -1.0,
      0.0,
      1.0,
      2.0,
      3.0,
      4.0,
      5.0,
      6.0,
      7.0,
      8.0,
      9.0,
      10.0
    ]
  },
  "Character_baseshape04": {
    "degree": 3,
    "form": 2,
    "cv_positions": [
      [
        1.0572995506180682,
        0.15237506693956593,
        0.685760088886218
      ],
      [
        1.0899174919440553,
        0.23602916433352744,
        0.6292641572713086
      ],
      [
        1.122535433270042,
        0.15237506693956593,
        0.5727682256563991
      ],
      [
        1.1849766808867168,
        0.033586467861013616,
        0.46461681229632906
      ],
      [
        1.1571344890595048,
        0.054756311638257144,
        0.51284090313514
      ],
      [
        1.0899174919440544,
        0.06857898437752358,
        0.6292641572713082
      ],
      [
        1.0227004948286056,
        0.05475631163825708,
        0.7456874114074779
      ],
      [
        0.994858303001393,
        0.033586467861013616,
        0.7939115022462887
      ],
      [
        1.0572995506180682,
        0.15237506693956593,
        0.685760088886218
      ],
      [
        1.0899174919440553,
        0.23602916433352744,
        0.6292641572713086
      ],
      [
        1.122535433270042,
        0.15237506693956593,
        0.5727682256563991
      ]
    ],
    "cv_weights": [
      1.0,
      1.0,
      1.0,
      1.0,
      1.0,
      1.0,
      1.0,
      1.0,
      1.0,
      1.0,
      1.0
    ],
    "knots": [
      -2.0,
      -1.0,
      0.0,
      1.0,
      2.0,
      3.0,
      4.0,
      5.0,
      6.0,
      7.0,
      8.0,
      9.0,
      10.0
    ]
  },
  "Character_baseshape05": {
    "degree": 3,
    "form": 2,
    "cv_positions": [
      [
        -0.06523588557251013,
        0.15237506693956593,
        1.2585283163258632
      ],
      [
        -2.9205368227700598e-09,
        0.23602916433352744,
        1.2585283163258632
      ],
      [
        0.06523587973143656,
        0.15237506693956593,
        1.2585283163258632
      ],
      [
        0.19011837496478673,
        0.033586502310596004,
        1.2585283163258634
      ],
      [
        0.13443399131036204,
        0.05475633460464542,
        1.2585283163258634
      ],
      [
        -2.9205367920843792e-09,
        0.06857898437752358,
        1.258528316325862
      ],
      [
        -0.1344339971514356,
        0.05475633460464536,
        1.2585283163258632
      ],
      [
        -0.19011838080586033,
        0.033586502310596004,
        1.258528316325863
      ],
      [
        -0.06523588557251013,
        0.15237506693956593,
        1.2585283163258632
      ],
      [
        -2.9205368227700598e-09,
        0.23602916433352744,
        1.2585283163258632
      ],
      [
        0.06523587973143656,
        0.15237506693956593,
        1.2585283163258632
      ]
    ],
    "cv_weights": [
      1.0,
      1.0,
      1.0,
      1.0,
      1.0,
      1.0,
      1.0,
      1.0,
      1.0,
      1.0,
      1.0
    ],
    "knots": [
      -2.0,
      -1.0,
      0.0,
      1.0,
      2.0,
      3.0,
      4.0,
      5.0,
      6.0,
      7.0,
      8.0,
      9.0,
      10.0
    ]
  },
  "Character_baseshape06": {
    "degree": 3,
    "form": 2,
    "cv_positions": [
      [
        -1.1225354391111138,
        0.15237506693956593,
        0.5727682256563968
      ],
      [
        -1.089917497785128,
        0.23602916433352744,
        0.6292641572713064
      ],
      [
        -1.057299556459141,
        0.15237506693956593,
        0.6857600888862159
      ],
      [
        -0.9948583088424662,
        0.033586467861013616,
        0.7939115022462864
      ],
      [
        -1.0227005006696788,
        0.054756311638257144,
        0.7456874114074755
      ],
      [
        -1.089917497785127,
        0.06857898437752358,
        0.6292641572713059
      ],
      [
        -1.1571344949005773,
        0.05475631163825708,
        0.5128409031351376
      ],
      [
        -1.184976686727789,
        0.033586467861013616,
        0.4646168122963266
      ],
      [
        -1.1225354391111138,
        0.15237506693956593,
        0.5727682256563968
      ],
      [
        -1.089917497785128,
        0.23602916433352744,
        0.6292641572713064
      ],
      [
        -1.057299556459141,
        0.15237506693956593,
        0.6857600888862159
      ]
    ],
    "cv_weights": [
      1.0,
      1.0,
      1.0,
      1.0,
      1.0,
      1.0,
      1.0,
      1.0,
      1.0,
      1.0,
      1.0
    ],
    "knots": [
      -2.0,
      -1.0,
      0.0,
      1.0,
      2.0,
      3.0,
      4.0,
      5.0,
      6.0,
      7.0,
      8.0,
      9.0,
      10.0
    ]
  },
  "Character_baseshape07": {
    "degree": 3,
    "form": 2,
    "cv_positions": [
      [
        -0.42401698603354177,
        -0.008105524415068094,
        0.9634101542540642
      ],
      [
        -0.38435492926063236,
        -0.008105522463882128,
        0.9856827471330971
      ],
      [
        -0.37174015886914347,
        -0.008105522360258568,
        0.9954645486659793
      ],
      [
        -0.37212321409936117,
        -0.008105524316921308,
        1.0033560876642886
      ],
      [
        -0.3697649943181859,
        -0.00810552301975723,
        1.050436567284073
      ],
      [
        -0.3701550044844557,
        -0.008105524549924997,
        1.1066238768163605
      ],
      [
        -0.371110241592843,
        -0.008105523203098184,
        1.1639913692539843
      ],
      [
        -0.36660997671319406,
        -0.008105523432389499,
        1.2133481021936385
      ],
      [
        -0.3484194212677562,
        -0.008105522128246067,
        1.2581749407920562
      ],
      [
        -0.29189142399201673,
        -0.008105523614483329,
        1.27305003174866
      ],
      [
        -0.16033986140496798,
        -0.008105522540933932,
        1.2761885826799075
      ],
      [
        -6.644657911890177e-08,
        -0.008105522866396653,
        1.275171357823304
      ],
      [
        0.16033960250715262,
        -0.008105522769547423,
        1.2761884693976149
      ],
      [
        0.2918913642950929,
        -0.008105522973930482,
        1.2730504865702208
      ],
      [
        0.34841946510626726,
        -0.008105523702088526,
        1.2581746703107624
      ],
      [
        0.36660980711946206,
        -0.008105527008593788,
        1.2133480801190546
      ],
      [
        0.3711100654474302,
        -0.008105525752716239,
        1.1639917173818837
      ],
      [
        0.37015483428874324,
        -0.008105527309973992,
        1.1066241591988724
      ],
      [
        0.36976481179375703,
        -0.008105525988653394,
        1.050436701653916
      ],
      [
        0.372123070345518,
        -0.0081055262269665,
        1.0033561442019505
      ],
      [
        0.37174007083504307,
        -0.008105524692257428,
        0.9954647528167353
      ],
      [
        0.3843548431750503,
        -0.008105524866183928,
        0.9856826437939079
      ],
      [
        0.44522920352199286,
        -0.008105523547758679,
        0.9480027440713458
      ],
      [
        0.5221882027777294,
        -0.008105523842202821,
        0.9044564325681864
      ],
      [
        0.5983795079204401,
        -0.00810552371433282,
        0.8595812804254208
      ],
      [
        0.6614489543748673,
        -0.008105523670349998,
        0.8257023221794235
      ],
      [
        0.6762273749830631,
        -0.008105522592727612,
        0.8196688226026733
      ],
      [
        0.6828702835444325,
        -0.008105523388247023,
        0.8239461583600753
      ],
      [
        0.7248222679127596,
        -0.008105521907957557,
        0.8454440072441514
      ],
      [
        0.7732870331292007,
        -0.008105523365890488,
        0.8738757772280551
      ],
      [
        0.8224913410070248,
        -0.008105522119557267,
        0.9033865112918446
      ],
      [
        0.8674852389794235,
        -0.008105522561377611,
        0.924167664499463
      ],
      [
        0.9154018120629662,
        -0.008105523326524153,
        0.9308275095808448
      ],
      [
        0.9565481331226591,
        -0.008105525788142231,
        0.8893105624640268
      ],
      [
        1.0250418264102668,
        -0.008105524794376345,
        0.7769524880137136
      ],
      [
        1.1043302477835428,
        -0.008105525128028507,
        0.6375856842582384
      ],
      [
        1.185381548202971,
        -0.008105525039262063,
        0.4992360040060024
      ],
      [
        1.2484393817168704,
        -0.008105525312095598,
        0.38373970515610056
      ],
      [
        1.2638210230462996,
        -0.008105526219754803,
        0.32734741139645623
      ],
      [
        1.2340952036666368,
        -0.00810552843415947,
        0.2891806581881238
      ],
      [
        1.1936013826710619,
        -0.008105526982004644,
        0.260605108575113
      ],
      [
        1.1434417772859886,
        -0.008105528439804232,
        0.2327484789239866
      ],
      [
        1.094587366216147,
        -0.008105527190427545,
        0.20499252543407143
      ],
      [
        1.054993174015165,
        -0.008105527601077347,
        0.17940987361144384
      ],
      [
        1.0479675729665643,
        -0.008105526879729603,
        0.17579619715137146
      ],
      [
        1.0458039628347038,
        -0.008105527385096043,
        0.15998020912613423
      ],
      [
        1.0436085053253215,
        -0.008105526083568796,
        0.08842146560809215
      ],
      [
        1.0443768767759307,
        -0.00810552637934008,
        1.0840937486869562e-08
      ],
      [
        1.0436085633712584,
        -0.008105526252578928,
        -0.08842151734479406
      ],
      [
        1.045803732348348,
        -0.008105526209703832,
        -0.15998021144243724
      ],
      [
        1.0479675734680627,
        -0.008105524899801025,
        -0.1757960857658098
      ],
      [
        1.0549931766713763,
        -0.008105524971687135,
        -0.17940988846892666
      ],
      [
        1.0945873471496725,
        -0.008105523330233896,
        -0.20499252229751233
      ],
      [
        1.143441854109452,
        -0.008105524720360798,
        -0.2327485007918123
      ],
      [
        1.193601149548182,
        -0.008105523567684857,
        -0.26060507516015796
      ],
      [
        1.2340951251099748,
        -0.008105524192565564,
        -0.28918049746386093
      ],
      [
        1.2638212388312562,
        -0.008105525865605296,
        -0.32734749038588423
      ],
      [
        1.248439313821578,
        -0.008105528013680429,
        -0.3837396809922326
      ],
      [
        1.1853815421704765,
        -0.0081055269368499,
        -0.49923601068618717
      ],
      [
        1.1043303587671978,
        -0.008105527260849925,
        -0.637585675205637
      ],
      [
        1.0250417900389293,
        -0.008105527162322629,
        -0.7769525386505677
      ],
      [
        0.9565481379121201,
        -0.008105527341403037,
        -0.8893104421645028
      ],
      [
        0.9154018680507462,
        -0.008105527185004867,
        -0.9308275317202215
      ],
      [
        0.8674851117598664,
        -0.008105527325927593,
        -0.9241676542368271
      ],
      [
        0.8224913587332547,
        -0.008105525671320526,
        -0.9033865116715734
      ],
      [
        0.7732870296038424,
        -0.00810552703422365,
        -0.8738757770953633
      ],
      [
        0.7248222616414816,
        -0.00810552585299728,
        -0.8454440288664472
      ],
      [
        0.6828702054119549,
        -0.008105526437698627,
        -0.8239460384706948
      ],
      [
        0.6762276755581447,
        -0.00810552685480647,
        -0.819668817966872
      ],
      [
        0.6614487633310329,
        -0.008105528358930929,
        -0.8257024498049793
      ],
      [
        0.5983796656871543,
        -0.008105527219224869,
        -0.8595812140037318
      ],
      [
        0.5221882109751241,
        -0.008105527536356221,
        -0.9044565643058572
      ],
      [
        0.44522918102677106,
        -0.008105527430847904,
        -0.9480027259810863
      ],
      [
        0.38435485014527193,
        -0.008105527542598199,
        -0.9856826488745994
      ],
      [
        0.3717400664822052,
        -0.008105526974382452,
        -0.9954647867524566
      ],
      [
        0.3721230127749431,
        -0.008105527483816839,
        -1.003356140178219
      ],
      [
        0.3697648268270914,
        -0.008105525864307322,
        -1.0504367149440148
      ],
      [
        0.3701548332674192,
        -0.008105527258857029,
        -1.106624069483849
      ],
      [
        0.371110055739501,
        -0.008105526099357337,
        -1.1639916769993197
      ],
      [
        0.3666098526219663,
        -0.008105526694781491,
        -1.213348263720834
      ],
      [
        0.3484193150234141,
        -0.008105527206394207,
        -1.2581748094082885
      ],
      [
        0.29189136284606443,
        -0.008105528065562747,
        -1.2730502747294965
      ],
      [
        0.16033962876692628,
        -0.008105526825889324,
        -1.27618852645848
      ],
      [
        -7.277095834866371e-08,
        -0.008105527132038284,
        -1.2751713614439997
      ],
      [
        -0.160339857591626,
        -0.00810552701566717,
        -1.2761885325358202
      ],
      [
        -0.29189143604730833,
        -0.00810552703255021,
        -1.2730502514590454
      ],
      [
        -0.3484195942215172,
        -0.008105525632557894,
        -1.2581748156095436
      ],
      [
        -0.3666099780127908,
        -0.008105524792139236,
        -1.2133479113052943
      ],
      [
        -0.3711102409583825,
        -0.008105523131349055,
        -1.1639913645064894
      ],
      [
        -0.3701550049224415,
        -0.008105524498807734,
        -1.106624127623103
      ],
      [
        -0.3697649930792821,
        -0.008105523313802585,
        -1.050436399153225
      ],
      [
        -0.3721232184758556,
        -0.00810552390020092,
        -1.0033561308712209
      ],
      [
        -0.37174015363715385,
        -0.008105524642382754,
        -0.9954645529299447
      ],
      [
        -0.3843549908463604,
        -0.008105526813863768,
        -0.9856826372412104
      ],
      [
        -0.44522927714104604,
        -0.008105525819066184,
        -0.9480026505652742
      ],
      [
        -0.5221883321868653,
        -0.008105526156233188,
        -0.9044564737025457
      ],
      [
        -0.5983796829674579,
        -0.008105526070881752,
        -0.8595812726587445
      ],
      [
        -0.6614489963057849,
        -0.008105526336130917,
        -0.8257023143987989
      ],
      [
        -0.6762276011832457,
        -0.008105526741906422,
        -0.8196688818448616
      ],
      [
        -0.6828703507721615,
        -0.008105528412488593,
        -0.8239459313400189
      ],
      [
        -0.7248223034135598,
        -0.008105526976107955,
        -0.8454440387755773
      ],
      [
        -0.7732870154126864,
        -0.008105528442891145,
        -0.8738757641721807
      ],
      [
        -0.8224913546458555,
        -0.008105527182899211,
        -0.9033865222549081
      ],
      [
        -0.8674852314308212,
        -0.008105527565792772,
        -0.9241676533800176
      ],
      [
        -0.915401873784998,
        -0.008105526008112322,
        -0.9308275193273505
      ],
      [
        -0.956548138171168,
        -0.008105525891903694,
        -0.8893104475893421
      ],
      [
        -1.025041830397149,
        -0.008105524572448328,
        -0.7769525385462066
      ],
      [
        -1.104330250110799,
        -0.008105524870406444,
        -0.6375856383281313
      ],
      [
        -1.1853815484209962,
        -0.008105524745954547,
        -0.4992361959960007
      ],
      [
        -1.2484393850100397,
        -0.008105524694385243,
        -0.3837398587627518
      ],
      [
        -1.2638210291889989,
        -0.008105523114885856,
        -0.32734766500204177
      ],
      [
        -1.2340952679509332,
        -0.008105523366576581,
        -0.28918078034696976
      ],
      [
        -1.193601383766466,
        -0.008105521902060497,
        -0.2606051673180765
      ],
      [
        -1.1434417590496482,
        -0.00810552336897754,
        -0.2327485636455126
      ],
      [
        -1.0945873602526452,
        -0.008105522112028979,
        -0.20499268753147373
      ],
      [
        -1.054993183864622,
        -0.008105522526092892,
        -0.17941002645169768
      ],
      [
        -1.0479675786493818,
        -0.008105522454910825,
        -0.17579635289833215
      ],
      [
        -1.0458039686998393,
        -0.008105524294949776,
        -0.1599803599031864
      ],
      [
        -1.0436085109947264,
        -0.008105523283255601,
        -0.08842163058090635
      ],
      [
        -1.0443768832610465,
        -0.008105523619094312,
        -1.7519050531817112e-07
      ],
      [
        -1.0436085667923782,
        -0.008105523532636931,
        0.08842135795324405
      ],
      [
        -1.0458037479758668,
        -0.008105523796775883,
        0.1599800417535016
      ],
      [
        -1.0479675177030883,
        -0.008105524434844016,
        0.17579588395512996
      ],
      [
        -1.054993308696828,
        -0.008105526829048406,
        0.17940973670906654
      ],
      [
        -1.0945872746853946,
        -0.008105525553832333,
        0.204992347651711
      ],
      [
        -1.143441929097199,
        -0.008105527088425823,
        0.23274825726132553
      ],
      [
        -1.1936015142710563,
        -0.008105525734769577,
        0.2606048602782858
      ],
      [
        -1.2340953747730041,
        -0.008105525934595221,
        0.2891804801754525
      ],
      [
        -1.2638211567070992,
        -0.008105523469037732,
        0.3273472446666638
      ],
      [
        -1.248439532850138,
        -0.008105523666366554,
        0.38373955551553046
      ],
      [
        -1.1853816329319076,
        -0.008105522429974397,
        0.4992357928698816
      ],
      [
        -1.104330627837343,
        -0.008105522737584862,
        0.6375854194448493
      ],
      [
        -1.0250418840605668,
        -0.00810552262289321,
        0.7769525167590238
      ],
      [
        -0.9565483275486433,
        -0.008105522665076609,
        0.8893103651383832
      ],
      [
        -0.915401682645167,
        -0.008105522149636873,
        0.930827575201572
      ],
      [
        -0.8674851666928389,
        -0.008105524474811901,
        0.9241673492664859
      ],
      [
        -0.8224914514494317,
        -0.00810552321274232,
        0.9033864372019507
      ],
      [
        -0.7732871214555133,
        -0.008105524774556692,
        0.8738756057622286
      ],
      [
        -0.7248223290312545,
        -0.008105523449459572,
        0.8454440162872966
      ],
      [
        -0.6828702794673185,
        -0.008105523689471516,
        0.8239458369634326
      ],
      [
        -0.6762277535145387,
        -0.008105522479833777,
        0.819668811138859
      ],
      [
        -0.6614488268600968,
        -0.008105523321114999,
        0.8257022592728027
      ],
      [
        -0.5983797601928746,
        -0.008105522147599423,
        0.8595811635885833
      ],
      [
        -0.5221893634023901,
        -0.008105534187377158,
        0.9044558653350391
      ],
      [
        -0.42401698603354177,
        -0.008105524415068094,
        0.9634101542540642
      ],
      [
        -0.38435492926063236,
        -0.008105522463882128,
        0.9856827471330971
      ],
      [
        -0.37174015886914347,
        -0.008105522360258568,
        0.9954645486659793
      ]
    ],
    "cv_weights": [
      1.0,
      1.0,
      1.0,
      1.0,
      1.0,
      1.0,
      1.0,
      1.0,
      1.0,
      1.0,
      1.0,
      1.0,
      1.0,
      1.0,
      1.0,
      1.0,
      1.0,
      1.0,
      1.0,
      1.0,
      1.0,
      1.0,
      1.0,
      1.0,
      1.0,
      1.0,
      1.0,
      1.0,
      1.0,
      1.0,
      1.0,
      1.0,
      1.0,
      1.0,
      1.0,
      1.0,
      1.0,
      1.0,
      1.0,
      1.0,
      1.0,
      1.0,
      1.0,
      1.0,
      1.0,
      1.0,
      1.0,
      1.0,
      1.0,
      1.0,
      1.0,
      1.0,
      1.0,
      1.0,
      1.0,
      1.0,
      1.0,
      1.0,
      1.0,
      1.0,
      1.0,
      1.0,
      1.0,
      1.0,
      1.0,
      1.0,
      1.0,
      1.0,
      1.0,
      1.0,
      1.0,
      1.0,
      1.0,
      1.0,
      1.0,
      1.0,
      1.0,
      1.0,
      1.0,
      1.0,
      1.0,
      1.0,
      1.0,
      1.0,
      1.0,
      1.0,
      1.0,
      1.0,
      1.0,
      1.0,
      1.0,
      1.0,
      1.0,
      1.0,
      1.0,
      1.0,
      1.0,
      1.0,
      1.0,
      1.0,
      1.0,
      1.0,
      1.0,
      1.0,
      1.0,
      1.0,
      1.0,
      1.0,
      1.0,
      1.0,
      1.0,
      1.0,
      1.0,
      1.0,
      1.0,
      1.0,
      1.0,
      1.0,
      1.0,
      1.0,
      1.0,
      1.0,
      1.0,
      1.0,
      1.0,
      1.0,
      1.0,
      1.0,
      1.0,
      1.0,
      1.0,
      1.0,
      1.0,
      1.0,
      1.0,
      1.0,
      1.0,
      1.0,
      1.0,
      1.0,
      1.0,
      1.0,
      1.0,
      1.0,
      1.0,
      1.0,
      1.0
    ],
    "knots": [
      -2.0,
      -1.0,
      0.0,
      1.0,
      2.0,
      3.0,
      4.0,
      5.0,
      6.0,
      7.0,
      8.0,
      9.0,
      10.0,
      11.0,
      12.0,
      13.0,
      14.0,
      15.0,
      16.0,
      17.0,
      18.0,
      19.0,
      20.0,
      21.0,
      22.0,
      23.0,
      24.0,
      25.0,
      26.0,
      27.0,
      28.0,
      29.0,
      30.0,
      31.0,
      32.0,
      33.0,
      34.0,
      35.0,
      36.0,
      37.0,
      38.0,
      39.0,
      40.0,
      41.0,
      42.0,
      43.0,
      44.0,
      45.0,
      46.0,
      47.0,
      48.0,
      49.0,
      50.0,
      51.0,
      52.0,
      53.0,
      54.0,
      55.0,
      56.0,
      57.0,
      58.0,
      59.0,
      60.0,
      61.0,
      62.0,
      63.0,
      64.0,
      65.0,
      66.0,
      67.0,
      68.0,
      69.0,
      70.0,
      71.0,
      72.0,
      73.0,
      74.0,
      75.0,
      76.0,
      77.0,
      78.0,
      79.0,
      80.0,
      81.0,
      82.0,
      83.0,
      84.0,
      85.0,
      86.0,
      87.0,
      88.0,
      89.0,
      90.0,
      91.0,
      92.0,
      93.0,
      94.0,
      95.0,
      96.0,
      97.0,
      98.0,
      99.0,
      100.0,
      101.0,
      102.0,
      103.0,
      104.0,
      105.0,
      106.0,
      107.0,
      108.0,
      109.0,
      110.0,
      111.0,
      112.0,
      113.0,
      114.0,
      115.0,
      116.0,
      117.0,
      118.0,
      119.0,
      120.0,
      121.0,
      122.0,
      123.0,
      124.0,
      125.0,
      126.0,
      127.0,
      128.0,
      129.0,
      130.0,
      131.0,
      132.0,
      133.0,
      134.0,
      135.0,
      136.0,
      137.0,
      138.0,
      139.0,
      140.0,
      141.0,
      142.0,
      143.0,
      144.0,
      145.0,
      146.0
    ]
  },
  "Character_baseshape08": {
    "degree": 3,
    "form": 2,
    "cv_positions": [
      [
        -0.4282974055551157,
        -0.008105524892607872,
        0.9193036283798937
      ],
      [
        -0.3654561309917174,
        -0.008105525003240202,
        0.958239051889822
      ],
      [
        -0.3435884747053286,
        -0.00810552466732022,
        0.9776375000219742
      ],
      [
        -0.3389636953983866,
        -0.008105525900367824,
        1.000074730607424
      ],
      [
        -0.3364501077736424,
        -0.008105524442032566,
        1.0497737557429059
      ],
      [
        -0.33683591779227356,
        -0.008105525904390818,
        1.1070231844843974
      ],
      [
        -0.3378060645764486,
        -0.008105524651228246,
        1.162917694314546
      ],
      [
        -0.3335398683109076,
        -0.008105525063585112,
        1.2092628953597158
      ],
      [
        -0.32942038009208985,
        -0.00810552466732022,
        1.2308005473006882
      ],
      [
        -0.28952255127759763,
        -0.008105525840022916,
        1.2398128623944902
      ],
      [
        -0.16010542464697342,
        -0.008105524683412194,
        1.2428679280641681
      ],
      [
        -7.827322067805237e-08,
        -0.008105524999217212,
        1.241849878495178
      ],
      [
        0.16010521814701462,
        -0.008105524892607872,
        1.242867814413257
      ],
      [
        0.28952249463819174,
        -0.008105525003240202,
        1.239813316998136
      ],
      [
        0.3294201756196926,
        -0.00810552466732022,
        1.2308004491598277
      ],
      [
        0.33353970365422086,
        -0.008105525900367824,
        1.2092628333195137
      ],
      [
        0.33780588848991056,
        -0.008105524442032566,
        1.1629180406162136
      ],
      [
        0.3368357476094302,
        -0.008105525904390818,
        1.1070234679407365
      ],
      [
        0.3364499254058716,
        -0.008105524651228246,
        1.0497738822386895
      ],
      [
        0.3389635558666317,
        -0.008105525063585112,
        1.0000747444793558
      ],
      [
        0.34358837684228766,
        -0.00810552466732022,
        0.977637719694166
      ],
      [
        0.365456024445656,
        -0.008105525840022916,
        0.9582389626405271
      ],
      [
        0.42829729207242273,
        -0.008105524683412194,
        0.9193037657048805
      ],
      [
        0.5055274498621217,
        -0.008105524999217212,
        0.8755991926291349
      ],
      [
        0.5819914250054296,
        -0.008105524892607872,
        0.8305683225792156
      ],
      [
        0.6471314414002376,
        -0.008105525003240202,
        0.7956136231906632
      ],
      [
        0.6748646005538113,
        -0.00810552466732022,
        0.7863752221594964
      ],
      [
        0.6966081844083767,
        -0.008105525900367824,
        0.7935884399927912
      ],
      [
        0.7409057394408954,
        -0.008105524442032566,
        0.8162610853853217
      ],
      [
        0.7902923603162907,
        -0.008105525904390818,
        0.8452202396851138
      ],
      [
        0.8382135903063203,
        -0.008105524651228246,
        0.8740074054241415
      ],
      [
        0.8804824333784071,
        -0.008105525063585112,
        0.8934855211198044
      ],
      [
        0.9011945123034512,
        -0.00810552466732022,
        0.9006866134734268
      ],
      [
        0.9289483172478518,
        -0.008105525840022916,
        0.8706405022527779
      ],
      [
        0.9963024708594448,
        -0.008105524683412194,
        0.7600892016454421
      ],
      [
        1.0754730017783027,
        -0.008105524999217212,
        0.6209249418495698
      ],
      [
        1.1564078254531447,
        -0.008105524892607872,
        0.4827786538356058
      ],
      [
        1.2184707074189254,
        -0.008105525003240202,
        0.36917263457074995
      ],
      [
        1.2306145852124406,
        -0.00810552466732022,
        0.3301139021340081
      ],
      [
        1.2140222682100663,
        -0.008105525900367824,
        0.3157776175401116
      ],
      [
        1.176019475976095,
        -0.008105524442032566,
        0.28891054165048563
      ],
      [
        1.1271280055520376,
        -0.008105525904390818,
        0.26180328638208916
      ],
      [
        1.0773558938569974,
        -0.008105524651228246,
        0.23351264718961043
      ],
      [
        1.035571747442388,
        -0.008105525063585112,
        0.20648623183209697
      ],
      [
        1.0184529380674137,
        -0.00810552466732022,
        0.1912625254611151
      ],
      [
        1.0125876335164672,
        -0.008105525840022916,
        0.16262528969907208
      ],
      [
        1.0102885049031598,
        -0.008105524683412194,
        0.08873540267505954
      ],
      [
        1.011055397447804,
        -0.008105524999217212,
        2.588515905181951e-11
      ],
      [
        1.0102885625043265,
        -0.008105524892607872,
        -0.08873540720220661
      ],
      [
        1.0125874031118,
        -0.008105525003240202,
        -0.16262529304120746
      ],
      [
        1.0184529987735094,
        -0.00810552466732022,
        -0.19126252896437893
      ],
      [
        1.035571735022672,
        -0.008105525900367824,
        -0.20648623587585863
      ],
      [
        1.077355882829767,
        -0.008105524442032566,
        -0.23351264891025267
      ],
      [
        1.1271280620806736,
        -0.008105525904390818,
        -0.2618032968547118
      ],
      [
        1.1760192608887807,
        -0.008105524651228246,
        -0.288910519438306
      ],
      [
        1.2140222687192836,
        -0.008105525063585112,
        -0.3157775164873086
      ],
      [
        1.2306147982628857,
        -0.00810552466732022,
        -0.33011394830064866
      ],
      [
        1.218470658019333,
        -0.008105525840022916,
        -0.3691725723559424
      ],
      [
        1.1564078100010668,
        -0.008105524683412194,
        -0.4827786770992963
      ],
      [
        1.0754731129862025,
        -0.008105524999217212,
        -0.620924932408567
      ],
      [
        0.9963024431356273,
        -0.008105524892607872,
        -0.7600892375447161
      ],
      [
        0.9289483169352224,
        -0.008105525003240202,
        -0.8706403894956403
      ],
      [
        0.9011945412777834,
        -0.00810552466732022,
        -0.9006866483459545
      ],
      [
        0.8804823177937044,
        -0.008105525900367824,
        -0.8934855157857857
      ],
      [
        0.8382136220150959,
        -0.008105524442032566,
        -0.8740074132866436
      ],
      [
        0.7902923490658917,
        -0.008105525904390818,
        -0.8452202349680791
      ],
      [
        0.7409057527337132,
        -0.008105524651228246,
        -0.816261117789911
      ],
      [
        0.6966081424875058,
        -0.008105525063585112,
        -0.7935883364904212
      ],
      [
        0.6748647549444783,
        -0.00810552466732022,
        -0.7863752235076408
      ],
      [
        0.6471312674141435,
        -0.008105525840022916,
        -0.79561374269941
      ],
      [
        0.5819915649034381,
        -0.008105524683412194,
        -0.8305682662507424
      ],
      [
        0.505527465911884,
        -0.008105524999217212,
        -0.8755993198332358
      ],
      [
        0.4282972888032156,
        -0.008105524892607872,
        -0.9193037362716071
      ],
      [
        0.36545602147272344,
        -0.008105525003240202,
        -0.9582389745684765
      ],
      [
        0.3435883920032258,
        -0.00810552466732022,
        -0.9776377228145983
      ],
      [
        0.3389634981958117,
        -0.008105525900367824,
        -1.000074741468632
      ],
      [
        0.3364499401003622,
        -0.008105524442032566,
        -1.0497739125601033
      ],
      [
        0.33683574650228715,
        -0.008105525904390818,
        -1.1070233710647543
      ],
      [
        0.33780587822399155,
        -0.008105524651228246,
        -1.1629180175419742
      ],
      [
        0.3335397458250399,
        -0.008105525063585112,
        -1.2092630438914036
      ],
      [
        0.3294202180301875,
        -0.00810552466732022,
        -1.230800454656863
      ],
      [
        0.28952248365324373,
        -0.008105525840022916,
        -1.2398131058370538
      ],
      [
        0.16010521967631194,
        -0.008105524683412194,
        -1.2428678716480905
      ],
      [
        -7.340546223086947e-08,
        -0.008105524999217212,
        -1.241849882115871
      ],
      [
        -0.16010544564730456,
        -0.008105524892607872,
        -1.2428678777455064
      ],
      [
        -0.28952257255795744,
        -0.008105525003240202,
        -1.2398130814473893
      ],
      [
        -0.3294203743842458,
        -0.00810552466732022,
        -1.2308005461181042
      ],
      [
        -0.33353986986192474,
        -0.008105525900367824,
        -1.2092627024361011
      ],
      [
        -0.3378060640802242,
        -0.008105524442032566,
        -1.162917685279135
      ],
      [
        -0.33683591822615405,
        -0.008105525904390818,
        -1.1070234349486034
      ],
      [
        -0.3364501065343449,
        -0.008105524651228246,
        -1.0497735876318444
      ],
      [
        -0.3389636999216974,
        -0.008105525063585112,
        -1.0000747723307137
      ],
      [
        -0.34358845785138264,
        -0.00810552466732022,
        -0.9776375226388306
      ],
      [
        -0.3654561938841891,
        -0.008105525840022916,
        -0.9582389410980606
      ],
      [
        -0.42829737166702603,
        -0.008105524683412194,
        -0.9193036686733365
      ],
      [
        -0.5055275995751558,
        -0.008105524999217212,
        -0.8755992220410304
      ],
      [
        -0.5819915849165204,
        -0.008105524892607872,
        -0.8305683233621325
      ],
      [
        -0.6471314904006725,
        -0.008105525003240202,
        -0.7956136120460554
      ],
      [
        -0.6748646813431114,
        -0.00810552466732022,
        -0.7863752873539651
      ],
      [
        -0.6966082489528702,
        -0.008105525900367824,
        -0.7935882117584795
      ],
      [
        -0.7409058371757532,
        -0.008105524442032566,
        -0.8162611512156513
      ],
      [
        -0.7902923415344962,
        -0.008105525904390818,
        -0.84522022599706
      ],
      [
        -0.8382136027450686,
        -0.008105524651228246,
        -0.8740074157449803
      ],
      [
        -0.8804824374516362,
        -0.008105525063585112,
        -0.8934855149234593
      ],
      [
        -0.9011945186182141,
        -0.00810552466732022,
        -0.9006866493369245
      ],
      [
        -0.9289483229619976,
        -0.008105525840022916,
        -0.8706403863940869
      ],
      [
        -0.9963024767345257,
        -0.008105524683412194,
        -0.7600892489599601
      ],
      [
        -1.075473007610262,
        -0.008105524999217212,
        -0.6209248898491437
      ],
      [
        -1.156407831296657,
        -0.008105524892607872,
        -0.48277883592174553
      ],
      [
        -1.2184707132593438,
        -0.008105525003240202,
        -0.36917278293697514
      ],
      [
        -1.2306145910536828,
        -0.00810552466732022,
        -0.33011415212117684
      ],
      [
        -1.2140222740511084,
        -0.008105525900367824,
        -0.31577769559127083
      ],
      [
        -1.1760194818171155,
        -0.008105524442032566,
        -0.2889106033411858
      ],
      [
        -1.1271280113933435,
        -0.008105525904390818,
        -0.2618033846227845
      ],
      [
        -1.0773558996971797,
        -0.008105524651228246,
        -0.2335128164186362
      ],
      [
        -1.035571753286779,
        -0.008105525063585112,
        -0.2064863817995827
      ],
      [
        -1.018452943896095,
        -0.00810552466732022,
        -0.19126268148642975
      ],
      [
        -1.012587639403779,
        -0.008105525840022916,
        -0.1626254407546115
      ],
      [
        -1.0102885105716597,
        -0.008105524683412194,
        -0.08873556755187101
      ],
      [
        -1.0110554039329196,
        -0.008105524999217212,
        -1.6479434697306806e-07
      ],
      [
        -1.010288565941792,
        -0.008105524892607872,
        0.08873524954574773
      ],
      [
        -1.0125874179232508,
        -0.008105525003240202,
        0.1626251131042579
      ],
      [
        -1.0184529711366694,
        -0.00810552466732022,
        0.1912623808304269
      ],
      [
        -1.03557186580501,
        -0.008105525900367824,
        0.20648608322433273
      ],
      [
        -1.077355824039385,
        -0.008105524442032566,
        0.23351248252602438
      ],
      [
        -1.127128201506293,
        -0.008105525904390818,
        0.26180308950494074
      ],
      [
        -1.1760196003345162,
        -0.008105524651228246,
        0.28891028885555714
      ],
      [
        -1.2140224131799573,
        -0.008105525063585112,
        0.31577741980201474
      ],
      [
        -1.230614719332289,
        -0.00810552466732022,
        0.330113740914215
      ],
      [
        -1.218470864327475,
        -0.008105525840022916,
        0.3691724730487621
      ],
      [
        -1.1564079020569313,
        -0.008105524683412194,
        0.48277845700409394
      ],
      [
        -1.0754733768124378,
        -0.008105524999217212,
        0.6209246857304963
      ],
      [
        -0.9963025357883576,
        -0.008105524892607872,
        0.7600892179861392
      ],
      [
        -0.9289485208558999,
        -0.008105525003240202,
        0.8706402913533628
      ],
      [
        -0.9011944713001785,
        -0.00810552466732022,
        0.900686637418986
      ],
      [
        -0.8804824288298756,
        -0.008105525900367824,
        0.8934852345812809
      ],
      [
        -0.8382136845501467,
        -0.008105524442032566,
        0.8740073226655714
      ],
      [
        -0.7902924245916477,
        -0.008105525904390818,
        0.8452200539465136
      ],
      [
        -0.7409058247977706,
        -0.008105524651228246,
        0.8162611077868857
      ],
      [
        -0.6966082154076491,
        -0.008105525063585112,
        0.7935881344694313
      ],
      [
        -0.6748648279019789,
        -0.00810552466732022,
        0.7863752168842647
      ],
      [
        -0.647131339366128,
        -0.008105525840022916,
        0.7956135481592481
      ],
      [
        -0.5819916408401288,
        -0.008105524683412194,
        0.8305682263244066
      ],
      [
        -0.5055275269152684,
        -0.008105524999217212,
        0.8755992510240836
      ],
      [
        -0.4282974055551157,
        -0.008105524892607872,
        0.9193036283798937
      ],
      [
        -0.3654561309917174,
        -0.008105525003240202,
        0.958239051889822
      ],
      [
        -0.3435884747053286,
        -0.00810552466732022,
        0.9776375000219742
      ]
    ],
    "cv_weights": [
      1.0,
      1.0,
      1.0,
      1.0,
      1.0,
      1.0,
      1.0,
      1.0,
      1.0,
      1.0,
      1.0,
      1.0,
      1.0,
      1.0,
      1.0,
      1.0,
      1.0,
      1.0,
      1.0,
      1.0,
      1.0,
      1.0,
      1.0,
      1.0,
      1.0,
      1.0,
      1.0,
      1.0,
      1.0,
      1.0,
      1.0,
      1.0,
      1.0,
      1.0,
      1.0,
      1.0,
      1.0,
      1.0,
      1.0,
      1.0,
      1.0,
      1.0,
      1.0,
      1.0,
      1.0,
      1.0,
      1.0,
      1.0,
      1.0,
      1.0,
      1.0,
      1.0,
      1.0,
      1.0,
      1.0,
      1.0,
      1.0,
      1.0,
      1.0,
      1.0,
      1.0,
      1.0,
      1.0,
      1.0,
      1.0,
      1.0,
      1.0,
      1.0,
      1.0,
      1.0,
      1.0,
      1.0,
      1.0,
      1.0,
      1.0,
      1.0,
      1.0,
      1.0,
      1.0,
      1.0,
      1.0,
      1.0,
      1.0,
      1.0,
      1.0,
      1.0,
      1.0,
      1.0,
      1.0,
      1.0,
      1.0,
      1.0,
      1.0,
      1.0,
      1.0,
      1.0,
      1.0,
      1.0,
      1.0,
      1.0,
      1.0,
      1.0,
      1.0,
      1.0,
      1.0,
      1.0,
      1.0,
      1.0,
      1.0,
      1.0,
      1.0,
      1.0,
      1.0,
      1.0,
      1.0,
      1.0,
      1.0,
      1.0,
      1.0,
      1.0,
      1.0,
      1.0,
      1.0,
      1.0,
      1.0,
      1.0,
      1.0,
      1.0,
      1.0,
      1.0,
      1.0,
      1.0,
      1.0,
      1.0,
      1.0,
      1.0,
      1.0,
      1.0,
      1.0,
      1.0,
      1.0,
      1.0,
      1.0,
      1.0,
      1.0,
      1.0,
      1.0
    ],
    "knots": [
      -2.0,
      -1.0,
      0.0,
      1.0,
      2.0,
      3.0,
      4.0,
      5.0,
      6.0,
      7.0,
      8.0,
      9.0,
      10.0,
      11.0,
      12.0,
      13.0,
      14.0,
      15.0,
      16.0,
      17.0,
      18.0,
      19.0,
      20.0,
      21.0,
      22.0,
      23.0,
      24.0,
      25.0,
      26.0,
      27.0,
      28.0,
      29.0,
      30.0,
      31.0,
      32.0,
      33.0,
      34.0,
      35.0,
      36.0,
      37.0,
      38.0,
      39.0,
      40.0,
      41.0,
      42.0,
      43.0,
      44.0,
      45.0,
      46.0,
      47.0,
      48.0,
      49.0,
      50.0,
      51.0,
      52.0,
      53.0,
      54.0,
      55.0,
      56.0,
      57.0,
      58.0,
      59.0,
      60.0,
      61.0,
      62.0,
      63.0,
      64.0,
      65.0,
      66.0,
      67.0,
      68.0,
      69.0,
      70.0,
      71.0,
      72.0,
      73.0,
      74.0,
      75.0,
      76.0,
      77.0,
      78.0,
      79.0,
      80.0,
      81.0,
      82.0,
      83.0,
      84.0,
      85.0,
      86.0,
      87.0,
      88.0,
      89.0,
      90.0,
      91.0,
      92.0,
      93.0,
      94.0,
      95.0,
      96.0,
      97.0,
      98.0,
      99.0,
      100.0,
      101.0,
      102.0,
      103.0,
      104.0,
      105.0,
      106.0,
      107.0,
      108.0,
      109.0,
      110.0,
      111.0,
      112.0,
      113.0,
      114.0,
      115.0,
      116.0,
      117.0,
      118.0,
      119.0,
      120.0,
      121.0,
      122.0,
      123.0,
      124.0,
      125.0,
      126.0,
      127.0,
      128.0,
      129.0,
      130.0,
      131.0,
      132.0,
      133.0,
      134.0,
      135.0,
      136.0,
      137.0,
      138.0,
      139.0,
      140.0,
      141.0,
      142.0,
      143.0,
      144.0,
      145.0,
      146.0
    ]
  },
  "Character_baseshape09": {
    "degree": 1,
    "form": 2,
    "cv_positions": [
      [
        -0.2723802635167293,
        -0.007494352566916547,
        1.123520825176118
      ],
      [
        -0.30894432907606734,
        -0.007494352566916547,
        1.123520825176118
      ],
      [
        -0.30894476894837003,
        -0.007494352566916558,
        1.140407559160658
      ],
      [
        -0.3040768407939738,
        -0.007494352566916558,
        1.140407559160658
      ],
      [
        -0.28419695652308247,
        -0.007494352566916567,
        1.1946693304006972
      ],
      [
        -0.2619854111866421,
        -0.007494352566916567,
        1.1946693304006972
      ],
      [
        -0.25240015331303417,
        -0.007494352566916566,
        1.1674891107900647
      ],
      [
        -0.24286578102587547,
        -0.007494352566916567,
        1.1946693304006972
      ],
      [
        -0.22095854698268472,
        -0.007494352566916567,
        1.1946693304006972
      ],
      [
        -0.2008761346444456,
        -0.007494352566916558,
        1.140407559160658
      ],
      [
        -0.19600716564020704,
        -0.007494352566916558,
        1.140407559160658
      ],
      [
        -0.19600648051498507,
        -0.007494352566916547,
        1.123520825176118
      ],
      [
        -0.22445697610201545,
        -0.007494352566916547,
        1.123520825176118
      ],
      [
        -0.224457599444875,
        -0.007494352566916558,
        1.140407559160658
      ],
      [
        -0.21938610492998517,
        -0.007494352566916558,
        1.140407559160658
      ],
      [
        -0.2278039746941361,
        -0.007494352566916566,
        1.1707845975309357
      ],
      [
        -0.23850469780202538,
        -0.007494352566916558,
        1.140407559160658
      ],
      [
        -0.23328156628487504,
        -0.007494352566916558,
        1.140407559160658
      ],
      [
        -0.23328096210395594,
        -0.007494352566916547,
        1.123520825176118
      ],
      [
        -0.2640132611694615,
        -0.007494352566916547,
        1.123520825176118
      ],
      [
        -0.26401379861291246,
        -0.007494352566916558,
        1.140407559160658
      ],
      [
        -0.2587896298070344,
        -0.007494352566916558,
        1.140407559160658
      ],
      [
        -0.2693387159126624,
        -0.007494352566916566,
        1.1707845975309357
      ],
      [
        -0.27765480281615357,
        -0.007494352566916558,
        1.140407559160658
      ],
      [
        -0.27238078279061373,
        -0.007494352566916558,
        1.140407559160658
      ],
      [
        -0.2723802635167293,
        -0.007494352566916547,
        1.123520825176118
      ]
    ],
    "cv_weights": [
      1.0,
      1.0,
      1.0,
      1.0,
      1.0,
      1.0,
      1.0,
      1.0,
      1.0,
      1.0,
      1.0,
      1.0,
      1.0,
      1.0,
      1.0,
      1.0,
      1.0,
      1.0,
      1.0,
      1.0,
      1.0,
      1.0,
      1.0,
      1.0,
      1.0,
      1.0
    ],
    "knots": [
      0.0,
      1.0,
      2.0,
      3.0,
      4.0,
      5.0,
      6.0,
      7.0,
      8.0,
      9.0,
      10.0,
      11.0,
      12.0,
      13.0,
      14.0,
      15.0,
      16.0,
      17.0,
      18.0,
      19.0,
      20.0,
      21.0,
      22.0,
      23.0,
      24.0,
      25.0
    ]
  },
  "Character_baseshape10": {
    "degree": 1,
    "form": 2,
    "cv_positions": [
      [
        -0.163555012177939,
        -0.007494352566916565,
        1.1434506662492767
      ],
      [
        -0.17091454940214437,
        -0.007494352566916563,
        1.1439169961978835
      ],
      [
        -0.1774753918378096,
        -0.007494352566916572,
        1.1453139173101279
      ],
      [
        -0.1832386030711219,
        -0.007494352566916563,
        1.1476445414521932
      ],
      [
        -0.18820207930522634,
        -0.007494352566916563,
        1.1509057509140155
      ],
      [
        -0.19219550649688658,
        -0.007494352566916568,
        1.1548451689652837
      ],
      [
        -0.19504750701667828,
        -0.007494352566916567,
        1.1592093728211368
      ],
      [
        -0.19675912107526816,
        -0.007494352566916568,
        1.1639994085361216
      ],
      [
        -0.1973303486726564,
        -0.007494352566916566,
        1.169213192766964
      ],
      [
        -0.19675289149902245,
        -0.007494352566916567,
        1.1746679304033867
      ],
      [
        -0.19502257702393727,
        -0.007494352566916565,
        1.1796220622731237
      ],
      [
        -0.19213837672449174,
        -0.007494352566916566,
        1.184074550356963
      ],
      [
        -0.18810030228844757,
        -0.007494352566916566,
        1.1880274692323596
      ],
      [
        -0.18302880777355818,
        -0.00749435256691657,
        1.1912886803377738
      ],
      [
        -0.17704438230085928,
        -0.007494352566916563,
        1.1936182649996563
      ],
      [
        -0.17014805439325803,
        -0.007494352566916565,
        1.1950151849248625
      ],
      [
        -0.1623377670049391,
        -0.007494352566916567,
        1.195481517338856
      ],
      [
        -0.15505404828186456,
        -0.007494352566916565,
        1.1950151849248625
      ],
      [
        -0.14851916436184878,
        -0.007494352566916563,
        1.1936182649996563
      ],
      [
        -0.14273103482355512,
        -0.00749435256691657,
        1.1912886803377738
      ],
      [
        -0.13769174008831975,
        -0.007494352566916566,
        1.1880274692323596
      ],
      [
        -0.13360899503237078,
        -0.007494352566916567,
        1.1840683178587779
      ],
      [
        -0.1306926066410319,
        -0.007494352566916564,
        1.179646989343925
      ],
      [
        -0.12894359174945053,
        -0.007494352566916565,
        1.1747624434771333
      ],
      [
        -0.1283599049995721,
        -0.007494352566916566,
        1.1694157182776157
      ],
      [
        -0.1289716306864337,
        -0.007494352566916565,
        1.1639069729617708
      ],
      [
        -0.13080685449806145,
        -0.007494352566916564,
        1.158943493805726
      ],
      [
        -0.13386552968341406,
        -0.007494352566916567,
        1.154525280809481
      ],
      [
        -0.13814769130577043,
        -0.007494352566916566,
        1.1506523339730348
      ],
      [
        -0.1434061315468176,
        -0.007494352566916565,
        1.1475012144475119
      ],
      [
        -0.14939366596375875,
        -0.007494352566916567,
        1.145250563805368
      ],
      [
        -0.15611031793211544,
        -0.007494352566916563,
        1.1439003820466025
      ],
      [
        -0.163555012177939,
        -0.007494352566916565,
        1.1434506662492767
      ]
    ],
    "cv_weights": [
      1.0,
      1.0,
      1.0,
      1.0,
      1.0,
      1.0,
      1.0,
      1.0,
      1.0,
      1.0,
      1.0,
      1.0,
      1.0,
      1.0,
      1.0,
      1.0,
      1.0,
      1.0,
      1.0,
      1.0,
      1.0,
      1.0,
      1.0,
      1.0,
      1.0,
      1.0,
      1.0,
      1.0,
      1.0,
      1.0,
      1.0,
      1.0,
      1.0
    ],
    "knots": [
      0.0,
      1.0,
      2.0,
      3.0,
      4.0,
      5.0,
      6.0,
      7.0,
      8.0,
      9.0,
      10.0,
      11.0,
      12.0,
      13.0,
      14.0,
      15.0,
      16.0,
      17.0,
      18.0,
      19.0,
      20.0,
      21.0,
      22.0,
      23.0,
      24.0,
      25.0,
      26.0,
      27.0,
      28.0,
      29.0,
      30.0,
      31.0,
      32.0
    ]
  },
  "Character_baseshape11": {
    "degree": 1,
    "form": 2,
    "cv_positions": [
      [
        -0.0677076169635537,
        -0.007494352566916566,
        1.1439575059751173
      ],
      [
        -0.07080473319256483,
        -0.007494352566916563,
        1.1440177446917548
      ],
      [
        -0.07350196439033171,
        -0.007494352566916565,
        1.1441984608416664
      ],
      [
        -0.07579935730789601,
        -0.007494352566916566,
        1.144499654424854
      ],
      [
        -0.07769791709264316,
        -0.00749435256691656,
        1.1449213254413164
      ],
      [
        -0.07946667261138825,
        -0.007494352566916569,
        1.1455714892498978
      ],
      [
        -0.08122294560212256,
        -0.007494352566916576,
        1.1465062324903865
      ],
      [
        -0.08296570754193767,
        -0.007494352566916563,
        1.147726589529568
      ],
      [
        -0.08469603370478346,
        -0.007494352566916566,
        1.149231526000657
      ],
      [
        -0.0863796088263902,
        -0.007494352566916566,
        1.1509846842032692
      ],
      [
        -0.08782741844702392,
        -0.007494352566916566,
        1.152895711906327
      ],
      [
        -0.0890415429880209,
        -0.007494352566916563,
        1.1549656463985587
      ],
      [
        -0.0900209539264741,
        -0.007494352566916571,
        1.157193450391237
      ],
      [
        -0.0900209539264741,
        -0.0074943525669165685,
        1.1448704310890474
      ],
      [
        -0.12055065782192084,
        -0.0074943525669165685,
        1.1448704310890474
      ],
      [
        -0.12055065782192084,
        -0.007494352566916565,
        1.1603383374185752
      ],
      [
        -0.11385686711273024,
        -0.007494352566916565,
        1.1603383374185752
      ],
      [
        -0.11385686711273024,
        -0.007494352566916567,
        1.1785948849192553
      ],
      [
        -0.12055065782192084,
        -0.007494352566916567,
        1.1785948849192553
      ],
      [
        -0.12055065782192084,
        -0.007494352566916568,
        1.1940617481161755
      ],
      [
        -0.08089267287128382,
        -0.007494352566916568,
        1.1940617481161755
      ],
      [
        -0.08089267287128382,
        -0.007494352566916567,
        1.1785948849192553
      ],
      [
        -0.08834775753602271,
        -0.007494352566916567,
        1.1785948849192553
      ],
      [
        -0.08823349799123262,
        -0.007494352566916566,
        1.1764709442085706
      ],
      [
        -0.0879416546162935,
        -0.007494352566916567,
        1.1745630312936355
      ],
      [
        -0.08747325593411238,
        -0.007494352566916566,
        1.1728701088857212
      ],
      [
        -0.08682619814783339,
        -0.007494352566916565,
        1.1713932186564657
      ],
      [
        -0.08595793780992793,
        -0.007494352566916566,
        1.1701385872601753
      ],
      [
        -0.08477289241658155,
        -0.007494352566916565,
        1.1690096270456465
      ],
      [
        -0.08327003344488808,
        -0.007494352566916566,
        1.1680084125903347
      ],
      [
        -0.08145038941775373,
        -0.007494352566916565,
        1.167133908066485
      ],
      [
        -0.0792984156139658,
        -0.007494352566916566,
        1.1664463551126714
      ],
      [
        -0.07664583166058311,
        -0.007494352566916566,
        1.165955095171324
      ],
      [
        -0.07349158565917698,
        -0.007494352566916566,
        1.165660134086322
      ],
      [
        -0.06983778140660257,
        -0.007494352566916565,
        1.1655614660137856
      ],
      [
        -0.0692291763517436,
        -0.007494352566916566,
        1.165564580801908
      ],
      [
        -0.06867143642975265,
        -0.007494352566916565,
        1.1655739310101565
      ],
      [
        -0.06816355649324406,
        -0.007494352566916566,
        1.1655905451614375
      ],
      [
        -0.0677076169635537,
        -0.007494352566916566,
        1.1656123574441146
      ],
      [
        -0.0677076169635537,
        -0.007494352566916566,
        1.1439575059751173
      ]
    ],
    "cv_weights": [
      1.0,
      1.0,
      1.0,
      1.0,
      1.0,
      1.0,
      1.0,
      1.0,
      1.0,
      1.0,
      1.0,
      1.0,
      1.0,
      1.0,
      1.0,
      1.0,
      1.0,
      1.0,
      1.0,
      1.0,
      1.0,
      1.0,
      1.0,
      1.0,
      1.0,
      1.0,
      1.0,
      1.0,
      1.0,
      1.0,
      1.0,
      1.0,
      1.0,
      1.0,
      1.0,
      1.0,
      1.0,
      1.0,
      1.0,
      1.0
    ],
    "knots": [
      0.0,
      1.0,
      2.0,
      3.0,
      4.0,
      5.0,
      6.0,
      7.0,
      8.0,
      9.0,
      10.0,
      11.0,
      12.0,
      13.0,
      14.0,
      15.0,
      16.0,
      17.0,
      18.0,
      19.0,
      20.0,
      21.0,
      22.0,
      23.0,
      24.0,
      25.0,
      26.0,
      27.0,
      28.0,
      29.0,
      30.0,
      31.0,
      32.0,
      33.0,
      34.0,
      35.0,
      36.0,
      37.0,
      38.0,
      39.0
    ]
  },
  "Character_baseshape12": {
    "degree": 1,
    "form": 2,
    "cv_positions": [
      [
        0.005011149879731153,
        -0.0074943525669165685,
        1.1448704310890474
      ],
      [
        -0.026431496661286077,
        -0.0074943525669165685,
        1.1448704310890474
      ],
      [
        -0.026431496661286077,
        -0.007494352566916566,
        1.1569909219586463
      ],
      [
        -0.01745485260835746,
        -0.007494352566916566,
        1.1569909219586463
      ],
      [
        -0.0334804784062957,
        -0.007494352566916565,
        1.1726613494159148
      ],
      [
        -0.013144663736776904,
        -0.007494352566916568,
        1.1940617481161755
      ],
      [
        0.005162786881992294,
        -0.007494352566916568,
        1.1940617481161755
      ],
      [
        0.005162786881992294,
        -0.007494352566916567,
        1.1785948849192553
      ],
      [
        0.00115690053784131,
        -0.007494352566916567,
        1.1785948849192553
      ],
      [
        -0.009949907958136025,
        -0.007494352566916566,
        1.1672346536384164
      ],
      [
        -0.0007198498861674516,
        -0.007494352566916566,
        1.1582081642097055
      ],
      [
        0.005011149879731153,
        -0.007494352566916566,
        1.1582081642097055
      ],
      [
        0.005011149879731153,
        -0.0074943525669165685,
        1.1448704310890474
      ]
    ],
    "cv_weights": [
      1.0,
      1.0,
      1.0,
      1.0,
      1.0,
      1.0,
      1.0,
      1.0,
      1.0,
      1.0,
      1.0,
      1.0,
      1.0
    ],
    "knots": [
      0.0,
      1.0,
      2.0,
      3.0,
      4.0,
      5.0,
      6.0,
      7.0,
      8.0,
      9.0,
      10.0,
      11.0,
      12.0
    ]
  },
  "Character_baseshape13": {
    "degree": 1,
    "form": 2,
    "cv_positions": [
      [
        -0.0334804784062957,
        -0.007494352566916548,
        1.1235209252800868
      ],
      [
        -0.06537825224965939,
        -0.007494352566916547,
        1.1235208413539102
      ],
      [
        -0.0653790644770036,
        -0.007494352566916567,
        1.1389877884770072
      ],
      [
        -0.058988547772335774,
        -0.007494352566916567,
        1.1389877884770072
      ],
      [
        -0.058988547772335774,
        -0.007494352566916567,
        1.1785948849192553
      ],
      [
        -0.0652772874602245,
        -0.007494352566916567,
        1.1785948849192553
      ],
      [
        -0.0652772874602245,
        -0.007494352566916568,
        1.1940617481161755
      ],
      [
        -0.0334804784062957,
        -0.007494352566916568,
        1.1940617481161755
      ],
      [
        -0.0334804784062957,
        -0.007494352566916548,
        1.1235209252800868
      ]
    ],
    "cv_weights": [
      1.0,
      1.0,
      1.0,
      1.0,
      1.0,
      1.0,
      1.0,
      1.0,
      1.0
    ],
    "knots": [
      0.0,
      1.0,
      2.0,
      3.0,
      4.0,
      5.0,
      6.0,
      7.0,
      8.0
    ]
  },
  "Character_baseshape14": {
    "degree": 1,
    "form": 2,
    "cv_positions": [
      [
        0.03552119629989576,
        -0.007494352566916563,
        1.143041856936804
      ],
      [
        0.03128485585242645,
        -0.007494352566916561,
        1.1432896851648993
      ],
      [
        0.02739799227173026,
        -0.007494352566916558,
        1.1440346566925548
      ],
      [
        0.02386162767987443,
        -0.007494352566916557,
        1.1452760322982072
      ],
      [
        0.020673740052770884,
        -0.007494352566916575,
        1.1470145512034173
      ],
      [
        0.018016044917913896,
        -0.007494352566916561,
        1.1491942299753866
      ],
      [
        0.016117519838383703,
        -0.007494352566916562,
        1.1517620714684143
      ],
      [
        0.014979209156292875,
        -0.007494352566916565,
        1.1547165846390117
      ],
      [
        0.014599113067596097,
        -0.0074943525669165624,
        1.1580585087087392
      ],
      [
        0.01475905295105438,
        -0.007494352566916561,
        1.1599836453567964
      ],
      [
        0.015237872699407363,
        -0.007494352566916565,
        1.1618214425575326
      ],
      [
        0.016036572214677223,
        -0.007494352566916562,
        1.1635733976546192
      ],
      [
        0.017154151594842248,
        -0.007494352566916562,
        1.1652387651263134
      ],
      [
        0.018497819932243618,
        -0.007494352566916562,
        1.1667899207669334
      ],
      [
        0.01997476409917851,
        -0.007494352566916561,
        1.1681634175259994
      ],
      [
        0.021583028731693054,
        -0.00749435256691656,
        1.1693600009252536
      ],
      [
        0.02332454697369613,
        -0.0074943525669165624,
        1.170378179921209
      ],
      [
        0.025524175882171127,
        -0.0074943525669165624,
        1.1714463718758303
      ],
      [
        0.028265796126755692,
        -0.007494352566916562,
        1.1726101124171975
      ],
      [
        0.03155042982951675,
        -0.007494352566916562,
        1.1738701470670552
      ],
      [
        0.035376077186410566,
        -0.007494352566916562,
        1.1752257303036595
      ],
      [
        0.038349696920185056,
        -0.007494352566916562,
        1.1762595841567836
      ],
      [
        0.04076357150194482,
        -0.007494352566916562,
        1.1771754975200859
      ],
      [
        0.0426166565895779,
        -0.007494352566916562,
        1.1779727227717591
      ],
      [
        0.04390897440312931,
        -0.007494352566916562,
        1.1786520064835793
      ],
      [
        0.04473138270634742,
        -0.007494352566916562,
        1.179252911709432
      ],
      [
        0.04531879181430898,
        -0.007494352566916562,
        1.1799277170406364
      ],
      [
        0.04567124616710345,
        -0.007494352566916562,
        1.1806749282836142
      ],
      [
        0.04578872354468674,
        -0.007494352566916561,
        1.1814945475384258
      ],
      [
        0.04545108996186535,
        -0.007494352566916562,
        1.1829300013545152
      ],
      [
        0.044439144675332734,
        -0.007494352566916562,
        1.1839548994964402
      ],
      [
        0.0427519100031108,
        -0.007494352566916563,
        1.1845699864359127
      ],
      [
        0.04038938594520099,
        -0.007494352566916562,
        1.1847752653230257
      ],
      [
        0.03695174501300199,
        -0.007494352566916562,
        1.1843602302182146
      ],
      [
        0.03411137888871624,
        -0.007494352566916561,
        1.1831166180473318
      ],
      [
        0.031866354428434766,
        -0.007494352566916562,
        1.1810436832886313
      ],
      [
        0.030218604776067106,
        -0.0074943525669165624,
        1.1781414248920834
      ],
      [
        0.015130261021776621,
        -0.0074943525669165624,
        1.1781414248920834
      ],
      [
        0.015130261021776621,
        -0.007494352566916563,
        1.1943972083542256
      ],
      [
        0.030218604776067106,
        -0.007494352566916563,
        1.1943972083542256
      ],
      [
        0.030218604776067106,
        -0.007494352566916562,
        1.1910806608996267
      ],
      [
        0.033914909251381006,
        -0.0074943525669165555,
        1.1928191798048373
      ],
      [
        0.037822504134003856,
        -0.007494352566916562,
        1.1940605522932117
      ],
      [
        0.041941367203889274,
        -0.007494352566916565,
        1.1948047786272569
      ],
      [
        0.046270520779061707,
        -0.007494352566916563,
        1.1950526052474937
      ],
      [
        0.050838584277399394,
        -0.0074943525669165624,
        1.1947726806348449
      ],
      [
        0.054995954685162024,
        -0.007494352566916562,
        1.1939329066656434
      ],
      [
        0.058744587366303336,
        -0.0074943525669165555,
        1.1925317904916621
      ],
      [
        0.062082526956868826,
        -0.00749435256691656,
        1.1905708248298745
      ],
      [
        0.0648241472014535,
        -0.007494352566916562,
        1.1882425982253957
      ],
      [
        0.0667828886027634,
        -0.007494352566916562,
        1.1856680381114155
      ],
      [
        0.06795772903873107,
        -0.00749435256691656,
        1.1828478900096762
      ],
      [
        0.06834966841138017,
        -0.0074943525669165624,
        1.1797814089234504
      ],
      [
        0.06818379577592384,
        -0.007494352566916562,
        1.1777405715008933
      ],
      [
        0.0676862223096434,
        -0.007494352566916562,
        1.1757721410401394
      ],
      [
        0.06685790347447135,
        -0.007494352566916562,
        1.1738768651629932
      ],
      [
        0.06569788380847648,
        -0.007494352566916562,
        1.172054742819426
      ],
      [
        0.06508183306259127,
        -0.007494352566916561,
        1.171258263089496
      ],
      [
        0.06439074522495217,
        -0.007494352566916562,
        1.1704737285079552
      ],
      [
        0.06362364261358247,
        -0.0074943525669165624,
        1.1697003893529374
      ],
      [
        0.06278150291046042,
        -0.007494352566916559,
        1.1689382477245047
      ],
      [
        0.061906788621460165,
        -0.00749435256691656,
        1.1682238782893828
      ],
      [
        0.06103996244841234,
        -0.007494352566916562,
        1.1675946096362897
      ],
      [
        0.06018302419536241,
        -0.007494352566916562,
        1.1670489444215535
      ],
      [
        0.05933497396028646,
        -0.007494352566916563,
        1.166587628166918
      ],
      [
        0.05726171044736988,
        -0.00749435256691656,
        1.1656052783159463
      ],
      [
        0.05437001601927889,
        -0.0074943525669165624,
        1.1643728657717078
      ],
      [
        0.05065791309201473,
        -0.007494352566916563,
        1.16289038423402
      ],
      [
        0.046126379347553516,
        -0.007494352566916562,
        1.1611563426593938
      ],
      [
        0.042815103810912525,
        -0.007494352566916564,
        1.1599104918232188
      ],
      [
        0.04025708779764447,
        -0.007494352566916563,
        1.1589057490191395
      ],
      [
        0.03845237574783995,
        -0.007494352566916562,
        1.1581428597689005
      ],
      [
        0.037400945441453025,
        -0.007494352566916563,
        1.157621082750882
      ],
      [
        0.03678982754554399,
        -0.0074943525669165555,
        1.1571903685887799
      ],
      [
        0.03635247040104399,
        -0.007494352566916562,
        1.1566641100400537
      ],
      [
        0.0360908515919523,
        -0.007494352566916558,
        1.1560423029045805
      ],
      [
        0.03600297131422563,
        -0.007494352566916565,
        1.1553249513824844
      ],
      [
        0.036310030115213825,
        -0.007494352566916572,
        1.1539372729097985
      ],
      [
        0.037232117540019795,
        -0.007494352566916563,
        1.152946711819341
      ],
      [
        0.03876930024878008,
        -0.007494352566916565,
        1.1523517770676215
      ],
      [
        0.04092053389938192,
        -0.007494352566916563,
        1.1521539638982512
      ],
      [
        0.04414988413033954,
        -0.007494352566916556,
        1.1525271993839448
      ],
      [
        0.046849064089093326,
        -0.007494352566916558,
        1.1536483926843908
      ],
      [
        0.04901905145762162,
        -0.007494352566916565,
        1.1555160485559774
      ],
      [
        0.05065791309201473,
        -0.00749435256691656,
        1.1581316622423168
      ],
      [
        0.06564951077064825,
        -0.00749435256691656,
        1.1581316622423168
      ],
      [
        0.06564951077064825,
        -0.007494352566916548,
        1.1436980000737114
      ],
      [
        0.05046539862267807,
        -0.007494352566916548,
        1.1436980000737114
      ],
      [
        0.05046539862267807,
        -0.007494352566916565,
        1.1468324128912166
      ],
      [
        0.0472350707097432,
        -0.007494352566916563,
        1.1451737677155835
      ],
      [
        0.04366808689596438,
        -0.007494352566916556,
        1.1439891189644125
      ],
      [
        0.03976346949936329,
        -0.007494352566916561,
        1.1432784876383157
      ],
      [
        0.03552119629989576,
        -0.007494352566916563,
        1.143041856936804
      ]
    ],
    "cv_weights": [
      1.0,
      1.0,
      1.0,
      1.0,
      1.0,
      1.0,
      1.0,
      1.0,
      1.0,
      1.0,
      1.0,
      1.0,
      1.0,
      1.0,
      1.0,
      1.0,
      1.0,
      1.0,
      1.0,
      1.0,
      1.0,
      1.0,
      1.0,
      1.0,
      1.0,
      1.0,
      1.0,
      1.0,
      1.0,
      1.0,
      1.0,
      1.0,
      1.0,
      1.0,
      1.0,
      1.0,
      1.0,
      1.0,
      1.0,
      1.0,
      1.0,
      1.0,
      1.0,
      1.0,
      1.0,
      1.0,
      1.0,
      1.0,
      1.0,
      1.0,
      1.0,
      1.0,
      1.0,
      1.0,
      1.0,
      1.0,
      1.0,
      1.0,
      1.0,
      1.0,
      1.0,
      1.0,
      1.0,
      1.0,
      1.0,
      1.0,
      1.0,
      1.0,
      1.0,
      1.0,
      1.0,
      1.0,
      1.0,
      1.0,
      1.0,
      1.0,
      1.0,
      1.0,
      1.0,
      1.0,
      1.0,
      1.0,
      1.0,
      1.0,
      1.0,
      1.0,
      1.0,
      1.0,
      1.0,
      1.0,
      1.0,
      1.0,
      1.0
    ],
    "knots": [
      0.0,
      1.0,
      2.0,
      3.0,
      4.0,
      5.0,
      6.0,
      7.0,
      8.0,
      9.0,
      10.0,
      11.0,
      12.0,
      13.0,
      14.0,
      15.0,
      16.0,
      17.0,
      18.0,
      19.0,
      20.0,
      21.0,
      22.0,
      23.0,
      24.0,
      25.0,
      26.0,
      27.0,
      28.0,
      29.0,
      30.0,
      31.0,
      32.0,
      33.0,
      34.0,
      35.0,
      36.0,
      37.0,
      38.0,
      39.0,
      40.0,
      41.0,
      42.0,
      43.0,
      44.0,
      45.0,
      46.0,
      47.0,
      48.0,
      49.0,
      50.0,
      51.0,
      52.0,
      53.0,
      54.0,
      55.0,
      56.0,
      57.0,
      58.0,
      59.0,
      60.0,
      61.0,
      62.0,
      63.0,
      64.0,
      65.0,
      66.0,
      67.0,
      68.0,
      69.0,
      70.0,
      71.0,
      72.0,
      73.0,
      74.0,
      75.0,
      76.0,
      77.0,
      78.0,
      79.0,
      80.0,
      81.0,
      82.0,
      83.0,
      84.0,
      85.0,
      86.0,
      87.0,
      88.0,
      89.0,
      90.0,
      91.0,
      92.0
    ]
  },
  "Character_baseshape15": {
    "degree": 1,
    "form": 2,
    "cv_positions": [
      [
        0.10875713351157705,
        -0.007494352566916548,
        1.1235209252800868
      ],
      [
        0.0768086640798656,
        -0.007494352566916548,
        1.1235209252800868
      ],
      [
        0.0768086640798656,
        -0.007494352566916567,
        1.1389877884770072
      ],
      [
        0.08324906414553701,
        -0.007494352566916567,
        1.1389877884770072
      ],
      [
        0.08324906414553701,
        -0.007494352566916567,
        1.1785948849192553
      ],
      [
        0.0768086640798656,
        -0.007494352566916567,
        1.1785948849192553
      ],
      [
        0.0768086640798656,
        -0.007494352566916568,
        1.1940617481161755
      ],
      [
        0.11565445487880463,
        -0.007494352566916568,
        1.1940617481161755
      ],
      [
        0.11565445487880463,
        -0.007494352566916567,
        1.1785948849192553
      ],
      [
        0.10875713351157705,
        -0.007494352566916567,
        1.1785948849192553
      ],
      [
        0.10875713351157705,
        -0.007494352566916565,
        1.1626710361380959
      ],
      [
        0.11069720822094445,
        -0.007494352566916566,
        1.1615389596744745
      ],
      [
        0.11261138285346685,
        -0.007494352566916567,
        1.160730926365446
      ],
      [
        0.11450059242996598,
        -0.007494352566916568,
        1.1602458989222841
      ],
      [
        0.1163648837014846,
        -0.007494352566916563,
        1.1600849175556545
      ],
      [
        0.11798719158354533,
        -0.007494352566916567,
        1.1602303220597303
      ],
      [
        0.11930617871004293,
        -0.00749435256691657,
        1.1606675757826264
      ],
      [
        0.12031988153724568,
        -0.007494352566916566,
        1.1613966699585212
      ],
      [
        0.12103026360888412,
        -0.007494352566916566,
        1.1624176162751754
      ],
      [
        0.12149557672234333,
        -0.007494352566916565,
        1.1640118735324922
      ],
      [
        0.12182895839742373,
        -0.007494352566916566,
        1.1664619348971645
      ],
      [
        0.1220283983393525,
        -0.007494352566916566,
        1.1697678047521023
      ],
      [
        0.12209483156895505,
        -0.007494352566916565,
        1.1739294845582744
      ],
      [
        0.12209483156895505,
        -0.007494352566916568,
        1.1940617481161755
      ],
      [
        0.153384835960324,
        -0.007494352566916568,
        1.1940617481161755
      ],
      [
        0.153384835960324,
        -0.007494352566916567,
        1.1785948849192553
      ],
      [
        0.14760392945790235,
        -0.007494352566916567,
        1.1785948849192553
      ],
      [
        0.14760392945790235,
        -0.007494352566916567,
        1.1668804911255046
      ],
      [
        0.14728616263059527,
        -0.007494352566916567,
        1.1609500718712578
      ],
      [
        0.14633580746427322,
        -0.007494352566916564,
        1.1559897075033356
      ],
      [
        0.1447509004152038,
        -0.007494352566916566,
        1.151999400943678
      ],
      [
        0.1425324700062933,
        -0.007494352566916563,
        1.1489781061377367
      ],
      [
        0.1397718677721264,
        -0.0074943525669165685,
        1.1467814617140446
      ],
      [
        0.13656049199832457,
        -0.007494352566916569,
        1.145213174660136
      ],
      [
        0.13290044648174576,
        -0.007494352566916562,
        1.1442711587107948
      ],
      [
        0.12878864565366607,
        -0.007494352566916566,
        1.1439575059751173
      ],
      [
        0.12384799561544613,
        -0.007494352566916563,
        1.1443854065678243
      ],
      [
        0.11886166980993527,
        -0.007494352566916563,
        1.1456691200337072
      ],
      [
        0.1138317252829481,
        -0.007494352566916569,
        1.1478086405288848
      ],
      [
        0.10875713351157705,
        -0.007494352566916567,
        1.1508039680533566
      ],
      [
        0.10875713351157705,
        -0.007494352566916548,
        1.1235209252800868
      ]
    ],
    "cv_weights": [
      1.0,
      1.0,
      1.0,
      1.0,
      1.0,
      1.0,
      1.0,
      1.0,
      1.0,
      1.0,
      1.0,
      1.0,
      1.0,
      1.0,
      1.0,
      1.0,
      1.0,
      1.0,
      1.0,
      1.0,
      1.0,
      1.0,
      1.0,
      1.0,
      1.0,
      1.0,
      1.0,
      1.0,
      1.0,
      1.0,
      1.0,
      1.0,
      1.0,
      1.0,
      1.0,
      1.0,
      1.0,
      1.0,
      1.0,
      1.0,
      1.0
    ],
    "knots": [
      0.0,
      1.0,
      2.0,
      3.0,
      4.0,
      5.0,
      6.0,
      7.0,
      8.0,
      9.0,
      10.0,
      11.0,
      12.0,
      13.0,
      14.0,
      15.0,
      16.0,
      17.0,
      18.0,
      19.0,
      20.0,
      21.0,
      22.0,
      23.0,
      24.0,
      25.0,
      26.0,
      27.0,
      28.0,
      29.0,
      30.0,
      31.0,
      32.0,
      33.0,
      34.0,
      35.0,
      36.0,
      37.0,
      38.0,
      39.0,
      40.0
    ]
  },
  "Character_baseshape16": {
    "degree": 1,
    "form": 2,
    "cv_positions": [
      [
        0.19476273327937085,
        -0.007494352566916565,
        1.1434506662492767
      ],
      [
        0.18740318436740558,
        -0.007494352566916563,
        1.1439169961978835
      ],
      [
        0.1808423302439802,
        -0.007494352566916572,
        1.1453139173101279
      ],
      [
        0.17507914238618852,
        -0.007494352566916563,
        1.1476445414521932
      ],
      [
        0.17011563108880287,
        -0.007494352566916563,
        1.1509057509140155
      ],
      [
        0.16612220389714297,
        -0.007494352566916568,
        1.1548451689652837
      ],
      [
        0.16327020337735135,
        -0.007494352566916567,
        1.1592093728211368
      ],
      [
        0.16155860100652153,
        -0.007494352566916568,
        1.1639994085361216
      ],
      [
        0.16098739678465343,
        -0.007494352566916566,
        1.169213192766964
      ],
      [
        0.1615648188950061,
        -0.007494352566916567,
        1.1746679304033867
      ],
      [
        0.16329516843337336,
        -0.007494352566916565,
        1.1796220622731237
      ],
      [
        0.166179333669538,
        -0.007494352566916566,
        1.184074550356963
      ],
      [
        0.17021745485662243,
        -0.007494352566916566,
        1.1880274692323596
      ],
      [
        0.17528891430823115,
        -0.00749435256691657,
        1.1912886803377738
      ],
      [
        0.18127337484421124,
        -0.007494352566916563,
        1.1936182649996563
      ],
      [
        0.18816966768853163,
        -0.007494352566916565,
        1.1950151849248625
      ],
      [
        0.19597994338908983,
        -0.007494352566916567,
        1.195481517338856
      ],
      [
        0.2032636621121646,
        -0.007494352566916565,
        1.1950151849248625
      ],
      [
        0.2097985694077009,
        -0.007494352566916563,
        1.1936182649996563
      ],
      [
        0.21558667557047428,
        -0.00749435256691657,
        1.1912886803377738
      ],
      [
        0.2206259703057089,
        -0.007494352566916566,
        1.1880274692323596
      ],
      [
        0.2247087387371781,
        -0.007494352566916567,
        1.1840683178587779
      ],
      [
        0.22762511544075778,
        -0.007494352566916564,
        1.179646989343925
      ],
      [
        0.22937411864457874,
        -0.007494352566916565,
        1.1747624434771333
      ],
      [
        0.22995785214549858,
        -0.007494352566916566,
        1.1694157182776157
      ],
      [
        0.22934611477087694,
        -0.007494352566916565,
        1.1639069729617708
      ],
      [
        0.22751090264700882,
        -0.007494352566916564,
        1.158943493805726
      ],
      [
        0.22445221577389649,
        -0.007494352566916567,
        1.154525280809481
      ],
      [
        0.220170054151539,
        -0.007494352566916566,
        1.1506523339730348
      ],
      [
        0.21491159053497144,
        -0.007494352566916565,
        1.1475012144475119
      ],
      [
        0.20892404443026982,
        -0.007494352566916567,
        1.145250563805368
      ],
      [
        0.20220741583743315,
        -0.007494352566916563,
        1.1439003820466025
      ],
      [
        0.19476273327937085,
        -0.007494352566916565,
        1.1434506662492767
      ]
    ],
    "cv_weights": [
      1.0,
      1.0,
      1.0,
      1.0,
      1.0,
      1.0,
      1.0,
      1.0,
      1.0,
      1.0,
      1.0,
      1.0,
      1.0,
      1.0,
      1.0,
      1.0,
      1.0,
      1.0,
      1.0,
      1.0,
      1.0,
      1.0,
      1.0,
      1.0,
      1.0,
      1.0,
      1.0,
      1.0,
      1.0,
      1.0,
      1.0,
      1.0,
      1.0
    ],
    "knots": [
      0.0,
      1.0,
      2.0,
      3.0,
      4.0,
      5.0,
      6.0,
      7.0,
      8.0,
      9.0,
      10.0,
      11.0,
      12.0,
      13.0,
      14.0,
      15.0,
      16.0,
      17.0,
      18.0,
      19.0,
      20.0,
      21.0,
      22.0,
      23.0,
      24.0,
      25.0,
      26.0,
      27.0,
      28.0,
      29.0,
      30.0,
      31.0,
      32.0
    ]
  },
  "Character_baseshape17": {
    "degree": 1,
    "form": 2,
    "cv_positions": [
      [
        0.2863508281305661,
        -0.007494352566916566,
        1.1439575059751173
      ],
      [
        0.28209358481318925,
        -0.007494352566916567,
        1.1442213045691927
      ],
      [
        0.2778934712682073,
        -0.007494352566916565,
        1.1450096030949373
      ],
      [
        0.27375151601853037,
        -0.007494352566916565,
        1.1463255163404742
      ],
      [
        0.2696656620183375,
        -0.007494352566916567,
        1.1481669551186466
      ],
      [
        0.2696656620183375,
        -0.0074943525669165685,
        1.1448704310890474
      ],
      [
        0.23822404400022715,
        -0.0074943525669165685,
        1.1448704310890474
      ],
      [
        0.23822404400022715,
        -0.007494352566916565,
        1.1603383374185752
      ],
      [
        0.24415759265229717,
        -0.007494352566916565,
        1.1603383374185752
      ],
      [
        0.24415759265229717,
        -0.007494352566916567,
        1.2011605942295773
      ],
      [
        0.23812226698344793,
        -0.007494352566916567,
        1.2011605942295773
      ],
      [
        0.23812226698344793,
        -0.007494352566916563,
        1.2166284961761953
      ],
      [
        0.27615690384135644,
        -0.007494352566916563,
        1.2166284961761953
      ],
      [
        0.27615690384135644,
        -0.007494352566916567,
        1.2011605942295773
      ],
      [
        0.2696656620183375,
        -0.007494352566916567,
        1.2011605942295773
      ],
      [
        0.2696656620183375,
        -0.007494352566916561,
        1.1909178994732923
      ],
      [
        0.2730764309830266,
        -0.007494352566916562,
        1.1926928704151347
      ],
      [
        0.2768164207801265,
        -0.007494352566916563,
        1.193961003708454
      ],
      [
        0.28088567816067767,
        -0.007494352566916563,
        1.1947202218766815
      ],
      [
        0.28528518489654486,
        -0.007494352566916568,
        1.194973640780841
      ],
      [
        0.2911585182074975,
        -0.007494352566916565,
        1.194548852510869
      ],
      [
        0.2964553644289253,
        -0.007494352566916569,
        1.193276564835106
      ],
      [
        0.3011747885399985,
        -0.007494352566916563,
        1.1911526234852479
      ],
      [
        0.3053166970386361,
        -0.007494352566916565,
        1.1881791058693785
      ],
      [
        0.30866725066220674,
        -0.007494352566916566,
        1.184499337622518
      ],
      [
        0.3110602027080649,
        -0.007494352566916566,
        1.1802047175781547
      ],
      [
        0.31249555317620964,
        -0.007494352566916566,
        1.1752952461015331
      ],
      [
        0.3129743305895449,
        -0.007494352566916566,
        1.169770921001195
      ],
      [
        0.3124862029679602,
        -0.007494352566916565,
        1.164265290473473
      ],
      [
        0.31102177335216513,
        -0.007494352566916564,
        1.1593111556817963
      ],
      [
        0.30858207026506906,
        -0.007494352566916563,
        1.1549085224700435
      ],
      [
        0.3051650834118946,
        -0.007494352566916564,
        1.151057387916277
      ],
      [
        0.30104080005580386,
        -0.007494352566916564,
        1.1479519646116252
      ],
      [
        0.29653119461781535,
        -0.007494352566916558,
        1.1457324735384669
      ],
      [
        0.2916341633010721,
        -0.007494352566916566,
        1.144402020719105
      ],
      [
        0.2863508281305661,
        -0.007494352566916566,
        1.1439575059751173
      ]
    ],
    "cv_weights": [
      1.0,
      1.0,
      1.0,
      1.0,
      1.0,
      1.0,
      1.0,
      1.0,
      1.0,
      1.0,
      1.0,
      1.0,
      1.0,
      1.0,
      1.0,
      1.0,
      1.0,
      1.0,
      1.0,
      1.0,
      1.0,
      1.0,
      1.0,
      1.0,
      1.0,
      1.0,
      1.0,
      1.0,
      1.0,
      1.0,
      1.0,
      1.0,
      1.0,
      1.0,
      1.0,
      1.0
    ],
    "knots": [
      0.0,
      1.0,
      2.0,
      3.0,
      4.0,
      5.0,
      6.0,
      7.0,
      8.0,
      9.0,
      10.0,
      11.0,
      12.0,
      13.0,
      14.0,
      15.0,
      16.0,
      17.0,
      18.0,
      19.0,
      20.0,
      21.0,
      22.0,
      23.0,
      24.0,
      25.0,
      26.0,
      27.0,
      28.0,
      29.0,
      30.0,
      31.0,
      32.0,
      33.0,
      34.0,
      35.0
    ]
  },
  "Character_baseshape18": {
    "degree": 1,
    "form": 2,
    "cv_positions": [
      [
        -0.16264309805527663,
        -0.007494352566916565,
        1.1578602604924402
      ],
      [
        -0.1607385190739695,
        -0.007494352566916567,
        1.1580462741197126
      ],
      [
        -0.15906026188330463,
        -0.007494352566916566,
        1.1586053493683186
      ],
      [
        -0.15761039521685594,
        -0.007494352566916565,
        1.1595354204266226
      ],
      [
        -0.15638579844262104,
        -0.007494352566916566,
        1.160837512895593
      ],
      [
        -0.15543713800154396,
        -0.007494352566916566,
        1.1624775335784043
      ],
      [
        -0.154759212840286,
        -0.007494352566916567,
        1.1644203432236844
      ],
      [
        -0.15435205802212879,
        -0.007494352566916565,
        1.1666659418314347
      ],
      [
        -0.15421667869445857,
        -0.007494352566916565,
        1.1692143294016553
      ],
      [
        -0.15477162524173588,
        -0.007494352566916565,
        1.1743793084673828
      ],
      [
        -0.1564364415080443,
        -0.007494352566916566,
        1.178069612134435
      ],
      [
        -0.15921217939181304,
        -0.007494352566916566,
        1.180283174591176
      ],
      [
        -0.16309779868237453,
        -0.007494352566916566,
        1.1810210272824522
      ],
      [
        -0.16676226217235077,
        -0.007494352566916566,
        1.18028937494802
      ],
      [
        -0.16937988803464715,
        -0.007494352566916565,
        1.178094413561813
      ],
      [
        -0.17095067626926227,
        -0.007494352566916565,
        1.1744361445848004
      ],
      [
        -0.1714735749777691,
        -0.007494352566916566,
        1.1693145694779528
      ],
      [
        -0.17132269767992758,
        -0.007494352566916567,
        1.1666814427235461
      ],
      [
        -0.17086799705283015,
        -0.007494352566916567,
        1.1643821067158309
      ],
      [
        -0.17011154183004978,
        -0.007494352566916565,
        1.1624175958215948
      ],
      [
        -0.1690512632780123,
        -0.007494352566916566,
        1.16078687567405
      ],
      [
        -0.16774297045219838,
        -0.007494352566916565,
        1.1595064844540361
      ],
      [
        -0.16623832325317667,
        -0.007494352566916566,
        1.1585919142878425
      ],
      [
        -0.16453837357937695,
        -0.007494352566916566,
        1.1580431768632307
      ],
      [
        -0.16264309805527663,
        -0.007494352566916565,
        1.1578602604924402
      ]
    ],
    "cv_weights": [
      1.0,
      1.0,
      1.0,
      1.0,
      1.0,
      1.0,
      1.0,
      1.0,
      1.0,
      1.0,
      1.0,
      1.0,
      1.0,
      1.0,
      1.0,
      1.0,
      1.0,
      1.0,
      1.0,
      1.0,
      1.0,
      1.0,
      1.0,
      1.0,
      1.0
    ],
    "knots": [
      0.0,
      1.0,
      2.0,
      3.0,
      4.0,
      5.0,
      6.0,
      7.0,
      8.0,
      9.0,
      10.0,
      11.0,
      12.0,
      13.0,
      14.0,
      15.0,
      16.0,
      17.0,
      18.0,
      19.0,
      20.0,
      21.0,
      22.0,
      23.0,
      24.0
    ]
  },
  "Character_baseshape19": {
    "degree": 1,
    "form": 2,
    "cv_positions": [
      [
        0.19567465908979362,
        -0.007494352566916565,
        1.1578602604924402
      ],
      [
        0.19757920300781948,
        -0.007494352566916567,
        1.1580462741197126
      ],
      [
        0.19925747188624607,
        -0.007494352566916566,
        1.1586053493683186
      ],
      [
        0.20070731517717286,
        -0.007494352566916565,
        1.1595354204266226
      ],
      [
        0.20193191195140692,
        -0.007494352566916566,
        1.160837512895593
      ],
      [
        0.20288058408024587,
        -0.007494352566916566,
        1.1624775335784043
      ],
      [
        0.20355852092926335,
        -0.007494352566916567,
        1.1644203432236844
      ],
      [
        0.20396567574742072,
        -0.007494352566916565,
        1.1666659418314347
      ],
      [
        0.2041010667628502,
        -0.007494352566916565,
        1.1692143294016553
      ],
      [
        0.20354613190333473,
        -0.007494352566916565,
        1.1743793084673828
      ],
      [
        0.2018812805737457,
        -0.007494352566916566,
        1.178069612134435
      ],
      [
        0.1991055310022156,
        -0.007494352566916566,
        1.180283174591176
      ],
      [
        0.19521991171165443,
        -0.007494352566916566,
        1.1810210272824522
      ],
      [
        0.19155547159719846,
        -0.007494352566916566,
        1.18028937494802
      ],
      [
        0.18893783404714218,
        -0.007494352566916565,
        1.178094413561813
      ],
      [
        0.18736704581252664,
        -0.007494352566916565,
        1.1744361445848004
      ],
      [
        0.18684413541626055,
        -0.007494352566916566,
        1.1693145694779528
      ],
      [
        0.18699504777738243,
        -0.007494352566916567,
        1.1666814427235461
      ],
      [
        0.18744974840448067,
        -0.007494352566916567,
        1.1643821067158309
      ],
      [
        0.18820618025173935,
        -0.007494352566916565,
        1.1624175958215948
      ],
      [
        0.18926644711601662,
        -0.007494352566916566,
        1.16078687567405
      ],
      [
        0.19057477500511152,
        -0.007494352566916565,
        1.1595064844540361
      ],
      [
        0.1920794105163728,
        -0.007494352566916566,
        1.1585919142878425
      ],
      [
        0.19377937187793398,
        -0.007494352566916566,
        1.1580431768632307
      ],
      [
        0.19567465908979362,
        -0.007494352566916565,
        1.1578602604924402
      ]
    ],
    "cv_weights": [
      1.0,
      1.0,
      1.0,
      1.0,
      1.0,
      1.0,
      1.0,
      1.0,
      1.0,
      1.0,
      1.0,
      1.0,
      1.0,
      1.0,
      1.0,
      1.0,
      1.0,
      1.0,
      1.0,
      1.0,
      1.0,
      1.0,
      1.0,
      1.0,
      1.0
    ],
    "knots": [
      0.0,
      1.0,
      2.0,
      3.0,
      4.0,
      5.0,
      6.0,
      7.0,
      8.0,
      9.0,
      10.0,
      11.0,
      12.0,
      13.0,
      14.0,
      15.0,
      16.0,
      17.0,
      18.0,
      19.0,
      20.0,
      21.0,
      22.0,
      23.0,
      24.0
    ]
  },
  "Character_baseshape20": {
    "degree": 1,
    "form": 2,
    "cv_positions": [
      [
        0.2783367178902016,
        -0.007494352566916567,
        1.1586180101346746
      ],
      [
        0.28195674451548025,
        -0.007494352566916566,
        1.1592897232513273
      ],
      [
        0.28454338612519375,
        -0.007494352566916568,
        1.1613048713671066
      ],
      [
        0.2860945389224878,
        -0.007494352566916563,
        1.164663451560072
      ],
      [
        0.2866112314302704,
        -0.007494352566916566,
        1.1693654638302227
      ],
      [
        0.2860728464393529,
        -0.007494352566916567,
        1.1741780496177558
      ],
      [
        0.28445451239579783,
        -0.007494352566916566,
        1.1776162015438816
      ],
      [
        0.2817583330964583,
        -0.007494352566916565,
        1.1796778537969637
      ],
      [
        0.27798328001842915,
        -0.007494352566916569,
        1.1803661036334852
      ],
      [
        0.27624512305617577,
        -0.007494352566916566,
        1.1801955908983228
      ],
      [
        0.27466503136435455,
        -0.007494352566916569,
        1.1796850870596254
      ],
      [
        0.2732430516940041,
        -0.0074943525669165685,
        1.1788335577506042
      ],
      [
        0.27197815552222193,
        -0.007494352566916566,
        1.1776410044322287
      ],
      [
        0.27091891718085165,
        -0.007494352566916565,
        1.1761394603335695
      ],
      [
        0.2701624385825505,
        -0.007494352566916565,
        1.174310325845064
      ],
      [
        0.26970773795545283,
        -0.007494352566916565,
        1.1721536009667102
      ],
      [
        0.2695568723453716,
        -0.007494352566916566,
        1.1696682513317223
      ],
      [
        0.2697139558439381,
        -0.007494352566916565,
        1.166984488816742
      ],
      [
        0.2701872633854494,
        -0.007494352566916567,
        1.164685152809027
      ],
      [
        0.2709757664469989,
        -0.0074943525669165685,
        1.1627712791363338
      ],
      [
        0.27207941827754634,
        -0.007494352566916566,
        1.1612418334318753
      ],
      [
        0.2733980781467559,
        -0.007494352566916565,
        1.1600937155172288
      ],
      [
        0.274879945900933,
        -0.0074943525669165685,
        1.1592742223592158
      ],
      [
        0.27652619031610864,
        -0.007494352566916565,
        1.158782322512992
      ],
      [
        0.2783367178902016,
        -0.007494352566916567,
        1.1586180101346746
      ]
    ],
    "cv_weights": [
      1.0,
      1.0,
      1.0,
      1.0,
      1.0,
      1.0,
      1.0,
      1.0,
      1.0,
      1.0,
      1.0,
      1.0,
      1.0,
      1.0,
      1.0,
      1.0,
      1.0,
      1.0,
      1.0,
      1.0,
      1.0,
      1.0,
      1.0,
      1.0,
      1.0
    ],
    "knots": [
      0.0,
      1.0,
      2.0,
      3.0,
      4.0,
      5.0,
      6.0,
      7.0,
      8.0,
      9.0,
      10.0,
      11.0,
      12.0,
      13.0,
      14.0,
      15.0,
      16.0,
      17.0,
      18.0,
      19.0,
      20.0,
      21.0,
      22.0,
      23.0,
      24.0
    ]
  },
  "Character_baseshape21": {
    "degree": 3,
    "form": 0,
    "cv_positions": [
      [
        0.1745068724203748,
        2.064736837221539e-18,
        -0.19714781090301894
      ],
      [
        0.17156436778003142,
        1.651789469777231e-17,
        -0.19633044850292342
      ],
      [
        0.1664967208994395,
        8.258947348886155e-18,
        -0.1938783613026372
      ],
      [
        0.163063798819039,
        1.651789469777231e-17,
        -0.19158974658237007
      ],
      [
        0.15685184457831342,
        2.8906315721101546e-17,
        -0.18750293458189277
      ],
      [
        0.11631066953358023,
        8.258947348886155e-18,
        -0.15153898897769336
      ],
      [
        0.0563162693665754,
        2.4776842046658476e-17,
        -0.09726612561135696
