{
  "COGShape": {
    "degree": 3,
    "form": 2,
    "cv_positions": [
      [
        0.756538145223859,
        9.783866607819896e-07,
        -0.6461365970386455
      ],
      [
        0.9461648210452192,
        9.783808052685005e-07,
        -0.30742753492437375
      ],
      [
        0.9918407740166286,
        9.783835135528718e-07,
        0.07805372793144662
      ],
      [
        0.8864490557459871,
        9.783865197785846e-07,
        0.45167451515980084
      ],
      [
        0.646135119434849,
        9.783832134206918e-07,
        0.7565216793535307
      ],
      [
        0.30743660935897127,
        -9.783850771112258e-07,
        0.946200482033076
      ],
      [
        -0.0780577544251591,
        -9.783849744475002e-07,
        0.9918260600566615
      ],
      [
        -0.4516731058351468,
        -9.783856941762627e-07,
        0.8864564041275238
      ],
      [
        -0.7565227781613652,
        9.783851763103694e-07,
        0.6461311180853817
      ],
      [
        -0.9462004150853082,
        9.78384398078568e-07,
        0.3074386331518878
      ],
      [
        -0.9918260702481237,
        9.783800369082112e-07,
        -0.07805911464039504
      ],
      [
        -0.8864569193805614,
        9.783865849687766e-07,
        -0.45167240144854914
      ],
      [
        -0.6461301611218292,
        -9.783850973255352e-07,
        -0.7565236370984415
      ],
      [
        -0.3074407067788766,
        -9.783862110486359e-07,
        -0.946199586776295
      ],
      [
        0.07806276342804123,
        -9.783847410085295e-07,
        -0.9918279781910783
      ],
      [
        0.45166514359710874,
        -9.78386660794727e-07,
        -0.8864542142949756
      ],
      [
        0.756538145223859,
        9.783866607819896e-07,
        -0.6461365970386455
      ],
      [
        0.9461648210452192,
        9.783808052685005e-07,
        -0.30742753492437375
      ],
      [
        0.9918407740166286,
        9.783835135528718e-07,
        0.07805372793144662
      ]
    ],
    "cv_weights": [
      1.0,
      1.0,
      1.0,
      1.0,
      1.0,
      1.0,
      1.0,
      1.0,
      1.0,
      1.0,
      1.0,
      1.0,
      1.0,
      1.0,
      1.0,
      1.0,
      1.0,
      1.0,
      1.0
    ],
    "knots": [
      -2.5,
      -1.25,
      0.0,
      1.25,
      2.5,
      3.75,
      5.0,
      6.25,
      7.5,
      8.75,
      10.0,
      11.25,
      12.5,
      13.750000000000002,
      15.0,
      16.25,
      17.5,
      18.75,
      20.0,
      21.25,
      22.5
    ]
  },
  "COGShape1": {
    "degree": 3,
    "form": 2,
    "cv_positions": [
      [
        1.0473606000583606,
        2.4035848636159187e-17,
        -0.06755091880937517
      ],
      [
        1.053293252008799,
        2.620709172677218e-17,
        4.6146889010780456e-18
      ],
      [
        1.0473606000583606,
        2.4035848636159187e-17,
        0.06755091880937514
      ],
      [
        1.0426172148435018,
        2.6259490410604526e-17,
        0.11383290238574978
      ],
      [
        0.9871836194507443,
        1.2997620943876184e-17,
        0.20178587907166703
      ],
      [
        1.0428852642295487,
        -5.6338838958394515e-18,
        0.19532459734088206
      ],
      [
        1.0993791055369508,
        3.3063391370317033e-18,
        0.14186276911210632
      ],
      [
        1.1429353818134376,
        -1.9191422735387037e-18,
        0.11053030297245042
      ],
      [
        1.1874275827749765,
        1.1970869857969191e-18,
        0.06005142354664324
      ],
      [
        1.2115154611794285,
        -9.758903549900297e-19,
        -6.643472370827725e-17
      ],
      [
        1.1874275827749767,
        1.1970869857969205e-18,
        -0.06005142354664307
      ],
      [
        1.1429353818134371,
        -1.9191422735386952e-18,
        -0.11053030297245041
      ],
      [
        1.099379105536952,
        3.3063391370316775e-18,
        -0.1418627691121066
      ],
      [
        1.0428852642295476,
        -5.633883895839401e-18,
        -0.1953245973408819
      ],
      [
        0.9871836194507445,
        1.2997620943876127e-17,
        -0.20178587907166715
      ],
      [
        1.0426172148435027,
        2.625949041060456e-17,
        -0.11383290238574979
      ],
      [
        1.0473606000583606,
        2.4035848636159187e-17,
        -0.06755091880937517
      ],
      [
        1.053293252008799,
        2.620709172677218e-17,
        4.6146889010780456e-18
      ],
      [
        1.0473606000583606,
        2.4035848636159187e-17,
        0.06755091880937514
      ]
    ],
    "cv_weights": [
      1.0,
      1.0,
      1.0,
      1.0,
      1.0,
      1.0,
      1.0,
      1.0,
      1.0,
      1.0,
      1.0,
      1.0,
      1.0,
      1.0,
      1.0,
      1.0,
      1.0,
      1.0,
      1.0
    ],
    "knots": [
      -1.0,
      -0.5,
      0.0,
      0.5,
      1.0,
      1.5,
      2.0,
      2.5,
      3.0,
      3.5,
      4.0,
      4.5,
      5.0,
      5.5,
      6.0,
      6.5,
      7.0,
      7.5,
      8.0,
      8.5,
      9.0
    ]
  },
  "COGShape2": {
    "degree": 3,
    "form": 2,
    "cv_positions": [
      [
        -1.0473606000583606,
        2.4035848636159187e-17,
        0.06755091880937517
      ],
      [
        -1.053293252008799,
        2.620709172677218e-17,
        -4.6146889010780456e-18
      ],
      [
        -1.0473606000583606,
        2.4035848636159187e-17,
        -0.06755091880937514
      ],
      [
        -1.0426172148435018,
        2.6259490410604526e-17,
        -0.11383290238574978
      ],
      [
        -0.9871836194507443,
        1.2997620943876184e-17,
        -0.20178587907166703
      ],
      [
        -1.0428852642295487,
        -5.6338838958394515e-18,
        -0.19532459734088206
      ],
      [
        -1.0993791055369508,
        3.3063391370317033e-18,
        -0.14186276911210632
      ],
      [
        -1.1429353818134376,
        -1.9191422735387037e-18,
        -0.11053030297245042
      ],
      [
        -1.1874275827749765,
        1.1970869857969191e-18,
        -0.06005142354664324
      ],
      [
        -1.2115154611794285,
        -9.758903549900297e-19,
        6.643472370827725e-17
      ],
      [
        -1.1874275827749767,
        1.1970869857969205e-18,
        0.06005142354664307
      ],
      [
        -1.1429353818134371,
        -1.9191422735386952e-18,
        0.11053030297245041
      ],
      [
        -1.099379105536952,
        3.3063391370316775e-18,
        0.1418627691121066
      ],
      [
        -1.0428852642295476,
        -5.633883895839401e-18,
        0.1953245973408819
      ],
      [
        -0.9871836194507445,
        1.2997620943876127e-17,
        0.20178587907166715
      ],
      [
        -1.0426172148435027,
        2.625949041060456e-17,
        0.11383290238574979
      ],
      [
        -1.0473606000583606,
        2.4035848636159187e-17,
        0.06755091880937517
      ],
      [
        -1.053293252008799,
        2.620709172677218e-17,
        -4.6146889010780456e-18
      ],
      [
        -1.0473606000583606,
        2.4035848636159187e-17,
        -0.06755091880937514
      ]
    ],
    "cv_weights": [
      1.0,
      1.0,
      1.0,
      1.0,
      1.0,
      1.0,
      1.0,
      1.0,
      1.0,
      1.0,
      1.0,
      1.0,
      1.0,
      1.0,
      1.0,
      1.0,
      1.0,
      1.0,
      1.0
    ],
    "knots": [
      -1.0,
      -0.5,
      0.0,
      0.5,
      1.0,
      1.5,
      2.0,
      2.5,
      3.0,
      3.5,
      4.0,
      4.5,
      5.0,
      5.5,
      6.0,
      6.5,
      7.0,
      7.5,
      8.0,
      8.5,
      9.0
    ]
  },
  "COGShape3": {
    "degree": 3,
    "form": 2,
    "cv_positions": [
      [
        0.06755091880937517,
        1.8189155773406973e-17,
        1.0473606000583606
      ],
      [
        -4.6146889010780456e-18,
        1.916026459280598e-17,
        1.053293252008799
      ],
      [
        -0.06755091880937514,
        1.8189155773406973e-17,
        1.0473606000583606
      ],
      [
        -0.11383290238574978,
        2.343984728647322e-17,
        1.0426172148435018
      ],
      [
        -0.20178587907166703,
        1.3081752710849194e-17,
        0.9871836194507443
      ],
      [
        -0.19532459734088206,
        3.1522251806744453e-18,
        1.0428852642295487
      ],
      [
        -0.14186276911210632,
        9.519079188163684e-18,
        1.0993791055369508
      ],
      [
        -0.11053030297245042,
        2.112232532751704e-18,
        1.1429353818134376
      ],
      [
        -0.06005142354664324,
        1.5356394041509106e-19,
        1.1874275827749765
      ],
      [
        6.643472370827725e-17,
        -4.7557916393382944e-18,
        1.2115154611794285
      ],
      [
        0.06005142354664307,
        1.5356394041508133e-19,
        1.1874275827749767
      ],
      [
        0.11053030297245041,
        2.1122325327517254e-18,
        1.1429353818134371
      ],
      [
        0.1418627691121066,
        9.519079188163656e-18,
        1.099379105536952
      ],
      [
        0.1953245973408819,
        3.1522251806744785e-18,
        1.0428852642295476
      ],
      [
        0.20178587907166715,
        1.3081752710849151e-17,
        0.9871836194507445
      ],
      [
        0.11383290238574979,
        2.3439847286473258e-17,
        1.0426172148435027
      ],
      [
        0.06755091880937517,
        1.8189155773406973e-17,
        1.0473606000583606
      ],
      [
        -4.6146889010780456e-18,
        1.916026459280598e-17,
        1.053293252008799
      ],
      [
        -0.06755091880937514,
        1.8189155773406973e-17,
        1.0473606000583606
      ]
    ],
    "cv_weights": [
      1.0,
      1.0,
      1.0,
      1.0,
      1.0,
      1.0,
      1.0,
      1.0,
      1.0,
      1.0,
      1.0,
      1.0,
      1.0,
      1.0,
      1.0,
      1.0,
      1.0,
      1.0,
      1.0
    ],
    "knots": [
      -1.0,
      -0.5,
      0.0,
      0.5,
      1.0,
      1.5,
      2.0,
      2.5,
      3.0,
      3.5,
      4.0,
      4.5,
      5.0,
      5.5,
      6.0,
      6.5,
      7.0,
      7.5,
      8.0,
      8.5,
      9.0
    ]
  },
  "COGShape4": {
    "degree": 3,
    "form": 2,
    "cv_positions": [
      [
        -0.06755091880937521,
        1.818915577340695e-17,
        -1.0473606000583595
      ],
      [
        2.2588058089078664e-16,
        1.9160264592805992e-17,
        -1.0532932520087992
      ],
      [
        0.06755091880937501,
        1.818915577340695e-17,
        -1.0473606000583595
      ],
      [
        0.11383290238575025,
        2.3439847286473245e-17,
        -1.0426172148435044
      ],
      [
        0.2017858790716667,
        1.3081752710849191e-17,
        -0.9871836194507428
      ],
      [
        0.1953245973408827,
        3.1522251806744773e-18,
        -1.0428852642295505
      ],
      [
        0.14186276911210607,
        9.519079188163654e-18,
        -1.0993791055369486
      ],
      [
        0.11053030297245095,
        2.112232532751733e-18,
        -1.1429353818134398
      ],
      [
        0.060051423546643286,
        1.5356394041508282e-19,
        -1.1874275827749738
      ],
      [
        1.309901718562088e-16,
        -4.755791639338289e-18,
        -1.2115154611794303
      ],
      [
        -0.06005142354664295,
        1.5356394041507654e-19,
        -1.1874275827749754
      ],
      [
        -0.11053030297245037,
        2.1122325327517242e-18,
        -1.142935381813438
      ],
      [
        -0.14186276911210619,
        9.519079188163654e-18,
        -1.0993791055369504
      ],
      [
        -0.19532459734088187,
        3.15222518067448e-18,
        -1.0428852642295487
      ],
      [
        -0.2017858790716671,
        1.308175271084913e-17,
        -0.9871836194507441
      ],
      [
        -0.1138329023857495,
        2.3439847286473298e-17,
        -1.0426172148435027
      ],
      [
        -0.06755091880937521,
        1.818915577340695e-17,
        -1.0473606000583595
      ],
      [
        2.2588058089078664e-16,
        1.9160264592805992e-17,
        -1.0532932520087992
      ],
      [
        0.06755091880937501,
        1.818915577340695e-17,
        -1.0473606000583595
      ]
    ],
    "cv_weights": [
      1.0,
      1.0,
      1.0,
      1.0,
      1.0,
      1.0,
      1.0,
      1.0,
      1.0,
      1.0,
      1.0,
      1.0,
      1.0,
      1.0,
      1.0,
      1.0,
      1.0,
      1.0,
      1.0
    ],
    "knots": [
      -1.0,
      -0.5,
      0.0,
      0.5,
      1.0,
      1.5,
      2.0,
      2.5,
      3.0,
      3.5,
      4.0,
      4.5,
      5.0,
      5.5,
      6.0,
      6.5,
      7.0,
      7.5,
      8.0,
      8.5,
      9.0
    ]
  },
  "COGShape5": {
    "degree": 3,
    "form": 2,
    "cv_positions": [
      [
        -0.8287939722197544,
        0.22868515193665911,
        -0.5503736741987418
      ],
      [
        -0.9762709083167379,
        0.22868573748782278,
        -0.19130173396832667
      ],
      [
        -0.9752137568322948,
        0.22868546665965325,
        0.19687474538546335
      ],
      [
        -0.8256150255182979,
        0.22868516603656036,
        0.5550927328154864
      ],
      [
        -0.5503534981965962,
        3.8364526965904434e-08,
        0.8287963555149978
      ],
      [
        -0.19128575868721173,
        -3.3923718723147876e-08,
        0.9560651854856047
      ],
      [
        -0.19687792537911442,
        1.699912084627848e-08,
        0.9549794573062567
      ],
      [
        -0.5550931721941147,
        -5.497408226885673e-08,
        0.8256413974139047
      ],
      [
        -0.8287979186041466,
        1.3073302483979007e-07,
        0.5503683009782734
      ],
      [
        -0.976327440682282,
        5.2909512127060546e-08,
        0.191306683125748
      ],
      [
        -0.9752183727913978,
        -3.8320711595694534e-07,
        -0.19688010687408183
      ],
      [
        -0.8256429476282435,
        2.7159902519998176e-07,
        -0.5550933648942236
      ],
      [
        -0.5503682015008995,
        4.7114297770334755e-09,
        -0.8287994860478137
      ],
      [
        -0.1913097952996929,
        -1.066610714267279e-07,
        -0.9560665738140905
      ],
      [
        -0.19686326762812462,
        -6.753397209256015e-08,
        -0.9549825072027157
      ],
      [
        -0.5550651430348192,
        1.244441405313112e-07,
        -0.8256419657938862
      ],
      [
        -0.8287939722197544,
        0.22868515193665911,
        -0.5503736741987418
      ],
      [
        -0.9762709083167379,
        0.22868573748782278,
        -0.19130173396832667
      ],
      [
        -0.9752137568322948,
        0.22868546665965325,
        0.19687474538546335
      ]
    ],
    "cv_weights": [
      1.0,
      1.0,
      1.0,
      1.0,
      1.0,
      1.0,
      1.0,
      1.0,
      1.0,
      1.0,
      1.0,
      1.0,
      1.0,
      1.0,
      1.0,
      1.0,
      1.0,
      1.0,
      1.0
    ],
    "knots": [
      -2.5,
      -1.25,
      0.0,
      1.25,
      2.5,
      3.75,
      5.0,
      6.25,
      7.5,
      8.75,
      10.0,
      11.25,
      12.5,
      13.750000000000002,
      15.0,
      16.25,
      17.5,
      18.75,
      20.0,
      21.25,
      22.5
    ]
  },
  "COGShape6": {
    "degree": 3,
    "form": 2,
    "cv_positions": [
      [
        0.8287939722197544,
        0.22868515193665911,
        -0.5503736741987418
      ],
      [
        0.9762709083167379,
        0.22868573748782278,
        -0.19130173396832667
      ],
      [
        0.9752137568322948,
        0.22868546665965325,
        0.19687474538546335
      ],
      [
        0.8256150255182979,
        0.22868516603656036,
        0.5550927328154864
      ],
      [
        0.5503534981965962,
        3.8364526965904434e-08,
        0.8287963555149978
      ],
      [
        0.19128575868721173,
        -3.3923718723147876e-08,
        0.9560651854856047
      ],
      [
        0.19687792537911442,
        1.699912084627848e-08,
        0.9549794573062567
      ],
      [
        0.5550931721941147,
        -5.497408226885673e-08,
        0.8256413974139047
      ],
      [
        0.8287979186041466,
        1.3073302483979007e-07,
        0.5503683009782734
      ],
      [
        0.976327440682282,
        5.2909512127060546e-08,
        0.191306683125748
      ],
      [
        0.9752183727913978,
        -3.8320711595694534e-07,
        -0.19688010687408183
      ],
      [
        0.8256429476282435,
        2.7159902519998176e-07,
        -0.5550933648942236
      ],
      [
        0.5503682015008995,
        4.7114297770334755e-09,
        -0.8287994860478137
      ],
      [
        0.1913097952996929,
        -1.066610714267279e-07,
        -0.9560665738140905
      ],
      [
        0.19686326762812462,
        -6.753397209256015e-08,
        -0.9549825072027157
      ],
      [
        0.5550651430348192,
        1.244441405313112e-07,
        -0.8256419657938862
      ],
      [
        0.8287939722197544,
        0.22868515193665911,
        -0.5503736741987418
      ],
      [
        0.9762709083167379,
        0.22868573748782278,
        -0.19130173396832667
      ],
      [
        0.9752137568322948,
        0.22868546665965325,
        0.19687474538546335
      ]
    ],
    "cv_weights": [
      1.0,
      1.0,
      1.0,
      1.0,
      1.0,
      1.0,
      1.0,
      1.0,
      1.0,
      1.0,
      1.0,
      1.0,
      1.0,
      1.0,
      1.0,
      1.0,
      1.0,
      1.0,
      1.0
    ],
    "knots": [
      -2.5,
      -1.25,
      0.0,
      1.25,
      2.5,
      3.75,
      5.0,
      6.25,
      7.5,
      8.75,
      10.0,
      11.25,
      12.5,
      13.750000000000002,
      15.0,
      16.25,
      17.5,
      18.75,
      20.0,
      21.25,
      22.5
    ]
  }
}