{
  "simsShape": {
    "degree": 3,
    "form": 2,
    "cv_positions": [
      [
        0.6835475599586004,
        0.12427961729283468,
        -0.18212535430254242
      ],
      [
        0.6835453147720346,
        2.318711215900604e-16,
        -0.21853351210117208
      ],
      [
        0.6835475599586004,
        -0.12427961729283502,
        -0.18212535430254176
      ],
      [
        0.7757537213902947,
        -0.13592527344826813,
        -0.19558603903323643
      ],
      [
        1.3737612338875826,
        -0.24322915634012712,
        -0.3008343023662325
      ],
      [
        1.9765173737852602,
        -0.34715786092847967,
        -0.40500365352680734
      ],
      [
        1.9765173737912076,
        -0.34715786093116807,
        -0.4050036535282596
      ],
      [
        1.9765173737912076,
        -1.3124236303184547e-16,
        -0.49622219495662934
      ],
      [
        1.9765173737912076,
        0.34715773537217254,
        -0.40500377908725527
      ],
      [
        1.9765173737852602,
        0.347157735366973,
        -0.40500377908580304
      ],
      [
        1.3737612338875826,
        0.24298756848718495,
        -0.30107588538746605
      ],
      [
        0.7757537213902947,
        0.13592527344826813,
        -0.19558603903323643
      ],
      [
        0.6835475599586004,
        0.12427961729283468,
        -0.18212535430254242
      ],
      [
        0.6835453147720346,
        2.318711215900604e-16,
        -0.21853351210117208
      ],
      [
        0.6835475599586004,
        -0.12427961729283502,
        -0.18212535430254176
      ]
    ],
    "cv_weights": [
      1.0,
      1.0,
      1.0,
      1.0,
      1.0,
      1.0,
      1.0,
      1.0,
      1.0,
      1.0,
      1.0,
      1.0,
      1.0,
      1.0,
      1.0
    ],
    "knots": [
      -0.16666666666666666,
      -0.08333333333333333,
      0.0,
      0.08333333333333333,
      0.16666666666666666,
      0.25,
      0.3333333333333333,
      0.41666666666666663,
      0.5,
      0.5833333333333334,
      0.6666666666666666,
      0.75,
      0.8333333333333333,
      0.9166666666666666,
      1.0,
      1.0833333333333333,
      1.1666666666666667
    ]
  },
  "simsShape1": {
    "degree": 3,
    "form": 2,
    "cv_positions": [
      [
        0.6835475599586004,
        0.12427943616075442,
        0.06643369915104685
      ],
      [
        0.6835453147720346,
        0.16068759395938273,
        -0.05784591814178759
      ],
      [
        0.6835475599586004,
        0.1242794361607541,
        -0.18212553543462287
      ],
      [
        0.7757537213902947,
        0.1377401208914486,
        -0.19377119159005596
      ],
      [
        1.3737612338875826,
        0.2429883842244447,
        -0.3010750744819148
      ],
      [
        1.9765173737852602,
        0.34715773538501976,
        -0.40500377907026724
      ],
      [
        1.9765173737912076,
        0.3471577353864721,
        -0.40500377907295565
      ],
      [
        1.9765173737912076,
        0.43837627681484165,
        -0.05784591814178779
      ],
      [
        1.9765173737912076,
        0.3471578609454675,
        0.28931181723038485
      ],
      [
        1.9765173737852602,
        0.3471578609440152,
        0.28931181722518523
      ],
      [
        1.3737612338875826,
        0.24322996724567833,
        0.18514165034539704
      ],
      [
        0.7757537213902947,
        0.1377401208914486,
        0.07807935530648033
      ],
      [
        0.6835475599586004,
        0.12427943616075442,
        0.06643369915104685
      ],
      [
        0.6835453147720346,
        0.16068759395938273,
        -0.05784591814178759
      ],
      [
        0.6835475599586004,
        0.1242794361607541,
        -0.18212553543462287
      ]
    ],
    "cv_weights": [
      1.0,
      1.0,
      1.0,
      1.0,
      1.0,
      1.0,
      1.0,
      1.0,
      1.0,
      1.0,
      1.0,
      1.0,
      1.0,
      1.0,
      1.0
    ],
    "knots": [
      -0.16666666666666666,
      -0.08333333333333333,
      0.0,
      0.08333333333333333,
      0.16666666666666666,
      0.25,
      0.3333333333333333,
      0.41666666666666663,
      0.5,
      0.5833333333333334,
      0.6666666666666666,
      0.75,
      0.8333333333333333,
      0.9166666666666666,
      1.0,
      1.0833333333333333,
      1.1666666666666667
    ]
  },
  "simsShape2": {
    "degree": 3,
    "form": 2,
    "cv_positions": [
      [
        0.6835475599586004,
        -0.12427961729283471,
        0.0664335180189666
      ],
      [
        0.6835453147720346,
        -2.12192566829556e-16,
        0.1028416758175949
      ],
      [
        0.6835475599586004,
        0.12427961729283502,
        0.06643351801896627
      ],
      [
        0.7757537213902947,
        0.13592527344826816,
        0.07989420274966078
      ],
      [
        1.3737612338875826,
        0.24322915634012707,
        0.18514246608265694
      ],
      [
        1.9765173737852602,
        0.34715786092847956,
        0.2893118172432321
      ],
      [
        1.9765173737912076,
        0.3471578609311679,
        0.2893118172446845
      ],
      [
        1.9765173737912076,
        1.8492797345418843e-16,
        0.38053035867305396
      ],
      [
        1.9765173737912076,
        -0.34715773537217254,
        0.2893119428036799
      ],
      [
        1.9765173737852602,
        -0.347157735366973,
        0.28931194280222755
      ],
      [
        1.3737612338875826,
        -0.24298756848718484,
        0.18538404910389056
      ],
      [
        0.7757537213902947,
        -0.13592527344826813,
        0.0798942027496608
      ],
      [
        0.6835475599586004,
        -0.12427961729283471,
        0.0664335180189666
      ],
      [
        0.6835453147720346,
        -2.12192566829556e-16,
        0.1028416758175949
      ],
      [
        0.6835475599586004,
        0.12427961729283502,
        0.06643351801896627
      ]
    ],
    "cv_weights": [
      1.0,
      1.0,
      1.0,
      1.0,
      1.0,
      1.0,
      1.0,
      1.0,
      1.0,
      1.0,
      1.0,
      1.0,
      1.0,
      1.0,
      1.0
    ],
    "knots": [
      -0.16666666666666666,
      -0.08333333333333333,
      0.0,
      0.08333333333333333,
      0.16666666666666666,
      0.25,
      0.3333333333333333,
      0.41666666666666663,
      0.5,
      0.5833333333333334,
      0.6666666666666666,
      0.75,
      0.8333333333333333,
      0.9166666666666666,
      1.0,
      1.0833333333333333,
      1.1666666666666667
    ]
  },
  "simsShape3": {
    "degree": 3,
    "form": 2,
    "cv_positions": [
      [
        0.6835475599586004,
        -0.12427943616075443,
        -0.18212553543462254
      ],
      [
        0.6835453147720346,
        -0.16068759395938273,
        -0.05784591814178805
      ],
      [
        0.6835475599586004,
        -0.12427943616075408,
        0.06643369915104722
      ],
      [
        0.7757537213902947,
        -0.1377401208914486,
        0.07807935530648033
      ],
      [
        1.3737612338875826,
        -0.24298838422444466,
        0.18538323819833932
      ],
      [
        1.9765173737852602,
        -0.3471577353850198,
        0.28931194278669187
      ],
      [
        1.9765173737912076,
        -0.3471577353864722,
        0.2893119427893802
      ],
      [
        1.9765173737912076,
        -0.43837627681484165,
        -0.05784591814178753
      ],
      [
        1.9765173737912076,
        -0.3471578609454677,
        -0.4050036535139602
      ],
      [
        1.9765173737852602,
        -0.34715786094401524,
        -0.40500365350876066
      ],
      [
        1.3737612338875826,
        -0.24322996724567825,
        -0.3008334866289726
      ],
      [
        0.7757537213902947,
        -0.1377401208914486,
        -0.19377119159005596
      ],
      [
        0.6835475599586004,
        -0.12427943616075443,
        -0.18212553543462254
      ],
      [
        0.6835453147720346,
        -0.16068759395938273,
        -0.05784591814178805
      ],
      [
        0.6835475599586004,
        -0.12427943616075408,
        0.06643369915104722
      ]
    ],
    "cv_weights": [
      1.0,
      1.0,
      1.0,
      1.0,
      1.0,
      1.0,
      1.0,
      1.0,
      1.0,
      1.0,
      1.0,
      1.0,
      1.0,
      1.0,
      1.0
    ],
    "knots": [
      -0.16666666666666666,
      -0.08333333333333333,
      0.0,
      0.08333333333333333,
      0.16666666666666666,
      0.25,
      0.3333333333333333,
      0.41666666666666663,
      0.5,
      0.5833333333333334,
      0.6666666666666666,
      0.75,
      0.8333333333333333,
      0.9166666666666666,
      1.0,
      1.0833333333333333,
      1.1666666666666667
    ]
  },
  "simsShape4": {
    "degree": 3,
    "form": 2,
    "cv_positions": [
      [
        2.4298418920696823,
        -0.12427961729283471,
        -0.18212535430254206
      ],
      [
        2.4298426799178894,
        -2.399767078590012e-16,
        -0.21853351210117042
      ],
      [
        2.4298418920696823,
        0.12427961729283504,
        -0.18212535430254176
      ],
      [
        2.397486247296084,
        0.13592527344826816,
        -0.1955860390332363
      ],
      [
        2.1876421506991437,
        0.24322915634012712,
        -0.3008343023662325
      ],
      [
        1.9765173619111769,
        0.34715786092847956,
        -0.4050036535268075
      ],
      [
        1.9765173619090899,
        0.3471578609311679,
        -0.4050036535282599
      ],
      [
        1.9765173619090899,
        1.0016876458278606e-16,
        -0.4962221949566294
      ],
      [
        1.97651736190909,
        -0.34715773537217254,
        -0.40500377908725527
      ],
      [
        1.9765173619111769,
        -0.347157735366973,
        -0.4050037790858029
      ],
      [
        2.187642150699144,
        -0.24298756848718495,
        -0.30107588538746605
      ],
      [
        2.397486247296084,
        -0.13592527344826813,
        -0.1955860390332363
      ],
      [
        2.4298418920696823,
        -0.12427961729283471,
        -0.18212535430254206
      ],
      [
        2.4298426799178894,
        -2.399767078590012e-16,
        -0.21853351210117042
      ],
      [
        2.4298418920696823,
        0.12427961729283504,
        -0.18212535430254176
      ]
    ],
    "cv_weights": [
      1.0,
      1.0,
      1.0,
      1.0,
      1.0,
      1.0,
      1.0,
      1.0,
      1.0,
      1.0,
      1.0,
      1.0,
      1.0,
      1.0,
      1.0
    ],
    "knots": [
      -0.16666666666666666,
      -0.08333333333333333,
      0.0,
      0.08333333333333333,
      0.16666666666666666,
      0.25,
      0.3333333333333333,
      0.41666666666666663,
      0.5,
      0.5833333333333334,
      0.6666666666666666,
      0.75,
      0.8333333333333333,
      0.9166666666666666,
      1.0,
      1.0833333333333333,
      1.1666666666666667
    ]
  },
  "simsShape5": {
    "degree": 3,
    "form": 2,
    "cv_positions": [
      [
        2.4298418920696823,
        -0.12427943616075442,
        0.06643369915104713
      ],
      [
        2.4298426799178894,
        -0.16068759395938276,
        -0.05784591814178737
      ],
      [
        2.4298418920696823,
        -0.12427943616075408,
        -0.1821255354346227
      ],
      [
        2.397486247296084,
        -0.1377401208914486,
        -0.19377119159005574
      ],
      [
        2.187642150699144,
        -0.2429883842244447,
        -0.3010750744819147
      ],
      [
        1.9765173619111769,
        -0.34715773538501976,
        -0.40500377907026724
      ],
      [
        1.97651736190909,
        -0.3471577353864721,
        -0.40500377907295565
      ],
      [
        1.9765173619090899,
        -0.4383762768148417,
        -0.05784591814178779
      ],
      [
        1.97651736190909,
        -0.3471578609454676,
        0.28931181723038485
      ],
      [
        1.9765173619111769,
        -0.34715786094401524,
        0.28931181722518523
      ],
      [
        2.187642150699144,
        -0.24322996724567833,
        0.1851416503453972
      ],
      [
        2.397486247296084,
        -0.1377401208914486,
        0.07807935530648052
      ],
      [
        2.4298418920696823,
        -0.12427943616075442,
        0.06643369915104713
      ],
      [
        2.4298426799178894,
        -0.16068759395938276,
        -0.05784591814178737
      ],
      [
        2.4298418920696823,
        -0.12427943616075408,
        -0.1821255354346227
      ]
    ],
    "cv_weights": [
      1.0,
      1.0,
      1.0,
      1.0,
      1.0,
      1.0,
      1.0,
      1.0,
      1.0,
      1.0,
      1.0,
      1.0,
      1.0,
      1.0,
      1.0
    ],
    "knots": [
      -0.16666666666666666,
      -0.08333333333333333,
      0.0,
      0.08333333333333333,
      0.16666666666666666,
      0.25,
      0.3333333333333333,
      0.41666666666666663,
      0.5,
      0.5833333333333334,
      0.6666666666666666,
      0.75,
      0.8333333333333333,
      0.9166666666666666,
      1.0,
      1.0833333333333333,
      1.1666666666666667
    ]
  },
  "simsShape6": {
    "degree": 3,
    "form": 2,
    "cv_positions": [
      [
        2.4298418920696823,
        0.12427943616075439,
        -0.1821255354346224
      ],
      [
        2.4298426799178894,
        0.16068759395938273,
        -0.05784591814178788
      ],
      [
        2.4298418920696823,
        0.12427943616075413,
        0.06643369915104744
      ],
      [
        2.397486247296084,
        0.13774012089144863,
        0.0780793553064805
      ],
      [
        2.1876421506991437,
        0.2429883842244447,
        0.18538323819833932
      ],
      [
        1.9765173619111767,
        0.3471577353850197,
        0.28931194278669187
      ],
      [
        1.9765173619090899,
        0.34715773538647215,
        0.2893119427893802
      ],
      [
        1.9765173619090899,
        0.4383762768148415,
        -0.05784591814178763
      ],
      [
        1.9765173619090899,
        0.3471578609454676,
        -0.4050036535139602
      ],
      [
        1.9765173619111767,
        0.34715786094401524,
        -0.40500365350876066
      ],
      [
        2.1876421506991437,
        0.24322996724567822,
        -0.3008334866289725
      ],
      [
        2.397486247296084,
        0.13774012089144858,
        -0.1937711915900558
      ],
      [
        2.4298418920696823,
        0.12427943616075439,
        -0.1821255354346224
      ],
      [
        2.4298426799178894,
        0.16068759395938273,
        -0.05784591814178788
      ],
      [
        2.4298418920696823,
        0.12427943616075413,
        0.06643369915104744
      ]
    ],
    "cv_weights": [
      1.0,
      1.0,
      1.0,
      1.0,
      1.0,
      1.0,
      1.0,
      1.0,
      1.0,
      1.0,
      1.0,
      1.0,
      1.0,
      1.0,
      1.0
    ],
    "knots": [
      -0.16666666666666666,
      -0.08333333333333333,
      0.0,
      0.08333333333333333,
      0.16666666666666666,
      0.25,
      0.3333333333333333,
      0.41666666666666663,
      0.5,
      0.5833333333333334,
      0.6666666666666666,
      0.75,
      0.8333333333333333,
      0.9166666666666666,
      1.0,
      1.0833333333333333,
      1.1666666666666667
    ]
  },
  "simsShape7": {
    "degree": 3,
    "form": 2,
    "cv_positions": [
      [
        2.4298418920696823,
        0.12427961729283475,
        0.06643351801896685
      ],
      [
        2.4298426799178894,
        1.8926005626736173e-16,
        0.10284167581759521
      ],
      [
        2.4298418920696823,
        -0.12427961729283504,
        0.06643351801896652
      ],
      [
        2.397486247296084,
        -0.13592527344826813,
        0.07989420274966105
      ],
      [
        2.187642150699144,
        -0.24322915634012707,
        0.18514246608265714
      ],
      [
        1.9765173619111769,
        -0.34715786092847956,
        0.2893118172432321
      ],
      [
        1.97651736190909,
        -0.3471578609311679,
        0.2893118172446844
      ],
      [
        1.9765173619090899,
        -2.266333411448379e-16,
        0.380530358673054
      ],
      [
        1.9765173619090899,
        0.34715773537217254,
        0.28931194280368
      ],
      [
        1.9765173619111769,
        0.3471577353669729,
        0.28931194280222766
      ],
      [
        2.1876421506991437,
        0.24298756848718484,
        0.18538404910389075
      ],
      [
        2.397486247296084,
        0.13592527344826813,
        0.07989420274966108
      ],
      [
        2.4298418920696823,
        0.12427961729283475,
        0.06643351801896685
      ],
      [
        2.4298426799178894,
        1.8926005626736173e-16,
        0.10284167581759521
      ],
      [
        2.4298418920696823,
        -0.12427961729283504,
        0.06643351801896652
      ]
    ],
    "cv_weights": [
      1.0,
      1.0,
      1.0,
      1.0,
      1.0,
      1.0,
      1.0,
      1.0,
      1.0,
      1.0,
      1.0,
      1.0,
      1.0,
      1.0,
      1.0
    ],
    "knots": [
      -0.16666666666666666,
      -0.08333333333333333,
      0.0,
      0.08333333333333333,
      0.16666666666666666,
      0.25,
      0.3333333333333333,
      0.41666666666666663,
      0.5,
      0.5833333333333334,
      0.6666666666666666,
      0.75,
      0.8333333333333333,
      0.9166666666666666,
      1.0,
      1.0833333333333333,
      1.1666666666666667
    ]
  }
}